epoch,weights,biases
500,"[0.4024956595777866, 0.35669757120118684, -0.047427926538855504, -0.4148245865528122, -0.46322991121304624, 0.4176740731006879, 0.2613100735644169, -0.6252907624083542, 0.23950692703946716, -0.5869348268049163, -0.31721650766398574, 0.5126634102555615, -0.33845383915233124, 0.07429565101802428, 1.0273738282945686, 0.22793122447641026, 0.03457213937330308, 2.1246494134802482e-05, 2.0702618721262317e-06, 0.2887479872160423, 0.06464444155903208, 0.0002939944701489966, 0.3813607064326926, 0.01605269075811557, 0.1468750743426321, 0.016161141734108476, 0.2537968009354291, 0.026838833771565006, 2.0771561726893005e-05, 0.2452629743344756, -1.0612953257544697, 0.7392677454233463, 0.875429323527261, 0.15755497574813862, 0.2496086349274298, 0.10163505833404608, -0.13206832453424844, 0.47962955712318345, 1.063568543400528, 0.20261263385246028, 0.5160003776874642, -0.6536371732713754, -0.08071974620259667, -0.028557718654771545, 0.7126388418934132, 0.08375822537987013, 0.618439315116694, 0.04320158706824767, 0.5480071482293697, 0.08508981883796131, 0.11840621731627406, 0.07184860983534651, 0.07196134912536911, 0.2804991859472629, 0.06390526333389711, 0.052664029515323306, 0.023000310313920785, 0.2546051392351983, 0.528810297481093, 0.14151060338185323, -0.11701572503962225, 0.06839277457192282, -0.1740829796769819, 0.6300716388800003, 0.1843133697755291, 0.514473431780097, 0.3342943044990998, 0.20984010445957368, -0.22756733016119118, -0.11117761368286437, 0.25521498714814356, -0.31815642914778114, -0.5881437430739214, 0.4087429550169825, -0.2579793430479189, 0.10866177451777942, 0.17642499605352088, 0.04743448609299229, 0.39245396110874664, 0.7028862160934176, 0.0021622525371080216, 0.635183496137327, 0.009362869228487487, 0.018813744305370035, 0.13516531803827392, 0.07092840655314693, 0.018121160821145677, 0.5422648447785774, 0.0423897177841463, 0.1559826918890291, 0.6937799081637313, -0.439665488601978, 0.04119184318198315, -0.02531522059746042, 0.4449003926556941, -0.07550014379065392, 0.26976085346206996, 0.8371166140482752, -0.32330745512783127, 0.7347689155509248, -0.2139223500511535, 0.5869318169632102, -0.042490378313022055, -0.7113972812925358, 0.1111213875263091, 0.0911428391883436, 0.10386199232425034, 0.012370815032232552, 0.4248684940659266, 0.049669637831924754, 0.02065972946729046, 0.3499186609636122, 0.15434626529477932, 0.30514145425858924, 0.01011725117455887, 0.006578660120340761, 0.022691031293949816, 0.16623181179732255, 0.14117893562375955, 0.3491989531707443, 0.9286866611823167, 0.03159647019989077, 0.3782704912869325, 0.5105039416832917, -0.2927597957547273, 0.8427769819282626, -1.2598236937603635, -0.7508547216710613, -0.042190376119551766, -0.842142404343802, 1.0061094880514292, 0.22393396480739589, 0.15372430858563346, 0.4903965727990752, -0.0411548125292715, 0.0140427154245557, 0.2853522767524976, 0.01591581117046793, 0.09025192734888524, 0.4644105451536218, 0.34916249280698086, 0.037321868114838265, 0.0400909968916987, 0.011804604371260184, 0.19505890583732488, 0.058609706990894246, 0.5511569274145423, 0.19155518776129532, 0.09092227233384594, 0.34615738991085815, 0.05531303799190782, 0.7912565195078076, -0.18995146689928064, 0.31203558440017193, 0.4753375925960168, 0.43567420711232435, 0.6998649724276559, 1.1023553388318452, 0.637357398016414, -0.03940088289992338, -0.6792956548263777, -0.3956526864768449, 0.17584813627578033, -0.35035492653681716, 0.7630011114752117, 0.4819393538191475, 0.42408188682350817, 0.0001651109029767573, 0.06892853764710664, 0.00011014376537027784, 0.1141657133162933, 0.3433978537332, 0.2569533051516866, 0.037589031055359365, 0.04663759269115434, 0.003959470247572978, 0.5932045110873994, 0.009188941238015837, 0.013867673132303407, 0.06071426241118128, -0.4765219310808129, -0.1940851164499179, 0.38053805070318103, 0.07416152237034443, 0.11150092023888669, -0.14872661300245177, 0.9473528079879854, -0.363803314577902, -0.4157441523491482, -0.3847475089457384, 0.03593042150245811, 0.1576304481266132, -0.16164663013805144, 0.10715126140657491, -0.6686942454636672, 0.5603945575656543, 0.0007612744757899149, 0.0366786510046868, 0.011429659596267409, 0.2704188448007863, 0.0019332423213151016, 0.1500384543845622, 0.4700190189938632, 0.1575273179286006, 7.944533294087575e-05, 0.008438031909072595, 0.10243348525109358, 0.22095389448171504, 0.29021325244882434, 0.059558333341950286, 0.7001504957416651, 0.5034729005249593, 0.16121161332528078, 0.48527655648629, 0.4867286928547862, 0.2555422864967563, -1.340083431710966, -0.5771817113078646, 0.6048398285499674, 0.33404170978218023, -0.0698075016444943, 0.07591812696433582, 0.018215064416641936, 0.244991422897674, -0.21013616814789515, 0.1692930707833549, 0.1204414617019942, 0.18510934593785328, 0.07060133097741468, 0.46101788312367703, 0.42227615252955136, 0.3604446154648501, 0.05841396310142595, 0.08609554159302993, 0.18489586929038143, 0.009262468929906396, 0.026990666820166126, 0.28562131392265466, 0.07830458918993773, 0.02529588867907654, -0.2211054698547314, -0.05808679628540344, 0.19038533041036768, 0.43973415645401176, 0.7570700730669262, -0.40432493903309347, 0.6096905184074742, 0.16833518238507944, 0.8661287968013646, -0.00022181849219203402, 0.41092741512448416, -0.271820607311407, 0.1365300107936077, -0.618483402868798, -0.01112288896394333, 0.27916756976870327, 0.0038355593012601003, 0.04379066687075112, 0.1184869929620748, 0.4708960696315089, 0.04691705119244892, 0.561279536240588, 0.048667914190057525, 0.0006874569664826331, 0.04989626796421357, 0.46186605036475004, 0.054136412046453114, 0.01425085000034092, 0.01047959355898901, 0.001384432741828763, -0.04671035391648208, 1.2009021505358282, -0.21239069457367765, 0.1770401384440121, -0.18865500315132389, 0.56975515355486, 0.013544412570496784, 0.0940260461800514, -0.330156832940779, -0.3762022936332984, -0.5966180526262901, 0.49736612269941494, 0.21985717932303692, 1.37768962349233, 0.37398997537805245, 0.4283164533657521, 0.00014976461856130906, 0.06916866660573237, 0.24701372855977724, 0.06133176820185369, 0.0743896713517044, 0.14609129142299873, 0.058980760433280266, 0.0363025869044663, 0.04706715966814657, 0.030635928483644596, 0.001316901720488478, 0.07841877507361322, 0.03769657515089117, 0.37703775380929627, -0.01082465166702276, -0.011328791932401407, -0.4376444980243303, 0.10636841650840562, 0.7217055160034052, 0.15249109441358244, -0.33474910760502424, 0.3904263250763336, 0.1746433940544376, -0.40645021809186943, -0.273348937150392, -0.3420142771555845, 0.8043266327337022, -0.03711829424152171, 0.2157843913925653, 0.0028554452469881563, 0.3599732891318211, 0.3860087925888383, 0.0020876958295452724, 0.0006305031466412737, 0.140170301335389, 0.0015057646842238448, 0.04420846554268425, 3.8035955460570193e-06, 0.06240917292269414, 0.17731460584601125, 0.0025366983147194168, 0.32172674704257254, 0.02206156653488515, 0.057972692036407696, 0.0845615277467557, -0.40703988243824746, -0.1792476641604801, -0.22981831280955, 1.2633962833462258, -0.1837627082899424, 0.07666668413653153, 0.012585739216720722, -0.23700707597184534, 0.37735370456793205, 0.4630910967898308, 0.8813435117265513, 0.5427954716703005, 0.34298720353395884, 0.1735876329590756, 0.1334085444649084, 0.7178786644850563, 0.05928004169640255, 0.08935105297624747, 0.018542159348761966, 0.24201170734874652, 0.6425468802014762, 0.004379833198224839, 0.18640135545555891, 0.0220130673947962, 0.0063310385243440575, 0.11520786757478377, 0.0012593754181793996, 0.00029770033951171103, 0.3899537941225754, 0.09738140819149818, -0.24653892535026822, -0.16948994250443766, -0.9431552628826507, 0.2513040948733347, 0.3171786483124315, 0.4393515766559893, -0.2795905697922345, 0.3605862870198189, 0.532120239964583, -0.24378447361254652, -0.03293042834633772, 0.21827588153983737, 0.1182066651565933, 0.5912834858746728, 0.07674166530369979, 0.07214072885636534, 0.05517574527491154, 0.07929689707031459, 0.1887613490325904, 0.002270270677479475, 0.16922504385513978, 0.04126055935308127, 0.055773523097064, 0.1133275411209696, 0.04033218070304435, 0.002685331331068122, 0.6540709925467251, 0.7581390921916604, 0.3248162880543218, -0.21475092909462812, -0.11892509022164846, 0.39599399947128827, -0.2967371250704341, 0.8450418273898638, -0.35991800794598333, 0.6452785249009907, 0.7966145520661277, 0.5533722965480105, -0.9195722968880058, 0.1715572782164307, 0.3780762283969616, -0.17058888923291668, 0.2635165449885003, 0.31332012894060074, 0.04153193715347463, 0.2726728562531267, 0.06339337013213292, 0.5326863394792488, 0.0917168270033181, 0.01524186945422366, 0.010628072308388224, 0.38682784485272625, 0.10871020304228199, 0.41878565375098387, 0.041546113857744454, 0.13676747406853637, 0.25838082908256377, 0.5498808800102901, 0.032067814873368655, -0.29653679262596644, 0.3394714879775424, -0.014482016833676625, -0.19487441334196645, 0.5769180870316724, 0.0035751533248273484, 0.6936397060549119, -0.5477164232973095, 0.3912432709916118, 0.01099449498291665, 0.3453487733516922, 0.47678201376423185, -0.32533381396391364, 1.0686667452572234, -0.5621934770723288, 0.08462592610349412, 0.04207846087925949, 0.509559222514769, 0.24900873624299494, 0.20826645780123262, 0.3918210640527003, 0.009806054533476076, 0.03681434781781812, 0.1032661934157009, 0.13362457778676057, 0.07487492858651837, 0.02720913632515174, 0.0996575325588019, 0.03842926047268657, 0.02509604311184475]","[-0.908223608394082, 0.6997774603206088, 1.4160946426524554, 0.8570842029801268, -0.8398426870175019, 1.1752946242243048, -0.46666129385351374, -1.1782943838403015, 0.8553560358272335, 0.6083135343900039, 0.5560531264048488, -0.8753297368273186, 0.5971489917128641, 1.1951558098532897, 0.4802902512031755]"
500,"[0.7764372966835994, -0.23759205214691773, 0.3884809763957024, -0.46323225466147616, 0.5951304159537137, 0.6661672671166087, -0.36327134504272085, -0.24485773265252275, 0.34304037710106605, -0.4971825957751724, 0.022340250885898874, 0.43794980908578346, 0.5245495280813083, 0.8380147914820213, -0.09029250575749338, 0.22793122447641026, 0.03457213937330308, 2.1246494134802482e-05, 2.0702618721262317e-06, 0.2887479872160423, 0.06464444155903208, 0.0002939944701489966, 0.3813607064326926, 0.01605269075811557, 0.1468750743426321, 0.016161141734108476, 0.2537968009354291, 0.026838833771565006, 2.0771561726893005e-05, 0.2452629743344756, -0.9667035276068062, 0.16091380033285008, 0.7631585393206295, 0.42980309542301004, 0.2954875213633713, -0.6797787065210423, -0.28836998063023145, 0.125157539914734, 1.410588005093425, -0.18771814157243716, -0.023525979942021262, -0.6740162280814216, -0.20502554161136258, -0.34538810786510554, 0.38870554955074543, 0.08375822537987013, 0.618439315116694, 0.04320158706824767, 0.5480071482293697, 0.08508981883796131, 0.11840621731627406, 0.07184860983534651, 0.07196134912536911, 0.2804991859472629, 0.06390526333389711, 0.052664029515323306, 0.023000310313920785, 0.2546051392351983, 0.528810297481093, 0.14151060338185323, 0.3313624847693168, 0.35730467868580246, 0.07975471766264614, 0.1508120206170907, 0.36669559488818126, -0.12051110010152644, -0.08382953754143596, 0.075669425580997, -0.23838256785101594, 0.7248879867110766, 0.2517152979519688, 0.2561100940596752, 0.32976373634361783, -0.21095375708173308, 0.03309335851864165, 0.10866177451777942, 0.17642499605352088, 0.04743448609299229, 0.39245396110874664, 0.7028862160934176, 0.0021622525371080216, 0.635183496137327, 0.009362869228487487, 0.018813744305370035, 0.13516531803827392, 0.07092840655314693, 0.018121160821145677, 0.5422648447785774, 0.0423897177841463, 0.1559826918890291, 0.6026906057096862, 0.9854247168862253, 0.43728766670363567, 0.3754046887606987, 0.8229249731126362, 0.20866735440781753, -0.22289037439968845, 0.18572191421619427, -0.09351150036721152, -0.12805985003902798, 0.3667615684462289, -0.10724095069406732, 0.472717747893873, -0.4984956837639575, -0.3813537270702594, 0.0911428391883436, 0.10386199232425034, 0.012370815032232552, 0.4248684940659266, 0.049669637831924754, 0.02065972946729046, 0.3499186609636122, 0.15434626529477932, 0.30514145425858924, 0.01011725117455887, 0.006578660120340761, 0.022691031293949816, 0.16623181179732255, 0.14117893562375955, 0.3491989531707443, 0.6817569644126117, 0.33108385019563175, 0.9782691838519786, -0.10553329577646241, 0.6814914533451945, 0.40505791110223377, -0.2914882806312814, -0.22369256936821688, -0.06970428037992756, 0.4400885391922878, 1.1362811664274919, 0.48920428764723484, -0.6451874704651787, -0.028287254430787487, 0.39790699104040994, 0.0140427154245557, 0.2853522767524976, 0.01591581117046793, 0.09025192734888524, 0.4644105451536218, 0.34916249280698086, 0.037321868114838265, 0.0400909968916987, 0.011804604371260184, 0.19505890583732488, 0.058609706990894246, 0.5511569274145423, 0.19155518776129532, 0.09092227233384594, 0.34615738991085815, -0.08280516038949581, 0.17974245372862588, -0.31881672845524456, 0.0490399782158701, 0.17625339158065187, -0.025548545893112767, -0.09198130384456546, 0.2276739346597588, 0.5215879975342949, -0.1432764210883449, 0.22411713474435094, 0.056848945996113336, -0.519807445544576, -0.3122103123506914, 0.7274972575011424, 0.4819393538191475, 0.42408188682350817, 0.0001651109029767573, 0.06892853764710664, 0.00011014376537027784, 0.1141657133162933, 0.3433978537332, 0.2569533051516866, 0.037589031055359365, 0.04663759269115434, 0.003959470247572978, 0.5932045110873994, 0.009188941238015837, 0.013867673132303407, 0.06071426241118128, -0.5628428741372296, 0.2496611662370992, -0.0013895098635445984, 0.06879218084406535, -0.3609404203482863, 0.7193997836906929, 0.9941291401909879, 0.641517512480384, 0.4331326579560878, -0.21491078527394952, -0.19035115873824282, 0.45466082791069345, -0.37635518849667804, 0.6264491866539558, 0.08434743459464747, 0.5603945575656543, 0.0007612744757899149, 0.0366786510046868, 0.011429659596267409, 0.2704188448007863, 0.0019332423213151016, 0.1500384543845622, 0.4700190189938632, 0.1575273179286006, 7.944533294087575e-05, 0.008438031909072595, 0.10243348525109358, 0.22095389448171504, 0.29021325244882434, 0.059558333341950286, 1.1317646053156705, 0.8067161643407341, -0.5493558254499987, -0.23635568421035075, 0.5881231826325338, -0.15202407704447252, -0.6863989436640061, 0.5623103430193197, -0.7007178992960464, -0.02917774806302239, -0.012217992357884967, 0.27635652316427994, -0.010150692803179904, 1.03927847280859, -0.1119960080479899, 0.1692930707833549, 0.1204414617019942, 0.18510934593785328, 0.07060133097741468, 0.46101788312367703, 0.42227615252955136, 0.3604446154648501, 0.05841396310142595, 0.08609554159302993, 0.18489586929038143, 0.009262468929906396, 0.026990666820166126, 0.28562131392265466, 0.07830458918993773, 0.02529588867907654, -0.41988741035234195, 0.3423464549158579, -0.2892494929688962, 0.371563086371257, 0.460525292694642, 0.4945181507437742, 0.41582142194050226, -0.4725838324042734, 0.6109195777522777, -0.871222066114416, 0.49108654343681446, -1.2509730720408725, -0.39676763820411376, 0.08225970882833811, -0.6286201614553465, 0.27916756976870327, 0.0038355593012601003, 0.04379066687075112, 0.1184869929620748, 0.4708960696315089, 0.04691705119244892, 0.561279536240588, 0.048667914190057525, 0.0006874569664826331, 0.04989626796421357, 0.46186605036475004, 0.054136412046453114, 0.01425085000034092, 0.01047959355898901, 0.001384432741828763, -0.3294558188266921, -0.34548189396839685, 0.5125660006991977, 0.5735854534778266, -0.12925500809132118, -0.1475759787679276, -0.15188021573645655, 0.24687405183307778, 0.14930405909700584, -0.051423739205273974, -0.17951708708197062, 1.0599834909297021, 0.433360536181717, 0.3667585124834017, -0.3213828184979129, 0.4283164533657521, 0.00014976461856130906, 0.06916866660573237, 0.24701372855977724, 0.06133176820185369, 0.0743896713517044, 0.14609129142299873, 0.058980760433280266, 0.0363025869044663, 0.04706715966814657, 0.030635928483644596, 0.001316901720488478, 0.07841877507361322, 0.03769657515089117, 0.37703775380929627, -0.03040053812025286, 0.7253813590601084, -0.45832541812610267, 0.9293691147814636, -0.017499216313758642, 0.3140482740871153, -0.7309676653233712, -0.09745998103193186, 0.05705171145886761, 0.18098074262201955, -0.0398544070754054, -0.5257809412112159, 0.5814199308670479, 0.6945553051775486, -0.136540644684976, 0.0028554452469881563, 0.3599732891318211, 0.3860087925888383, 0.0020876958295452724, 0.0006305031466412737, 0.140170301335389, 0.0015057646842238448, 0.04420846554268425, 3.8035955460570193e-06, 0.06240917292269414, 0.17731460584601125, 0.0025366983147194168, 0.32172674704257254, 0.02206156653488515, 0.057972692036407696, 0.2598229078479805, 0.3620433562387419, 0.03438668473819199, 0.3704857987520623, 0.6320980711182923, 0.5175580718576818, 0.06268990213245844, 0.20080712727162375, -0.021660015555978043, -0.3010040112665803, -0.09082123553651927, -0.08382202066244998, 1.0770644278092543, 0.8428561279373552, 0.2581547797366478, 0.1334085444649084, 0.7178786644850563, 0.05928004169640255, 0.08935105297624747, 0.018542159348761966, 0.24201170734874652, 0.6425468802014762, 0.004379833198224839, 0.18640135545555891, 0.0220130673947962, 0.0063310385243440575, 0.11520786757478377, 0.0012593754181793996, 0.00029770033951171103, 0.3899537941225754, 0.8357226589436353, -0.47719717184697813, 0.7333143785458032, 0.21073707599942856, -0.05250378965651577, 0.3029412059148602, 0.15259963970138277, -0.5212278098471564, 0.6313168395233598, 0.03155072022531554, -0.321017092821324, -0.011352037186878097, 0.03281477069964134, 0.2698236082176644, 0.6993047030609079, 0.07674166530369979, 0.07214072885636534, 0.05517574527491154, 0.07929689707031459, 0.1887613490325904, 0.002270270677479475, 0.16922504385513978, 0.04126055935308127, 0.055773523097064, 0.1133275411209696, 0.04033218070304435, 0.002685331331068122, 0.6540709925467251, 0.7581390921916604, 0.3248162880543218, 0.2784431798462413, 0.09860721787982556, 0.17031302848477844, 0.35594920019783194, 0.8145160101334595, -0.8930588103968026, 0.6059664064606484, -0.35627613535417896, 0.18312737276560584, -0.38093056256889085, 0.30297389026974436, 0.04075457596991874, 0.08280055213288041, 0.22343033779356025, 0.46662730133185465, 0.04153193715347463, 0.2726728562531267, 0.06339337013213292, 0.5326863394792488, 0.0917168270033181, 0.01524186945422366, 0.010628072308388224, 0.38682784485272625, 0.10871020304228199, 0.41878565375098387, 0.041546113857744454, 0.13676747406853637, 0.25838082908256377, 0.5498808800102901, 0.032067814873368655, 0.33963250720847094, 0.5017420075747213, -0.37092792077497105, -0.5201316449602583, 0.5707704774198183, 0.5581175179435215, 1.0551480458016833, 0.12332437705884679, -0.10665319206646758, -0.11952358807505127, 0.13226115225299456, 0.14321342916873844, -0.043864264613042554, 0.5892120244856767, -0.4711005645114703, 0.08462592610349412, 0.04207846087925949, 0.509559222514769, 0.24900873624299494, 0.20826645780123262, 0.3918210640527003, 0.009806054533476076, 0.03681434781781812, 0.1032661934157009, 0.13362457778676057, 0.07487492858651837, 0.02720913632515174, 0.0996575325588019, 0.03842926047268657, 0.02509604311184475]","[-1.1554889524631988, 1.0281748578671175, -1.0328930419818563, 0.16416492271264, -1.54133645129895, 0.6464744187680219, 0.7063336084879666, -1.449608649958833, -0.41516674639248896, 0.8658562716647582, -0.0806603002544544, 0.8345646580553258, 0.9217729608346565, 1.3052934079780483, 0.15154356254107357]"
500,"[0.5500955593334896, 0.20390618697230029, -0.2754368560939391, -1.0578127438531102, 0.7478127007216171, 0.18873738440692167, 0.38258107909990313, 0.6810892981795277, -0.057903116663004385, -0.37508941280276853, 0.2142293195126598, 0.20777342778629046, -0.12195563492261452, 0.6078562210614942, 0.5697638562319844, 0.22793122447641026, 0.03457213937330308, 2.1246494134802482e-05, 2.0702618721262317e-06, 0.2887479872160423, 0.06464444155903208, 0.0002939944701489966, 0.3813607064326926, 0.01605269075811557, 0.1468750743426321, 0.016161141734108476, 0.2537968009354291, 0.026838833771565006, 2.0771561726893005e-05, 0.2452629743344756, 0.146542977670081, -0.34572978258815185, 0.3492644389206238, 0.7695003263905268, -0.1333862549798992, -0.07388544592399122, 0.02048352323118331, 0.47828823338077026, 1.381625070825113, 0.24621087664700322, -0.3321543392834529, 0.21435173099165608, 0.5226003956240821, 0.6090231425204913, -0.35944939119441405, 0.08375822537987013, 0.618439315116694, 0.04320158706824767, 0.5480071482293697, 0.08508981883796131, 0.11840621731627406, 0.07184860983534651, 0.07196134912536911, 0.2804991859472629, 0.06390526333389711, 0.052664029515323306, 0.023000310313920785, 0.2546051392351983, 0.528810297481093, 0.14151060338185323, 0.6448102681256568, 0.19272229882156525, 0.20703438468338917, 0.11629007856258108, 0.23256260410531457, 0.4225222950125725, -0.22741908385170878, -0.25144610133480244, -0.11707218805928644, 0.3117200728359583, 0.226859933715622, 0.27054514763000265, 0.638009868454116, 0.9636354918473947, 0.49715550912517986, 0.10866177451777942, 0.17642499605352088, 0.04743448609299229, 0.39245396110874664, 0.7028862160934176, 0.0021622525371080216, 0.635183496137327, 0.009362869228487487, 0.018813744305370035, 0.13516531803827392, 0.07092840655314693, 0.018121160821145677, 0.5422648447785774, 0.0423897177841463, 0.1559826918890291, -0.11864501078241713, -0.04244139749097652, -0.32934449703859714, 0.1689372198681935, 1.0432488039599994, -0.10284180685619483, 0.7364624446598236, 0.7280773783187391, -0.011368131877436204, -0.09492562818242954, 0.2883710051707095, -0.0019279285134091587, -0.23967887951850714, -0.7238736776851765, -0.7955039689613734, 0.0911428391883436, 0.10386199232425034, 0.012370815032232552, 0.4248684940659266, 0.049669637831924754, 0.02065972946729046, 0.3499186609636122, 0.15434626529477932, 0.30514145425858924, 0.01011725117455887, 0.006578660120340761, 0.022691031293949816, 0.16623181179732255, 0.14117893562375955, 0.3491989531707443, 0.16818366443839083, 0.05539268781627164, 0.28642252553023195, 0.3886138093763664, 0.44759878941358267, 0.25497313827789725, -0.7610645716968392, -0.4125553656827013, 0.6658966944833302, -0.29655692421818985, 1.7566559501232633, -0.024279778500727135, -0.3287960438372728, 0.27786580491372836, 0.32293134254246997, 0.0140427154245557, 0.2853522767524976, 0.01591581117046793, 0.09025192734888524, 0.4644105451536218, 0.34916249280698086, 0.037321868114838265, 0.0400909968916987, 0.011804604371260184, 0.19505890583732488, 0.058609706990894246, 0.5511569274145423, 0.19155518776129532, 0.09092227233384594, 0.34615738991085815, 0.02444542329049976, 0.14185330432448062, 0.516765716855569, 0.30249553736916873, 0.11376082590739707, 0.0019493398570474504, 0.4248793092047426, 0.0190265940147215, 0.5272054270700508, 1.1222994904051526, -0.3529204213248002, -0.4637560218787116, 0.6105767448107838, -0.05636572885355741, 0.6675667816407322, 0.4819393538191475, 0.42408188682350817, 0.0001651109029767573, 0.06892853764710664, 0.00011014376537027784, 0.1141657133162933, 0.3433978537332, 0.2569533051516866, 0.037589031055359365, 0.04663759269115434, 0.003959470247572978, 0.5932045110873994, 0.009188941238015837, 0.013867673132303407, 0.06071426241118128, -0.9932074573742034, -0.5506519096383514, 0.2718412366077446, -0.17203262275732006, -0.41232291345620825, 0.33956440380640185, -0.1260536283151405, -0.06348521461291146, -0.3158945700078192, -0.3708311507893334, -1.0371932341638266, 0.3388223189533359, -0.1944960250393779, 0.3770096109969185, -0.33826340126967813, 0.5603945575656543, 0.0007612744757899149, 0.0366786510046868, 0.011429659596267409, 0.2704188448007863, 0.0019332423213151016, 0.1500384543845622, 0.4700190189938632, 0.1575273179286006, 7.944533294087575e-05, 0.008438031909072595, 0.10243348525109358, 0.22095389448171504, 0.29021325244882434, 0.059558333341950286, 0.9551023324672453, 0.1680751355792476, -0.7254795421555289, -0.27934773675976443, -0.39982228892857774, 0.10544266139352004, -0.30071334091464197, 0.11563513273712836, -0.4618110691543914, 0.1863360639429567, 0.205399089952997, 0.3921828701444031, 0.7632032527731862, 0.31463919482703473, 0.0973433186858485, 0.1692930707833549, 0.1204414617019942, 0.18510934593785328, 0.07060133097741468, 0.46101788312367703, 0.42227615252955136, 0.3604446154648501, 0.05841396310142595, 0.08609554159302993, 0.18489586929038143, 0.009262468929906396, 0.026990666820166126, 0.28562131392265466, 0.07830458918993773, 0.02529588867907654, 0.2030176739806442, 0.1974163284150232, 0.47854564088286417, 0.1613872144196238, 1.1416937562856562, -0.9291903385648791, 0.5326192569489894, 0.07607207468633168, -0.1595552085585543, 0.10765973197473369, 0.9336250105936912, -0.5459257354633954, -0.2987275023331728, -1.0583759349563864, -0.11389397339832263, 0.27916756976870327, 0.0038355593012601003, 0.04379066687075112, 0.1184869929620748, 0.4708960696315089, 0.04691705119244892, 0.561279536240588, 0.048667914190057525, 0.0006874569664826331, 0.04989626796421357, 0.46186605036475004, 0.054136412046453114, 0.01425085000034092, 0.01047959355898901, 0.001384432741828763, 0.10846746060205, 0.436173612632843, 1.0312238764511286, 0.15137017111929293, -0.6804749927157062, 0.7432564323145503, -0.07653548696699342, -0.33347596469271507, -0.6241653744996842, -0.5212913600856885, 0.5339308492209708, 0.7058908949962549, -0.4987981184586471, -0.12535075411287808, 0.2944086985803563, 0.4283164533657521, 0.00014976461856130906, 0.06916866660573237, 0.24701372855977724, 0.06133176820185369, 0.0743896713517044, 0.14609129142299873, 0.058980760433280266, 0.0363025869044663, 0.04706715966814657, 0.030635928483644596, 0.001316901720488478, 0.07841877507361322, 0.03769657515089117, 0.37703775380929627, 0.3108153322008607, 0.19540111134482877, 0.03489301370609628, -0.1891820467299128, -0.19628861075176823, 0.48772702005130575, -0.2599114871145019, -0.27163342495961007, 1.0210965221944248, 0.7868347792482983, -0.07138381145159181, -0.09082161446710937, 0.5563279379777426, 0.9446420752603638, 0.469535802504263, 0.0028554452469881563, 0.3599732891318211, 0.3860087925888383, 0.0020876958295452724, 0.0006305031466412737, 0.140170301335389, 0.0015057646842238448, 0.04420846554268425, 3.8035955460570193e-06, 0.06240917292269414, 0.17731460584601125, 0.0025366983147194168, 0.32172674704257254, 0.02206156653488515, 0.057972692036407696, 0.7175573856695883, -0.44338386540834684, 0.7351763508217312, -0.05450311567948955, 0.42259618186116205, 0.34346640731413397, 0.33258428630910103, 0.5903492886889209, -0.6030423725276463, -0.4223027637909852, 0.4184974855270942, 0.06675766615759822, 0.7619200668897678, 0.3647986003982419, 0.9438134435919147, 0.1334085444649084, 0.7178786644850563, 0.05928004169640255, 0.08935105297624747, 0.018542159348761966, 0.24201170734874652, 0.6425468802014762, 0.004379833198224839, 0.18640135545555891, 0.0220130673947962, 0.0063310385243440575, 0.11520786757478377, 0.0012593754181793996, 0.00029770033951171103, 0.3899537941225754, -0.1434560413229451, 0.11752222907674177, -0.10073898427605081, 0.3947004981838729, 0.08260212914894911, 0.6408167038805722, -0.02664354767148133, 0.23814640275467386, -0.5366864736904342, 0.05538276035571378, -0.24216423672971452, -0.03736280136233249, -0.34844058011447093, -0.592014764651644, 0.3266749185684815, 0.07674166530369979, 0.07214072885636534, 0.05517574527491154, 0.07929689707031459, 0.1887613490325904, 0.002270270677479475, 0.16922504385513978, 0.04126055935308127, 0.055773523097064, 0.1133275411209696, 0.04033218070304435, 0.002685331331068122, 0.6540709925467251, 0.7581390921916604, 0.3248162880543218, -0.13430337504792336, 0.3415381047647113, 0.17445758585695995, -0.054264952453119214, 0.8426405019778054, -0.4437328709827905, 0.776799051793889, 1.0627123418879938, 0.3718145114325035, 0.3174344444705818, -0.3422291287528723, -0.35310737783734936, -0.3580979561744375, 0.1977119858496537, 0.33876927009144747, 0.04153193715347463, 0.2726728562531267, 0.06339337013213292, 0.5326863394792488, 0.0917168270033181, 0.01524186945422366, 0.010628072308388224, 0.38682784485272625, 0.10871020304228199, 0.41878565375098387, 0.041546113857744454, 0.13676747406853637, 0.25838082908256377, 0.5498808800102901, 0.032067814873368655, -0.951921544037338, -0.29621363980405413, -0.3250287617716627, -0.23659515889600374, -0.14495764822565887, -0.4545173507864335, 0.31491470198855487, -0.3757560204895431, 0.1568820104980903, -0.2817063744625414, -0.2820206530135326, -0.24514724906904453, 0.25939972386307536, 0.19532613483802672, 0.2924965095419908, 0.08462592610349412, 0.04207846087925949, 0.509559222514769, 0.24900873624299494, 0.20826645780123262, 0.3918210640527003, 0.009806054533476076, 0.03681434781781812, 0.1032661934157009, 0.13362457778676057, 0.07487492858651837, 0.02720913632515174, 0.0996575325588019, 0.03842926047268657, 0.02509604311184475]","[0.756587062635841, 1.6380263624061728, 0.47615548962464416, 0.4831341852087396, -1.324957164042055, 1.0817903214233242, 0.6510931767354113, -0.587911962145589, -1.0830226053870784, 1.2926204192231106, 0.9514476565000074, 0.04360146144081421, 0.9372468532902778, 0.9886875258297326, 0.3181440644608297]"
500,"[0.19565346057884644, 0.24693249461865865, -0.10958663099411214, 0.09291144755685293, 0.31209294533921617, 0.33199569362942993, 0.45097591763377964, 0.1062201285722479, -0.35891657853494086, 0.83706401558784, -0.1726577200591483, 0.8169416622350107, -0.08889873574278342, 0.5127704073974076, 0.23405217349765858, 0.22793122447641026, 0.03457213937330308, 2.1246494134802482e-05, 2.0702618721262317e-06, 0.2887479872160423, 0.06464444155903208, 0.0002939944701489966, 0.3813607064326926, 0.01605269075811557, 0.1468750743426321, 0.016161141734108476, 0.2537968009354291, 0.026838833771565006, 2.0771561726893005e-05, 0.2452629743344756, 0.7620126338989246, -0.26624625342565894, 0.919592347919112, -0.6330415840462588, 0.19242857700364252, -0.30864387716665975, -0.2877501498286665, 0.2934861317431429, 1.1493774971801833, -0.2751714047298437, -0.01648207267950458, -0.39522506722700523, 0.5120462089504004, 0.10600068020455927, 0.48969736860086566, 0.08375822537987013, 0.618439315116694, 0.04320158706824767, 0.5480071482293697, 0.08508981883796131, 0.11840621731627406, 0.07184860983534651, 0.07196134912536911, 0.2804991859472629, 0.06390526333389711, 0.052664029515323306, 0.023000310313920785, 0.2546051392351983, 0.528810297481093, 0.14151060338185323, 0.2984900482004032, 0.006736910891781792, -0.012725647713547415, 0.6064521456531387, 0.32360567746070984, 0.2579647813803047, 0.4338882842442687, -0.020034132153247508, 0.42178357251101195, 0.7379132038227764, -0.03797664235152576, -0.286026191183311, -0.12936826546335495, -0.32115950333868426, 0.34965987991715625, 0.10866177451777942, 0.17642499605352088, 0.04743448609299229, 0.39245396110874664, 0.7028862160934176, 0.0021622525371080216, 0.635183496137327, 0.009362869228487487, 0.018813744305370035, 0.13516531803827392, 0.07092840655314693, 0.018121160821145677, 0.5422648447785774, 0.0423897177841463, 0.1559826918890291, 0.23012796229504945, 0.4932390503008851, 0.2743972359058445, -0.7440087955788178, 0.44137484854141223, -0.54356029259986, 0.10644605130622532, 0.12011312111485545, 0.47120148034199244, -0.5569358257842207, -0.8890990027282073, 0.7476722607361174, 0.12469762742893509, -0.7283910094376279, -0.21564954757934957, 0.0911428391883436, 0.10386199232425034, 0.012370815032232552, 0.4248684940659266, 0.049669637831924754, 0.02065972946729046, 0.3499186609636122, 0.15434626529477932, 0.30514145425858924, 0.01011725117455887, 0.006578660120340761, 0.022691031293949816, 0.16623181179732255, 0.14117893562375955, 0.3491989531707443, -0.30991396353578127, 0.11691150769068757, -0.49100058505413363, 0.3452997373310213, 0.3064496100736031, 0.7650392675551797, -0.2600423523175224, 0.5289880609103875, 0.3896595449614117, -0.07054195515055942, 0.5213644716927474, 0.608964527279785, -0.22853556638460745, 0.07784439787082942, 0.10663467928417948, 0.0140427154245557, 0.2853522767524976, 0.01591581117046793, 0.09025192734888524, 0.4644105451536218, 0.34916249280698086, 0.037321868114838265, 0.0400909968916987, 0.011804604371260184, 0.19505890583732488, 0.058609706990894246, 0.5511569274145423, 0.19155518776129532, 0.09092227233384594, 0.34615738991085815, -0.40686773366056167, 0.08462448589258889, -0.05717989460965311, 0.29186277719130793, 0.7535778188793781, 0.40284939367448397, 0.11797414472772413, 0.2602411663918177, 0.604228331499926, 0.21284867285138195, -0.3491480765026171, 0.11200434137594828, 0.1129525283357474, -0.20380732317197156, 0.3383821599507423, 0.4819393538191475, 0.42408188682350817, 0.0001651109029767573, 0.06892853764710664, 0.00011014376537027784, 0.1141657133162933, 0.3433978537332, 0.2569533051516866, 0.037589031055359365, 0.04663759269115434, 0.003959470247572978, 0.5932045110873994, 0.009188941238015837, 0.013867673132303407, 0.06071426241118128, -0.6565034912569514, 0.1259962714956977, -0.1582868482512521, 0.22457665521863973, -0.05011107673318705, -0.3282369578259375, 0.36192463591363655, 0.18036211102764402, 0.02761509788556053, -0.7929139415504562, -0.057779898826902015, -0.1516416968532942, -0.1574034840711628, 0.6230655487507889, 0.1516718983000005, 0.5603945575656543, 0.0007612744757899149, 0.0366786510046868, 0.011429659596267409, 0.2704188448007863, 0.0019332423213151016, 0.1500384543845622, 0.4700190189938632, 0.1575273179286006, 7.944533294087575e-05, 0.008438031909072595, 0.10243348525109358, 0.22095389448171504, 0.29021325244882434, 0.059558333341950286, 0.7111364284661716, -0.49629016541524845, -0.4419526695628613, 0.00992806127667169, -0.10347732088536754, 0.04343879799825161, 0.06879658396842268, -0.1916295919738748, -0.15881890403139381, 0.605549864701074, -0.45241261080046247, 0.10656918008345477, -0.15653446614846636, 0.5735864896701346, -0.8533780867450104, 0.1692930707833549, 0.1204414617019942, 0.18510934593785328, 0.07060133097741468, 0.46101788312367703, 0.42227615252955136, 0.3604446154648501, 0.05841396310142595, 0.08609554159302993, 0.18489586929038143, 0.009262468929906396, 0.026990666820166126, 0.28562131392265466, 0.07830458918993773, 0.02529588867907654, 0.04956622207162866, -0.48548730723861133, -0.10538236464053226, 0.35373218327050937, 0.5895425606641149, -0.2634370170354063, 0.488188080059342, 0.20695436638109443, 0.35549742536794043, -0.2487353016390095, 0.7708538077069969, -0.5283610567912607, -0.8274011488179721, 0.07510500648898767, 0.09750646066853906, 0.27916756976870327, 0.0038355593012601003, 0.04379066687075112, 0.1184869929620748, 0.4708960696315089, 0.04691705119244892, 0.561279536240588, 0.048667914190057525, 0.0006874569664826331, 0.04989626796421357, 0.46186605036475004, 0.054136412046453114, 0.01425085000034092, 0.01047959355898901, 0.001384432741828763, 0.6039166980932131, 0.5603860377563935, 0.25966837695380834, -0.17196026031742942, -0.20018931404878948, 0.7936656948825238, 0.6596429330908583, 0.18804685719032577, 0.45106091184340935, 0.03828590550538501, 0.7000214135698102, 0.3986752467295592, 0.016404009015087016, 1.6451669178114865, 0.4278403660197285, 0.4283164533657521, 0.00014976461856130906, 0.06916866660573237, 0.24701372855977724, 0.06133176820185369, 0.0743896713517044, 0.14609129142299873, 0.058980760433280266, 0.0363025869044663, 0.04706715966814657, 0.030635928483644596, 0.001316901720488478, 0.07841877507361322, 0.03769657515089117, 0.37703775380929627, -0.4479672427210865, 0.41850581904054424, -0.18748035982954372, -0.11307587959953554, -0.39139906904660793, -0.5056456541379272, -0.6065270893393936, 0.3741132797267698, 0.6855340978648812, -0.3403807089516277, -0.3785074687857256, -0.33816833972578686, 0.4381805611897811, 0.6333195554732859, 0.3074277542557379, 0.0028554452469881563, 0.3599732891318211, 0.3860087925888383, 0.0020876958295452724, 0.0006305031466412737, 0.140170301335389, 0.0015057646842238448, 0.04420846554268425, 3.8035955460570193e-06, 0.06240917292269414, 0.17731460584601125, 0.0025366983147194168, 0.32172674704257254, 0.02206156653488515, 0.057972692036407696, 0.5823444577294705, 0.18148651006841543, 0.43858887223515963, 0.7254540914036492, -0.4467519632035864, 0.07684037942884485, -0.04638911678178244, -0.20146635809614924, -1.0473185183521438, -0.5236879114386629, -0.06010380511771845, 1.321187147146901, 0.8353104389925741, 0.3912481941149813, -0.045244250400852296, 0.1334085444649084, 0.7178786644850563, 0.05928004169640255, 0.08935105297624747, 0.018542159348761966, 0.24201170734874652, 0.6425468802014762, 0.004379833198224839, 0.18640135545555891, 0.0220130673947962, 0.0063310385243440575, 0.11520786757478377, 0.0012593754181793996, 0.00029770033951171103, 0.3899537941225754, -0.17260802732705133, -0.30429870326322345, 0.39980392351725513, 0.5628999373417919, -0.20043128524917464, 0.9014553751637606, 0.035417761800619216, -0.015842866728655966, 0.4152350209690377, 0.27422243193431534, -0.31991611346314186, 0.4954889721382254, -0.20832004236243543, 0.10309355026075877, 0.2903430341451823, 0.07674166530369979, 0.07214072885636534, 0.05517574527491154, 0.07929689707031459, 0.1887613490325904, 0.002270270677479475, 0.16922504385513978, 0.04126055935308127, 0.055773523097064, 0.1133275411209696, 0.04033218070304435, 0.002685331331068122, 0.6540709925467251, 0.7581390921916604, 0.3248162880543218, 0.09222065602262665, 1.144898619024993, 0.19498391172033025, 0.24020738200079556, 0.15556887813240958, 0.13914758241370725, 0.18064641060422643, 0.5588324322035754, -0.2248496983058106, 0.04404319611425034, -0.10164380087693989, -0.03144909690956032, -0.4122131796098672, 0.19209643189317976, 0.9856329468476676, 0.04153193715347463, 0.2726728562531267, 0.06339337013213292, 0.5326863394792488, 0.0917168270033181, 0.01524186945422366, 0.010628072308388224, 0.38682784485272625, 0.10871020304228199, 0.41878565375098387, 0.041546113857744454, 0.13676747406853637, 0.25838082908256377, 0.5498808800102901, 0.032067814873368655, -0.013957580119525036, 0.1380012338455399, 0.10983266833603018, -0.33903757127761974, 0.11650153119323448, -0.014051043755059212, 0.6898830741689614, 0.21139225771671039, -0.3659863409133264, -0.47457274582801867, 0.18226566978399744, -0.7136061227767091, 0.33806025336419054, -0.29746189069625834, -0.408168831013125, 0.08462592610349412, 0.04207846087925949, 0.509559222514769, 0.24900873624299494, 0.20826645780123262, 0.3918210640527003, 0.009806054533476076, 0.03681434781781812, 0.1032661934157009, 0.13362457778676057, 0.07487492858651837, 0.02720913632515174, 0.0996575325588019, 0.03842926047268657, 0.02509604311184475]","[-1.1883112883714377, 0.9371201258703864, -1.111888840495472, 0.8307642962221783, -1.124142775610432, 1.007915260435991, 1.127728655316099, -0.8490570354796776, 0.9055811709222703, 0.2455738571820452, 1.0359340697776647, -0.8714772017078322, 0.5349215015832713, 1.165599991712962, 0.04870893758864837]"
500,"[0.4340400771058253, 0.061292349288980724, -0.7767917466346309, -0.9039310215182071, 0.783771422984853, 0.35206430462679766, -0.42668884859400724, 0.021268188871762957, -0.2654645745904937, -0.12966172917183605, -0.784905613786369, 0.32187786361934084, -0.17256223081840455, 0.9524037283163592, 0.7269469554361069, 0.22793122447641026, 0.03457213937330308, 2.1246494134802482e-05, 2.0702618721262317e-06, 0.2887479872160423, 0.06464444155903208, 0.0002939944701489966, 0.3813607064326926, 0.01605269075811557, 0.1468750743426321, 0.016161141734108476, 0.2537968009354291, 0.026838833771565006, 2.0771561726893005e-05, 0.2452629743344756, -0.5118098961979521, 0.20564873237739242, 0.9271650564960686, 0.43214770748522646, 0.3143913485216731, -0.12407201618069623, 0.1523162856331522, 0.4713088797500817, 1.3659672368186364, 0.10683084819736863, 0.452377397975127, -0.28467552970286286, -0.4566964739256527, -0.13014161280179204, 0.6415225282230064, 0.08375822537987013, 0.618439315116694, 0.04320158706824767, 0.5480071482293697, 0.08508981883796131, 0.11840621731627406, 0.07184860983534651, 0.07196134912536911, 0.2804991859472629, 0.06390526333389711, 0.052664029515323306, 0.023000310313920785, 0.2546051392351983, 0.528810297481093, 0.14151060338185323, 0.15824344469627838, 0.056960992426916345, 0.12161013551151473, 0.4373875476788999, -0.10871296425546893, 0.5740879632375214, -0.010587934181946864, 0.10360994154119223, -0.10762637071866328, 0.4391540261668287, 0.19771674850018814, 0.15668542044658504, 0.51827560192895, -0.10198273614854349, 0.34513576739605906, 0.10866177451777942, 0.17642499605352088, 0.04743448609299229, 0.39245396110874664, 0.7028862160934176, 0.0021622525371080216, 0.635183496137327, 0.009362869228487487, 0.018813744305370035, 0.13516531803827392, 0.07092840655314693, 0.018121160821145677, 0.5422648447785774, 0.0423897177841463, 0.1559826918890291, 0.4460704056604704, -0.048263661715192425, 0.27221768408105945, -0.19823903767163933, 0.31336234857402323, 0.298726983493622, 0.024633428985865614, 0.870761405403395, -0.6587763464892132, -0.10646329021122103, -0.33393241559441855, 0.7867562228985556, 0.7061614175646279, 0.006071587540262654, -0.08300833568118471, 0.0911428391883436, 0.10386199232425034, 0.012370815032232552, 0.4248684940659266, 0.049669637831924754, 0.02065972946729046, 0.3499186609636122, 0.15434626529477932, 0.30514145425858924, 0.01011725117455887, 0.006578660120340761, 0.022691031293949816, 0.16623181179732255, 0.14117893562375955, 0.3491989531707443, 0.5540824277814532, -0.22355878477438165, 0.6214909739544463, 0.2949502231596832, 0.13156235314380332, 0.959549299761806, -0.36974235884612616, -0.11123533664423065, -0.05173425485305821, -0.27396297418398996, 0.10743337583926175, 0.776126448453462, -0.1056414014236049, -0.1401575469378468, 0.6661563545011607, 0.0140427154245557, 0.2853522767524976, 0.01591581117046793, 0.09025192734888524, 0.4644105451536218, 0.34916249280698086, 0.037321868114838265, 0.0400909968916987, 0.011804604371260184, 0.19505890583732488, 0.058609706990894246, 0.5511569274145423, 0.19155518776129532, 0.09092227233384594, 0.34615738991085815, -0.2661005341619854, -0.13844399365108834, 0.038863163689122134, 0.8651982944651978, 0.8087568430336692, -0.5551050645237295, 0.45454939155635576, 0.11236201678179626, -0.059423144682589954, 0.10432696783893167, -0.4886815735435029, -0.3615061280690249, 0.4604143594897339, -0.41299621244672285, -0.12261285921487106, 0.4819393538191475, 0.42408188682350817, 0.0001651109029767573, 0.06892853764710664, 0.00011014376537027784, 0.1141657133162933, 0.3433978537332, 0.2569533051516866, 0.037589031055359365, 0.04663759269115434, 0.003959470247572978, 0.5932045110873994, 0.009188941238015837, 0.013867673132303407, 0.06071426241118128, -0.3816279743497878, -0.05262083369114811, -0.36983850728709755, -0.29468251286237684, -0.49132827198360973, 0.1357550475363562, -0.13567322387720113, -0.06185745731756813, -0.48477696732564285, -0.4648348689742644, -0.6630993462580869, 0.10186190724868918, -0.618629813882275, 0.8254962335215141, 0.15052117670149895, 0.5603945575656543, 0.0007612744757899149, 0.0366786510046868, 0.011429659596267409, 0.2704188448007863, 0.0019332423213151016, 0.1500384543845622, 0.4700190189938632, 0.1575273179286006, 7.944533294087575e-05, 0.008438031909072595, 0.10243348525109358, 0.22095389448171504, 0.29021325244882434, 0.059558333341950286, 1.0685555601185561, 0.2974738483376695, -0.17646308353769544, 0.6065219435771171, -0.4611756898965147, -0.06880389512410233, -0.6123417373473048, -0.6929330122262972, 0.08667184390233933, -0.0911759255925086, -0.518581433142703, 0.6334869073191941, 0.011782303638046325, 0.37015225131515594, -0.5123104638020519, 0.1692930707833549, 0.1204414617019942, 0.18510934593785328, 0.07060133097741468, 0.46101788312367703, 0.42227615252955136, 0.3604446154648501, 0.05841396310142595, 0.08609554159302993, 0.18489586929038143, 0.009262468929906396, 0.026990666820166126, 0.28562131392265466, 0.07830458918993773, 0.02529588867907654, 0.5789015660710508, -0.2556561543359934, -0.29758647156518153, 0.2928555584530438, 0.4560681026794954, -0.030184794388900094, 0.13678637450454587, 0.2614581615729931, 0.3818906136381753, 0.21892398428493673, 0.834663104337329, -0.1926740621268706, -0.06655139536958882, -0.26718592535544416, -0.29813883620932863, 0.27916756976870327, 0.0038355593012601003, 0.04379066687075112, 0.1184869929620748, 0.4708960696315089, 0.04691705119244892, 0.561279536240588, 0.048667914190057525, 0.0006874569664826331, 0.04989626796421357, 0.46186605036475004, 0.054136412046453114, 0.01425085000034092, 0.01047959355898901, 0.001384432741828763, 0.0549937391182777, 0.7889315351316506, -0.06626446596598458, -0.030256756696255577, -0.3354205598680307, 0.638237301227193, 0.08175219153237302, 0.3957108069460529, 0.10128297535857704, -0.3112868144731503, 0.18666779177895967, 0.31790142461931536, -0.41103950080209894, 0.7656535533900369, -0.11893127127211263, 0.4283164533657521, 0.00014976461856130906, 0.06916866660573237, 0.24701372855977724, 0.06133176820185369, 0.0743896713517044, 0.14609129142299873, 0.058980760433280266, 0.0363025869044663, 0.04706715966814657, 0.030635928483644596, 0.001316901720488478, 0.07841877507361322, 0.03769657515089117, 0.37703775380929627, 0.3611658849518532, -0.17568535553019657, 0.7260055373225435, -0.49244750502978135, -0.43736050090743817, 0.3654049792238153, 0.01848001108310583, 0.17799634984025212, 0.26460642489393243, 0.32039525384422274, 0.09865845960165703, 0.31329516957608333, 0.9368891806623081, 0.2375500300319552, 0.7726576260815957, 0.0028554452469881563, 0.3599732891318211, 0.3860087925888383, 0.0020876958295452724, 0.0006305031466412737, 0.140170301335389, 0.0015057646842238448, 0.04420846554268425, 3.8035955460570193e-06, 0.06240917292269414, 0.17731460584601125, 0.0025366983147194168, 0.32172674704257254, 0.02206156653488515, 0.057972692036407696, -0.02952354277251509, -0.5240884970893952, 0.4874244483777674, -0.3185824960285674, 0.2318659884489146, 0.14453023975959975, 0.1284160558844088, -0.22948079283088843, -1.135795980243446, -0.06607189163210009, 0.33516040139146214, 0.835127741595205, 1.156227132053203, 0.464205330438985, -0.006547542544089681, 0.1334085444649084, 0.7178786644850563, 0.05928004169640255, 0.08935105297624747, 0.018542159348761966, 0.24201170734874652, 0.6425468802014762, 0.004379833198224839, 0.18640135545555891, 0.0220130673947962, 0.0063310385243440575, 0.11520786757478377, 0.0012593754181793996, 0.00029770033951171103, 0.3899537941225754, 0.28095032952231586, -0.2579182999765074, -0.33408649087402403, -0.3523500189680787, 0.6224572531684993, 0.774504933340942, -0.23208818893314015, -0.28182427291068146, 0.08608040898295037, -0.4609260026609828, -0.7997149539088916, 0.08521727404051352, 0.6156434449496917, -0.1426488158081957, 0.17038966612671294, 0.07674166530369979, 0.07214072885636534, 0.05517574527491154, 0.07929689707031459, 0.1887613490325904, 0.002270270677479475, 0.16922504385513978, 0.04126055935308127, 0.055773523097064, 0.1133275411209696, 0.04033218070304435, 0.002685331331068122, 0.6540709925467251, 0.7581390921916604, 0.3248162880543218, -0.20910790180925304, 0.034760795938610894, -0.600475721836658, 0.1507062090578209, 1.2713422608336193, -0.671141512030178, 0.04204126283450905, 1.0362109261358878, 0.4170812877170431, 0.12032014778607378, 0.352575937543587, -0.25875306511895857, -0.5222562075083648, 0.6527555317843936, 0.6528692697151555, 0.04153193715347463, 0.2726728562531267, 0.06339337013213292, 0.5326863394792488, 0.0917168270033181, 0.01524186945422366, 0.010628072308388224, 0.38682784485272625, 0.10871020304228199, 0.41878565375098387, 0.041546113857744454, 0.13676747406853637, 0.25838082908256377, 0.5498808800102901, 0.032067814873368655, 0.17254291506562033, 0.5932156547065521, -0.3099275340378712, -0.3424831162725145, 0.5744503335900214, 0.08170428993598679, 0.46713548744877026, -0.8950467028438092, 0.2584576271756872, 0.5095235403093518, 0.09497139632801078, -0.3484494241440228, 0.38962913777248576, 0.08746868780618632, -0.3845981115704387, 0.08462592610349412, 0.04207846087925949, 0.509559222514769, 0.24900873624299494, 0.20826645780123262, 0.3918210640527003, 0.009806054533476076, 0.03681434781781812, 0.1032661934157009, 0.13362457778676057, 0.07487492858651837, 0.02720913632515174, 0.0996575325588019, 0.03842926047268657, 0.02509604311184475]","[-0.8007154843508558, 1.3044067316751504, -0.4934073970941421, 1.3398628633129983, 0.13572397108384335, 1.5012752834454974, 0.9392788283038258, -0.5702733503336763, 0.6299881495981726, 1.2289756614524654, 0.9570939871697841, 0.8025085957926951, 0.7101869605269687, 0.5713759862157021, 0.47749499046600546]"
500,"[-0.017191778057455594, -0.23818579231087053, -0.4842894518216497, 0.12202233104592505, 0.1251366741429074, 1.0960227764591657, -0.23535474631636258, -0.15691869654649826, 0.5586504406104503, -0.03802835771466724, -0.024144739712856498, 0.0892726281223799, 0.24638033942924292, 0.31856379666690027, -0.2428694676830408, 0.22793122447641026, 0.03457213937330308, 2.1246494134802482e-05, 2.0702618721262317e-06, 0.2887479872160423, 0.06464444155903208, 0.0002939944701489966, 0.3813607064326926, 0.01605269075811557, 0.1468750743426321, 0.016161141734108476, 0.2537968009354291, 0.026838833771565006, 2.0771561726893005e-05, 0.2452629743344756, -0.30409783202625285, 0.5822545817971436, 0.3610446644012834, -0.26486867014219473, 0.12301102986922047, -0.010120896374038058, -0.05450065872900535, 0.04904813859863318, 0.3393163145312378, 0.3439366523364884, 0.4479945953824067, -0.43668315692593, -0.9819929474419166, 0.5651864795646744, -0.35830901395332243, 0.08375822537987013, 0.618439315116694, 0.04320158706824767, 0.5480071482293697, 0.08508981883796131, 0.11840621731627406, 0.07184860983534651, 0.07196134912536911, 0.2804991859472629, 0.06390526333389711, 0.052664029515323306, 0.023000310313920785, 0.2546051392351983, 0.528810297481093, 0.14151060338185323, -0.5002156119477784, -0.18496807261145676, 0.652978923203658, 0.036364351910789426, 0.4612229733928095, 0.6603098484317609, -0.13259812773515076, 0.28286967097703414, 0.35169275476912215, 0.6759878239197016, 0.3498813574803158, -0.15541262535316958, 0.44018527425656795, -0.025634479501972497, 0.2806502463603176, 0.10866177451777942, 0.17642499605352088, 0.04743448609299229, 0.39245396110874664, 0.7028862160934176, 0.0021622525371080216, 0.635183496137327, 0.009362869228487487, 0.018813744305370035, 0.13516531803827392, 0.07092840655314693, 0.018121160821145677, 0.5422648447785774, 0.0423897177841463, 0.1559826918890291, 0.7109433657515253, 0.4501127158859097, -0.15255300681453457, -1.2105212230493976, 0.5512093095653087, -0.2757760231284478, -0.20314872267601292, 0.09375125100565745, 0.3919795678480556, 0.14984454621085078, -0.2862810981281127, -0.006493758044726657, 0.32934159443732053, -0.5748203160538234, -0.5678657116794482, 0.0911428391883436, 0.10386199232425034, 0.012370815032232552, 0.4248684940659266, 0.049669637831924754, 0.02065972946729046, 0.3499186609636122, 0.15434626529477932, 0.30514145425858924, 0.01011725117455887, 0.006578660120340761, 0.022691031293949816, 0.16623181179732255, 0.14117893562375955, 0.3491989531707443, 0.11410339894257561, 0.5491798936607649, 0.14674710633513302, 0.2776870436345828, 0.048430124908982276, 0.48034631974613756, -0.34717863290208284, -0.1645370710549847, 0.47210657667395545, -0.6805971271544554, -0.11302398963322535, 0.40399737878809283, 0.0780270535081572, -0.33098378263141287, -0.6121358398760295, 0.0140427154245557, 0.2853522767524976, 0.01591581117046793, 0.09025192734888524, 0.4644105451536218, 0.34916249280698086, 0.037321868114838265, 0.0400909968916987, 0.011804604371260184, 0.19505890583732488, 0.058609706990894246, 0.5511569274145423, 0.19155518776129532, 0.09092227233384594, 0.34615738991085815, -0.5182689454809818, -0.3055185108009517, 0.49040618937616226, 0.550141382534513, 0.4018592774259575, 0.12920443525227523, -0.5992617140128572, -0.17443733501743336, 0.46139815035538495, 0.49722898190532155, -0.17526272440470902, 0.6082384253689476, 0.37901211767728304, 0.08694789497377618, 0.4677732102163235, 0.4819393538191475, 0.42408188682350817, 0.0001651109029767573, 0.06892853764710664, 0.00011014376537027784, 0.1141657133162933, 0.3433978537332, 0.2569533051516866, 0.037589031055359365, 0.04663759269115434, 0.003959470247572978, 0.5932045110873994, 0.009188941238015837, 0.013867673132303407, 0.06071426241118128, -0.13988676256135826, -0.4072110436861089, 0.3646525368938642, -0.3363076739210389, 0.18222893050354624, 0.5025322792665354, 0.46764148700585934, 0.30105885873519544, -0.03619646945188907, -0.16251057818372114, -0.2997993589031787, 0.42858358536684416, 0.5122074694478571, -0.10711675169053873, 0.2771164339644835, 0.5603945575656543, 0.0007612744757899149, 0.0366786510046868, 0.011429659596267409, 0.2704188448007863, 0.0019332423213151016, 0.1500384543845622, 0.4700190189938632, 0.1575273179286006, 7.944533294087575e-05, 0.008438031909072595, 0.10243348525109358, 0.22095389448171504, 0.29021325244882434, 0.059558333341950286, -0.014135002327330268, 1.1645878948616646, 0.47395230666447724, -0.5695463077613264, 0.39561089821118767, 0.21317552580789853, 0.2242366444427765, 0.2723737879268077, 0.04620104777571411, 0.05116247791309277, -0.12540857793940596, 0.4040344044220971, 0.39205989555663434, -0.1915684794039085, 0.10352898136206527, 0.1692930707833549, 0.1204414617019942, 0.18510934593785328, 0.07060133097741468, 0.46101788312367703, 0.42227615252955136, 0.3604446154648501, 0.05841396310142595, 0.08609554159302993, 0.18489586929038143, 0.009262468929906396, 0.026990666820166126, 0.28562131392265466, 0.07830458918993773, 0.02529588867907654, 0.2601407957113438, 1.0283203640339214, 0.3662120326009071, -0.4520546185228198, 1.3971227177095216, -0.3438539983364002, 0.2000788072541409, 0.41700372303895333, 0.7734547724547449, -0.3068505023036351, 1.403214089004088, 0.11132899974324421, -0.35642830544330334, -0.09602058657550054, 0.12176661524024501, 0.27916756976870327, 0.0038355593012601003, 0.04379066687075112, 0.1184869929620748, 0.4708960696315089, 0.04691705119244892, 0.561279536240588, 0.048667914190057525, 0.0006874569664826331, 0.04989626796421357, 0.46186605036475004, 0.054136412046453114, 0.01425085000034092, 0.01047959355898901, 0.001384432741828763, 0.7400634953753326, 0.4937729522550692, 0.6408898008368528, 0.390952180846032, -0.1422328805051697, 0.6837574164463565, 0.1515606176778776, 0.4374361546684778, -0.3894208296186392, -0.9509807553587722, -0.5126226024364978, -0.1748582227045996, 0.14826453692726277, 0.6586731557707488, 0.009831266517531353, 0.4283164533657521, 0.00014976461856130906, 0.06916866660573237, 0.24701372855977724, 0.06133176820185369, 0.0743896713517044, 0.14609129142299873, 0.058980760433280266, 0.0363025869044663, 0.04706715966814657, 0.030635928483644596, 0.001316901720488478, 0.07841877507361322, 0.03769657515089117, 0.37703775380929627, 0.3343718720936564, 0.6962304845748468, 0.5239540847604905, -0.05959198711489732, -0.7206388523321567, 0.40388091389241004, -0.193079967101019, -0.010781963287723417, 0.25974459095394714, -0.10544417152657218, -0.3332556769931174, -0.010767872853701375, 1.0394895670079296, 0.19169721031149653, 0.28510000725341283, 0.0028554452469881563, 0.3599732891318211, 0.3860087925888383, 0.0020876958295452724, 0.0006305031466412737, 0.140170301335389, 0.0015057646842238448, 0.04420846554268425, 3.8035955460570193e-06, 0.06240917292269414, 0.17731460584601125, 0.0025366983147194168, 0.32172674704257254, 0.02206156653488515, 0.057972692036407696, 0.02328261326554791, -0.10062502737704812, 0.7577263497569874, -0.02515947558680328, -0.09798209711331245, -0.06121571654459927, -0.11317085363639874, 0.5336848937932498, -0.15705749918140466, -0.11266393977833551, 0.5507324402679293, 0.2775767890653224, 1.043684725482185, 0.3574091596609886, 0.7775592863792561, 0.1334085444649084, 0.7178786644850563, 0.05928004169640255, 0.08935105297624747, 0.018542159348761966, 0.24201170734874652, 0.6425468802014762, 0.004379833198224839, 0.18640135545555891, 0.0220130673947962, 0.0063310385243440575, 0.11520786757478377, 0.0012593754181793996, 0.00029770033951171103, 0.3899537941225754, -0.510992613811732, -0.09433159383222763, -0.4122540438205327, 0.49895172414834704, 0.5383745664070159, 0.08956150914384499, 0.8725549911914058, -0.5712526500100131, 0.972528652295058, -0.14446359307792261, -0.5541322223256043, 0.394321684155587, 0.17209599272713247, -0.12363053955148542, 0.5411416641490888, 0.07674166530369979, 0.07214072885636534, 0.05517574527491154, 0.07929689707031459, 0.1887613490325904, 0.002270270677479475, 0.16922504385513978, 0.04126055935308127, 0.055773523097064, 0.1133275411209696, 0.04033218070304435, 0.002685331331068122, 0.6540709925467251, 0.7581390921916604, 0.3248162880543218, -0.4209341442372606, 0.35000702681781193, 0.4562608570778253, 0.40344303780440466, 0.7221710723627399, 0.20947209146686152, 1.2865401148776527, 0.6784154164788572, 0.16713698336384863, 0.44733253908045956, 0.04985343203229516, -0.3816450818063598, -0.4618440381932334, 0.2208194358575142, 0.5577993593168172, 0.04153193715347463, 0.2726728562531267, 0.06339337013213292, 0.5326863394792488, 0.0917168270033181, 0.01524186945422366, 0.010628072308388224, 0.38682784485272625, 0.10871020304228199, 0.41878565375098387, 0.041546113857744454, 0.13676747406853637, 0.25838082908256377, 0.5498808800102901, 0.032067814873368655, 0.3345521015611073, 0.06648190774241096, 0.05520263145242259, -0.49388460433120634, -0.22148439310743095, -0.23085418785618236, 0.2909558527095998, -0.6618291184910738, 0.05752264743212355, 0.011628914512676475, 0.7206280520713941, 0.03600400449391521, 0.5644905284476733, 0.5610101254536467, -0.26255550472707123, 0.08462592610349412, 0.04207846087925949, 0.509559222514769, 0.24900873624299494, 0.20826645780123262, 0.3918210640527003, 0.009806054533476076, 0.03681434781781812, 0.1032661934157009, 0.13362457778676057, 0.07487492858651837, 0.02720913632515174, 0.0996575325588019, 0.03842926047268657, 0.02509604311184475]","[1.0603150721417094, 1.1614192671521495, -0.2656244385716577, 1.52112394929845, -1.0021527385771252, 1.2829435542323058, 0.532715425833926, -0.890686033040273, 1.1390695653740985, 0.5853636617541282, 0.40988563008654355, -0.8406694249440246, -0.6858128371909613, 0.8065237345262325, 0.28871287079144525]"
500,"[0.10110499753340076, 0.23220375187814407, 0.04117645068012623, -0.10444859586423472, -0.07487253397896745, 0.3652104438050232, -0.19577404015262692, -0.1920071790492638, 0.7231906928529402, -0.7577300049161143, -0.23829350315946912, 0.5733951367595168, 0.4265092734121382, 0.08884431966702355, 0.5821317005915367, 0.22793122447641026, 0.03457213937330308, 2.1246494134802482e-05, 2.0702618721262317e-06, 0.2887479872160423, 0.06464444155903208, 0.0002939944701489966, 0.3813607064326926, 0.01605269075811557, 0.1468750743426321, 0.016161141734108476, 0.2537968009354291, 0.026838833771565006, 2.0771561726893005e-05, 0.2452629743344756, 0.47537060178994867, 0.8714736095218101, 0.3578161419595503, -1.1190882493139147, 0.546426333343398, 0.018624863881898768, 0.41036858164472545, 0.6349660931802384, 0.8965798610798162, 0.14291642424958326, 0.18102948550872575, -0.2208703263778273, -0.08922891284153175, -0.32024244320141954, 0.030650673512808594, 0.08375822537987013, 0.618439315116694, 0.04320158706824767, 0.5480071482293697, 0.08508981883796131, 0.11840621731627406, 0.07184860983534651, 0.07196134912536911, 0.2804991859472629, 0.06390526333389711, 0.052664029515323306, 0.023000310313920785, 0.2546051392351983, 0.528810297481093, 0.14151060338185323, 0.3747920587044692, 0.9178249060645653, 0.4685956253017145, -0.1742341895815949, -0.2141432769728957, 0.5642134791322403, -0.6508110112215374, -0.29266907709502443, 0.6279814600792977, 0.07705635819064992, 0.3350940627802112, -0.07452843037629461, 0.2687848769860369, -0.004957393545813087, 0.25188447046083495, 0.10866177451777942, 0.17642499605352088, 0.04743448609299229, 0.39245396110874664, 0.7028862160934176, 0.0021622525371080216, 0.635183496137327, 0.009362869228487487, 0.018813744305370035, 0.13516531803827392, 0.07092840655314693, 0.018121160821145677, 0.5422648447785774, 0.0423897177841463, 0.1559826918890291, 0.46819318361340684, 0.25870643369487006, 0.3845523392567241, -0.19616189168088005, 0.6349946660007963, -0.10289622464913142, -0.18792713560431107, 0.25641114471515497, -0.7006088657761451, -0.21834671288691418, -0.048172446372167756, -0.12614359223300461, 0.19880357832693266, -0.3118261848971857, -0.19080328111340086, 0.0911428391883436, 0.10386199232425034, 0.012370815032232552, 0.4248684940659266, 0.049669637831924754, 0.02065972946729046, 0.3499186609636122, 0.15434626529477932, 0.30514145425858924, 0.01011725117455887, 0.006578660120340761, 0.022691031293949816, 0.16623181179732255, 0.14117893562375955, 0.3491989531707443, 0.058413837908974336, 0.2628820416712546, 0.8760252151762186, -0.5348713930547581, 0.8253573803207925, 0.4810581115467136, 0.28456271351094187, 0.009425993687436303, -0.2688176904268048, -0.5299511385251288, 0.7753976767382749, 0.4590578604889639, 0.01782251476116898, -0.25728205495615003, 0.04870128617830383, 0.0140427154245557, 0.2853522767524976, 0.01591581117046793, 0.09025192734888524, 0.4644105451536218, 0.34916249280698086, 0.037321868114838265, 0.0400909968916987, 0.011804604371260184, 0.19505890583732488, 0.058609706990894246, 0.5511569274145423, 0.19155518776129532, 0.09092227233384594, 0.34615738991085815, -0.2665038331327903, -0.20065388635430564, 0.3882141828318591, 0.07262398469864466, 1.1963544524991916, 0.16770044610220325, 0.03381725895970831, 0.24665911013296238, 0.4418261877171416, 0.37648288711586025, -0.20392934587067807, 0.09203223913696687, -0.1680474222759953, -0.38449366264412543, 1.0840517114672459, 0.4819393538191475, 0.42408188682350817, 0.0001651109029767573, 0.06892853764710664, 0.00011014376537027784, 0.1141657133162933, 0.3433978537332, 0.2569533051516866, 0.037589031055359365, 0.04663759269115434, 0.003959470247572978, 0.5932045110873994, 0.009188941238015837, 0.013867673132303407, 0.06071426241118128, 0.3247348270179223, -0.5609786122839764, 0.4442634456850276, 0.5033108876280027, -0.21734478576987123, 0.507815205088373, 0.132198647524761, 0.050522258113795744, 0.30610992096825335, 0.009109461457220944, -0.5611379150472572, 0.34237082480237335, 0.11166756379143365, -0.1541632533063987, 0.24805669345853493, 0.5603945575656543, 0.0007612744757899149, 0.0366786510046868, 0.011429659596267409, 0.2704188448007863, 0.0019332423213151016, 0.1500384543845622, 0.4700190189938632, 0.1575273179286006, 7.944533294087575e-05, 0.008438031909072595, 0.10243348525109358, 0.22095389448171504, 0.29021325244882434, 0.059558333341950286, -0.13954001060226418, -0.45855163190618203, -0.2577694827881688, -0.295553014110725, 0.5056887325565214, 0.3627080373764783, 0.42301074866262356, -0.571773339563876, -0.6368184539334986, 0.09796643270416602, -0.19664984615531994, 0.3429383894994819, -0.38398406035194277, -0.23751205071906326, 0.21564991953789145, 0.1692930707833549, 0.1204414617019942, 0.18510934593785328, 0.07060133097741468, 0.46101788312367703, 0.42227615252955136, 0.3604446154648501, 0.05841396310142595, 0.08609554159302993, 0.18489586929038143, 0.009262468929906396, 0.026990666820166126, 0.28562131392265466, 0.07830458918993773, 0.02529588867907654, -0.6086325863033049, 0.44887729207604016, 0.41561481280180684, 0.4477275782503144, 0.3521639080554987, 0.037777559435777534, 0.26590698225785886, 0.4767377832752217, -0.3835038494927867, 0.024824306590150974, 0.3734045780891974, 0.017475484981035412, -0.6857335382671248, -0.6258814554355473, -0.37906858809687427, 0.27916756976870327, 0.0038355593012601003, 0.04379066687075112, 0.1184869929620748, 0.4708960696315089, 0.04691705119244892, 0.561279536240588, 0.048667914190057525, 0.0006874569664826331, 0.04989626796421357, 0.46186605036475004, 0.054136412046453114, 0.01425085000034092, 0.01047959355898901, 0.001384432741828763, 0.7944389123008049, 0.5822526110708199, 0.15169967042533733, 0.090175228794887, -0.4808663434191949, 0.2603319770947991, -0.4976741170167832, -0.740217114617548, 0.818442722682412, -0.34649052689486926, 0.7105534016874315, 0.3357628593263157, 0.2779108247159063, 0.7804033701908848, 0.21066413519842914, 0.4283164533657521, 0.00014976461856130906, 0.06916866660573237, 0.24701372855977724, 0.06133176820185369, 0.0743896713517044, 0.14609129142299873, 0.058980760433280266, 0.0363025869044663, 0.04706715966814657, 0.030635928483644596, 0.001316901720488478, 0.07841877507361322, 0.03769657515089117, 0.37703775380929627, -0.024659641199220268, 0.513496045218373, -0.40945180627617334, 0.1815680238418916, 0.20098881442594146, -0.44119771937313346, -1.0756663304732943, 0.9112820590778472, 0.7471097961008651, -0.0362527292555948, 0.19667714625096133, -0.030772742712452596, 0.3416547170139112, 0.2145514243931597, 0.7090718813424044, 0.0028554452469881563, 0.3599732891318211, 0.3860087925888383, 0.0020876958295452724, 0.0006305031466412737, 0.140170301335389, 0.0015057646842238448, 0.04420846554268425, 3.8035955460570193e-06, 0.06240917292269414, 0.17731460584601125, 0.0025366983147194168, 0.32172674704257254, 0.02206156653488515, 0.057972692036407696, 0.3828478371601746, 0.33650721395905514, 1.3669514160207645, -0.4709192490658954, -0.4894241542690958, 0.24480133978306545, 0.04278347154449145, 1.1928024565665725, -0.3414997048637448, -0.15503532886619084, 0.5516401009465539, 0.4816772306122387, 0.7671521158613246, 0.5895217622990658, 0.7520460999507651, 0.1334085444649084, 0.7178786644850563, 0.05928004169640255, 0.08935105297624747, 0.018542159348761966, 0.24201170734874652, 0.6425468802014762, 0.004379833198224839, 0.18640135545555891, 0.0220130673947962, 0.0063310385243440575, 0.11520786757478377, 0.0012593754181793996, 0.00029770033951171103, 0.3899537941225754, -0.499203790023884, -0.32410415837503614, -0.08374142259901206, -0.8744066544925185, 0.2619808428344335, 0.5092275374683122, 0.3135298412882865, 0.7054609325505403, 0.7827486132699016, 0.27213438118904026, -0.08892259775905598, 0.17439838460463086, -0.553441262429883, 0.18141968024799432, 0.3044963973005241, 0.07674166530369979, 0.07214072885636534, 0.05517574527491154, 0.07929689707031459, 0.1887613490325904, 0.002270270677479475, 0.16922504385513978, 0.04126055935308127, 0.055773523097064, 0.1133275411209696, 0.04033218070304435, 0.002685331331068122, 0.6540709925467251, 0.7581390921916604, 0.3248162880543218, 0.37397432606731634, 0.13917638807586685, 0.33970030271637947, 0.35632930388646966, 0.713954655553385, 0.07185132089601824, 0.929494903076682, 0.6384164854061417, -0.7865439996452722, 0.3606754871889064, -0.014171165933767731, -0.21028460958553993, -0.21977771777069444, 0.04193874214534952, 0.6913831242913528, 0.04153193715347463, 0.2726728562531267, 0.06339337013213292, 0.5326863394792488, 0.0917168270033181, 0.01524186945422366, 0.010628072308388224, 0.38682784485272625, 0.10871020304228199, 0.41878565375098387, 0.041546113857744454, 0.13676747406853637, 0.25838082908256377, 0.5498808800102901, 0.032067814873368655, 0.654567526974054, 0.6575491689870606, 0.11530479459996348, -0.38873236508811115, 0.3392331146460878, -0.053227116660119256, 0.6381449609091226, 0.4758225796861286, -0.8452522111757569, 0.11101898305668191, -0.5739048844267968, 0.1761677833365268, 0.838268955054497, 0.5264428737013864, -0.40584133042714304, 0.08462592610349412, 0.04207846087925949, 0.509559222514769, 0.24900873624299494, 0.20826645780123262, 0.3918210640527003, 0.009806054533476076, 0.03681434781781812, 0.1032661934157009, 0.13362457778676057, 0.07487492858651837, 0.02720913632515174, 0.0996575325588019, 0.03842926047268657, 0.02509604311184475]","[0.9479805539250132, 1.2839139519065614, -0.19670887385000577, 1.2871480879022923, -0.945583968221512, 1.224320605244319, 1.1215984549204572, 1.0805288096839263, 0.38893619564901394, 0.4940347784338948, 1.3536602842607934, -0.7925690961665495, -0.34096775056776363, 0.8002685050188929, -0.45705432088713754]"
