epoch,weights,biases
500,"[0.3277094815410145, 2.0348586369520714, 1.3106416242826517, 0.6149701565691966, 0.550353840082807, -1.7109382771872679, -0.3460885401678118, 0.5732223927638558, 1.8510979914999197, 2.030731449386736, -1.0094174176997144, -1.9685674938449413, -0.47007636423899274, 0.2629435002599883, -0.03410966533099555, -1.9289939369657276, 1.0631094085114647, -1.1454876113202392, -0.23626748136427522, 0.5212864608246115, -0.25061170385725506, 1.0066892066075555, -1.1101616923960942, -1.080163194170295, 0.865055192473888, -0.8047528325833425, 0.6043379227462559, 0.9548983740511908, -1.1702806967791979, 0.422413503558175, 0.9163856245423508, 0.587865654003138, -1.7058282155271454, -0.4603380710427056, 0.3573209821928048, 0.8648013152673687, 0.1090486613731723, -1.1769110333501396, 0.5829731519411836, 0.784299178507108, 0.4371641252835397, -1.6102961033300704, 1.2581088853055185, 1.614878710552112, -1.8009176417895527, -0.8512716540765282, -0.9745762044442431, 0.9813092116965764, -0.4496565082844683, -1.0583848068001327, 0.4526759043448911, -0.8971260599618793, 0.5244319944270401, 0.30059378214495247, -0.5665180618598759, 0.9544795544629642, 0.2981052990755576, -0.23529681613190154, 1.4976559212113785, -0.24247895832735336, -0.39873267414374697, -0.5736785787714599, -0.7551093581626802, -0.7209031073189973, 1.0809350487349585, -3.3238908996601912, -0.02255330452566164, 0.4076539812627346, -0.12726079772329246, 1.2802646793638894, -0.19363470519072093, 1.2330260448492165, -1.875639591946217, -0.6561684919997781, -1.0512736533931848, 0.5919991137113904, -0.6245542007660367, -0.4336394520853108, -0.6751283857741679, -1.2410642362593318, 0.04995612787434247, 1.4702979574187198, 0.591875215185077, -0.14474345706414085, -0.8886463022337965, 0.7346176851908365, -1.182967902159201, 0.8191979021853468, -0.9732738330225402, 0.5006972301024787, 0.01643825521514983, -0.010492560560239492, 2.5450498762555713, -0.09195904113204315, 1.9266329081173277, -0.8936502806797159, -1.4395148625026155, -1.3308872542924226, -2.6853001838180415, -0.9832851672252143, -0.9088725430752391, 0.14375921366256714, -0.3753358440897528, 2.0937629084050506, 1.0368482449195937, 0.8374236583575141, -0.7807521922850569, 0.06519877566894995, 0.18018270062571054, 0.5666180773253432, 0.9240033462972952, 2.0316206940737453, 0.514314232265375, 0.2039300989111081, 2.190587645055672, -0.1849994513594591, 0.377815444323764, 0.2274261466049882, 1.4434970484048275, 0.560085745956301, -0.3287727237434435, -0.9701880767814716, -0.7710541105564482, -2.8414031038412655, 0.5335354132911296, -0.7102800266695527, -0.00726171057978612, -0.11516392938538324, -2.8215380132948447, 1.4556367843307598, -0.8440989816649355, -1.6333811280320916, 0.30376810633940443, -0.664378419209349, 1.6452885916154854, 0.0007284376769902221, 1.289250633495725, 0.01305136654511732, 0.4757086603592466, -1.7285016675707394, 0.05928101502752269, 0.04669968666562282, 0.7808260516848877, 0.0471364467990876, -0.1409955477522031, 0.45086894731195526, 0.40365359372271864, -0.5862798519667134, -0.002922425659226889, -0.8526319375350447, 0.05553145869734268, -0.22311648972589182, 1.0192903784867793, 1.0510591199377661, -0.8152598032267433, 0.9427322587982373, 0.8876186811800327, 1.1873953745468213, 0.5544049489747617, -0.5353029124957266, -1.7082694147336062, 1.025659272806322, 1.7055330708682694, -2.1481631311252993, 1.1370615547616996, -1.2930338410774658, 0.6777856831840313, -1.0488018133028938, 1.9338693323871887, -0.3312014440086321, 1.255064409636174, -1.809675801091916, -1.188321124516417, -0.2861820496546251, 0.8785236510603515, -0.45231370122703934, 0.44849275113197284, -0.051149834064813035, -1.7663002397833, 0.09697337237300568, 0.9535052469965288, -0.24353710493522432, -0.03287843004304007, -0.8321667417899428, 0.13681388974570205, -0.2570573276622855, -1.6715928136956149, -0.7955879118856113, -0.7564290732528302, -1.4455123639012462, 0.18951073657261575, -1.3343749177343023, -1.1124596504149862, 1.7715284619405556, -0.8270883716426439, 0.9505543016745538, -0.9338728129462411, 0.42980182785162185, -0.530730855312302, 0.20750266243677504, 0.2101294147478418, 1.0910179618212805, -1.7641807816907635, -0.5019601444628323, -1.2315529178281592, -0.5596445124605534, 0.8188407196887517, -0.18778070470365327, -0.8256728959837208, -0.18494332060132818, -0.2076919922162952, -1.2778730498029722, -0.5211771802497212, 1.062929456200964, 0.7450656552819198, -0.1401446696713312, -0.4085254602847769, -0.6471054891125645, 0.412464445977585, -0.11317598104934144, 0.38044461759000486, 0.5225894540871976, -0.513171070665812, -2.015657712341729, -0.9018967191728728, -0.8536539804078125, -0.9707633655748695, 2.012802061600533, 0.8139332027521314, -0.992014216992488, -0.02018131143492331, -0.12937991689833728, 0.09778726548575353, -0.003087644215551726, 1.799363030350778, 2.0267309249787493, 0.5343783482024199, -0.34596391764427786, 0.382620985436352, -2.204004270176681, 0.16465709651073338, -1.9402817688553684, 0.8990953430246452, -0.2670799227284765, 1.1308286605612958, 0.8678073662354082, -0.9613566403674936, 0.7592775461638456, -0.5444787248748917, 0.12763810241231494, 0.15461599946636298, 0.5097884557763659, 0.6179631159485118, 0.8368432875572527, -1.140136912981525, -1.0894952204864012, -0.6830184319787294, 1.0471309785539986, 1.1818803492895191, -0.5391400509711785, 0.44436269617174634, 0.417010648720426, -0.2402111173206481, 0.3220693108633005, 0.7580286001904947, -0.3311453391488735, -0.8919310930138293, 0.33710856142166873, 1.0210672364292204, -1.6556232202152614, -0.6058247207999969, -0.5273686481054074, -0.8368316851814327, 0.6101163355386373, -0.7623162252894063, -0.9489996960861125, -0.5837877854927405, 2.1058385896990734, 0.652366020947628, 0.6985544740250555, -1.1199077282104235, -0.6465812475428966, -1.0446817118193013, -0.5840749953848908, -0.1300114088918491, 0.1140662001487744, -0.03441084815105991, 0.3898277503047319, -2.0232691995174914, 1.1473074089917552, -0.1969309577430387, 0.7011837550037548, 1.8815914824224587, 0.39317405831968066, 1.553123183164995, -1.5053958258982114, 0.8809498530755709, -0.08484570729008231, 1.2482536062831944, 0.4053130973212931, 0.5973016733070021, -0.29546317584795273, 0.3485174024888265, -0.0722239351130582, 0.617447110810827, 0.8921573176242833, -1.3306331378888787, -0.4384253122645363, -0.9406049992742379, 0.7872638859506705, -1.4344633402906921, -0.02795020148770172, 0.28130392326992143, -1.8527351825711027, -1.3841789248317347, 1.3518161963945166, 0.44144412766556984, 0.9819611346623851, -1.8228747993418226, -2.0987166331100453, -0.8283747305732058, 0.9421933576328317, 0.1783637208695636, 0.11596570679537409, -0.926014515698976, 1.022548766991959, 0.174017647719835, -0.7229876946252993, -2.1422678496732406, 0.5640560272669668, -0.7061896956307206, -0.20179434496282858, 2.513754733353342, -1.39769592944389, -0.7622609116580817, 1.411684906022704, -2.619127122311065, 0.03319301105411339, -0.3770636468999, 0.6850477148244095, -1.50005418478646, -0.4711525612430349, 0.8690514766945534, -0.19534847188444548, -0.9271037786160724, 0.06328958192621557, 0.29002163944483217, 0.5160339274330801, 1.0833155819815012, -1.117259690511558, 2.4492226058337394, -0.035255982719424775, 0.6193398625752857, -0.7488694175923254, 1.2310287753867808, 0.456868988564296, 0.2840696023011113, -0.9608517114055984, 0.8754779108388532, 1.5485393229570277, -0.478265972062565, -1.5581986573085795, 0.19793495113868384, -0.13986859813225347, 1.3009577029459303, -0.4588980235708701, 0.42422225119755186, -1.6659129355534399, -1.884750898937643, -0.21831775068100293, 0.3968964626423589, 0.14649182766021918, -1.4713733423183857, -0.10304953352674888, -1.5548423158880598, 0.6518140565057452, -1.6655849176293092, 0.8400261091519033, -0.4328636115722483, 0.6331475153349482, -0.3772659220266323, -1.892610334313674, 0.03942162633719262, 1.2816640262061325, -0.6408544933158385, -1.6216223582615055, 0.8353384973602441, -1.8789622537587922, -0.05631793531761108, 0.9336417039033357, 1.6958719332478611, -0.7354894807857199, -0.4641811486852496, 1.7490380281368278, -2.1693135103451735, -1.7775312850454443, 1.8452528394582381, -0.12911123855104023, 0.6528105382898463, -0.07728391248291323, 0.040191890092086804, 0.9824009571312792, 0.13627322097705596, -0.4940465959361559, -1.6032419843340922, 1.2204110802755888, -0.2648629965571467, -0.3193854980687277, -0.3692047137607913, 0.3222420594125383, 0.09500915776687133, -0.9388788922014327, 1.1612016274902723, 1.0439932515310986, 0.6540912335303632, -0.31966030016794916, 0.6339035785573736, 1.2937114997601298, -1.8670271285250406, 0.7827606993155876, -0.7214311796632035, 0.6824208345292545, -0.2516485655792759, 0.9958058859517123, 1.2976668462387797, 1.0225337174029054, -0.5277363994779073, 1.018607109782023, -0.7419940197806685, 0.7667408417281889, -0.11414797996230738, -1.3955504496243287, 1.8558175279460887, -0.10423979415541812, -1.1443837867958913, 0.14636537799167684, 0.5198803019684891, -1.2412526210679793, 0.387868090325871, 1.537073014034126, -0.6680852255144981, 1.131251027184522, 1.204488687658544, -2.484320318802057, -0.24705686411224556, 0.288179417948469, 1.5583062184870706, -0.9402955868491776, -0.7021107368089229, 0.29274596749652754]","[-1.4594779311851582, -0.7722262461282786, -0.7665768206646201, 1.2459630798421946, 1.1127888803671522, 0.28165685830069137, 1.5716303878574736, 1.1523419173122023, -0.4145321833323349, 0.029553671931328983, 0.8157742870939872, -0.6380484559852329, -0.8922016166513566, -0.9486489752372028, 0.6081291209807059]"
500,"[-0.047131144981011786, 2.4471273251327195, 2.344320606991257, -0.3552375177963649, 1.127099398102232, -1.4782879796451511, -2.077723167201133, 0.041387970145903716, 0.6327176421841464, 1.7707210538651705, -1.8711781984379914, -1.0871054687394524, 0.5263153024644591, -0.9052520771131348, -1.1511709378715231, -1.9289939369657276, 1.0631094085114647, -1.1454876113202392, -0.23626748136427522, 0.5212864608246115, -0.25061170385725506, 1.0066892066075555, -1.1101616923960942, -1.080163194170295, 0.865055192473888, -0.8047528325833425, 0.6043379227462559, 0.9548983740511908, -1.1702806967791979, 0.422413503558175, -0.6692876695321561, 0.4011875571323408, -1.0464806669570608, -0.6814796473846128, -1.0632975748435711, 0.8002169787389433, -0.2278356748698338, -2.423890598461848, -0.1322660589191593, 0.6476070959829076, 1.5775275177093893, -1.3653310373167145, 0.9521789087702419, 1.9500267367173347, -1.1474472855357285, -0.8512716540765282, -0.9745762044442431, 0.9813092116965764, -0.4496565082844683, -1.0583848068001327, 0.4526759043448911, -0.8971260599618793, 0.5244319944270401, 0.30059378214495247, -0.5665180618598759, 0.9544795544629642, 0.2981052990755576, -0.23529681613190154, 1.4976559212113785, -0.24247895832735336, -0.6159450577845863, -0.9701236997582355, 0.25696156117972146, -0.17997616891185605, 0.5415703345022793, -2.4102432396758178, -1.4857713069783798, -0.26875194400752445, -0.9120139112123656, 2.515957884499554, -0.9616226189873606, -0.6218689417226102, -1.1378802579499399, -0.03545297966535198, -1.0475643598023856, 0.5919991137113904, -0.6245542007660367, -0.4336394520853108, -0.6751283857741679, -1.2410642362593318, 0.04995612787434247, 1.4702979574187198, 0.591875215185077, -0.14474345706414085, -0.8886463022337965, 0.7346176851908365, -1.182967902159201, 0.8191979021853468, -0.9732738330225402, 0.5006972301024787, 0.5306320631195218, 1.1088450338384988, 1.7964805084002202, 0.10280061930078888, 1.878903751266107, -0.6698906404614005, -0.14436346270607073, -1.9915875993341543, -2.87412337530108, -0.8035111253084005, 0.009767227450480016, -0.42106319362055794, -1.976857414072346, 1.6549381878556417, 0.6443288474534762, 0.8374236583575141, -0.7807521922850569, 0.06519877566894995, 0.18018270062571054, 0.5666180773253432, 0.9240033462972952, 2.0316206940737453, 0.514314232265375, 0.2039300989111081, 2.190587645055672, -0.1849994513594591, 0.377815444323764, 0.2274261466049882, 1.4434970484048275, 0.560085745956301, -1.1825626346309768, -0.543076119372528, 1.4782111336035602, -1.9856758388813918, 1.0332486949524466, -0.8416270530408101, 0.423786402201364, -0.05370821653464186, -3.0046119261667537, 0.5175671645081128, 0.14412041646391197, -0.39290711179045756, 2.237127297466274, -0.6554618213369193, 1.281617228124839, 0.0007284376769902221, 1.289250633495725, 0.01305136654511732, 0.4757086603592466, -1.7285016675707394, 0.05928101502752269, 0.04669968666562282, 0.7808260516848877, 0.0471364467990876, -0.1409955477522031, 0.45086894731195526, 0.40365359372271864, -0.5862798519667134, -0.002922425659226889, -0.8526319375350447, -0.8415377241627681, -0.6620013328058733, 2.40623066733686, -1.1416574121774161, -0.28314916175750193, 1.1845441226532918, 1.2571149064336888, 0.8394747461059356, 1.5964987948192961, -1.2865906429276845, -0.29612222243708886, 0.374782722560037, 1.0524599338221854, -1.0573169412873775, 1.1094921034776732, -1.2930338410774658, 0.6777856831840313, -1.0488018133028938, 1.9338693323871887, -0.3312014440086321, 1.255064409636174, -1.809675801091916, -1.188321124516417, -0.2861820496546251, 0.8785236510603515, -0.45231370122703934, 0.44849275113197284, -0.051149834064813035, -1.7663002397833, 0.09697337237300568, 0.44134340874752037, 0.0362062192021743, -0.24464856779431451, -0.5371876661292142, 0.05783983795549147, -0.30535918143144697, -0.7296270720325108, -0.6150334486571378, -1.117251484625337, 0.1973860218969668, 0.6522852736481461, -1.1994503534721548, -0.2801142151039821, 1.0780391874265716, -0.7518491905881057, 0.9505543016745538, -0.9338728129462411, 0.42980182785162185, -0.530730855312302, 0.20750266243677504, 0.2101294147478418, 1.0910179618212805, -1.7641807816907635, -0.5019601444628323, -1.2315529178281592, -0.5596445124605534, 0.8188407196887517, -0.18778070470365327, -0.8256728959837208, -0.18494332060132818, 0.663190512813993, -0.9885841203521463, 0.1544418891540189, 1.2803085409298223, 0.9553633016309676, -0.6544283981794338, -0.6110885864933931, -1.1004399804415268, 0.2739417846904134, 0.2773864741272013, -0.8312238217616422, 0.21330026723271256, -0.22332699773447906, -1.1043537111747463, -0.9766097962080331, -0.8536539804078125, -0.9707633655748695, 2.012802061600533, 0.8139332027521314, -0.992014216992488, -0.02018131143492331, -0.12937991689833728, 0.09778726548575353, -0.003087644215551726, 1.799363030350778, 2.0267309249787493, 0.5343783482024199, -0.34596391764427786, 0.382620985436352, -2.204004270176681, -0.3145715120305621, -1.6142971290696588, 0.45327443272356044, -1.000983448437078, 1.9625386836089014, 0.5761971255622864, 0.1244420759024474, 0.31059458525988387, 0.5675045386231803, -0.5464095962373671, 0.31661646668946325, 1.7248623811957597, -0.3075320929416847, 0.8741411561720233, -0.7843927598535401, -1.0894952204864012, -0.6830184319787294, 1.0471309785539986, 1.1818803492895191, -0.5391400509711785, 0.44436269617174634, 0.417010648720426, -0.2402111173206481, 0.3220693108633005, 0.7580286001904947, -0.3311453391488735, -0.8919310930138293, 0.33710856142166873, 1.0210672364292204, -1.6556232202152614, -0.3922455352308529, -0.9121374036568107, -0.04907828177894478, -0.1144838617221288, -0.977669246108996, -1.6486397524429315, -0.11779025441874591, 0.9992657728202302, 0.36520498195007695, 0.006636906186741721, -0.9268069472751862, -0.8742537802196477, -0.7749753861618918, -0.009376604329113945, -0.12973232541838636, 0.1140662001487744, -0.03441084815105991, 0.3898277503047319, -2.0232691995174914, 1.1473074089917552, -0.1969309577430387, 0.7011837550037548, 1.8815914824224587, 0.39317405831968066, 1.553123183164995, -1.5053958258982114, 0.8809498530755709, -0.08484570729008231, 1.2482536062831944, 0.4053130973212931, -0.4957249153754044, -1.052897830488523, 0.7865650958103966, -0.290517602619386, 1.1910627030320302, -0.3697214459592978, -1.413110478092005, -0.6744542338190975, -0.34609317524199606, 0.5907014765651903, -1.6223889796458066, -0.22672499363986637, 0.06287030206394419, -1.1629237537949022, -0.7940032573115684, 1.3518161963945166, 0.44144412766556984, 0.9819611346623851, -1.8228747993418226, -2.0987166331100453, -0.8283747305732058, 0.9421933576328317, 0.1783637208695636, 0.11596570679537409, -0.926014515698976, 1.022548766991959, 0.174017647719835, -0.7229876946252993, -2.1422678496732406, 0.5640560272669668, -0.8728369913758044, -0.7088237612826772, 2.7305738254908527, -1.6169156206817334, 0.314488031883199, 0.20823818104616648, -2.0924205215708027, -0.8105601441121691, -0.6359372881688391, 1.5516502309366247, -0.9879848298538175, 0.1605846398150937, 0.05977026048584, -0.5566890634781478, -1.614389726332048, 0.06328958192621557, 0.29002163944483217, 0.5160339274330801, 1.0833155819815012, -1.117259690511558, 2.4492226058337394, -0.035255982719424775, 0.6193398625752857, -0.7488694175923254, 1.2310287753867808, 0.456868988564296, 0.2840696023011113, -0.9608517114055984, 0.8754779108388532, 1.5485393229570277, 0.5723705185670962, -0.9118773616649084, -0.9633873291092864, -0.04363403232351128, 1.5635110867826214, -0.824078715922595, 0.5792857784515242, -0.4931680077408115, -1.182635252796637, 0.833479421170658, 0.8116147862922612, -1.4737975210088552, -1.1023465583919951, 0.6681878694991418, -1.0884553989959957, 0.6518140565057452, -1.6655849176293092, 0.8400261091519033, -0.4328636115722483, 0.6331475153349482, -0.3772659220266323, -1.892610334313674, 0.03942162633719262, 1.2816640262061325, -0.6408544933158385, -1.6216223582615055, 0.8353384973602441, -1.8789622537587922, -0.05631793531761108, 0.9336417039033357, 1.5132441263249723, -0.39365014608413845, -0.719031652242328, 1.443770025613954, -2.697405765957799, -1.4245027689920846, 0.4080472153182141, -0.4115867716661783, -0.24882809497959146, -0.31395722470973636, 0.21792220925648276, 1.408821113459869, 0.27649980332652857, -0.9751816545919949, -0.33479589535248944, 1.2204110802755888, -0.2648629965571467, -0.3193854980687277, -0.3692047137607913, 0.3222420594125383, 0.09500915776687133, -0.9388788922014327, 1.1612016274902723, 1.0439932515310986, 0.6540912335303632, -0.31966030016794916, 0.6339035785573736, 1.2937114997601298, -1.8670271285250406, 0.7827606993155876, -1.3111261526947502, 0.08270022613229497, 0.20286778224090887, 1.6205266849746924, 0.14140803817780345, 0.8748003657100689, 0.14252779265440035, 1.2650077747452637, 0.41489146872850174, 1.376163320850935, 0.16841945421708782, -0.9078416017234346, 1.2875242120216936, 1.7795835597683622, -1.3186979398504084, 0.14636537799167684, 0.5198803019684891, -1.2412526210679793, 0.387868090325871, 1.537073014034126, -0.6680852255144981, 1.131251027184522, 1.204488687658544, -2.484320318802057, -0.24705686411224556, 0.288179417948469, 1.5583062184870706, -0.9402955868491776, -0.7021107368089229, 0.29274596749652754]","[0.06956018939619017, -0.6808316233171844, -1.1274582414404688, -0.22936524722931978, 1.4344916843980131, -1.0263624048156592, 1.749416613333053, 0.6856397927829757, -1.1930962764716433, 1.4104048611270708, -0.7758885358695786, -0.7361322053066236, -0.3689230502182385, -0.42813305992944795, 0.8050356469274287]"
500,"[0.11072025981558636, 1.1718315472235423, 1.4723998151170647, 0.6381857513093501, 1.040301139835075, -0.47769964884648014, -0.41933637423835407, 0.4483517091527871, 0.4731245908303497, 1.4006692918191104, -1.14920231858943, -0.531747177972227, -0.23114502712172924, 0.16147493203226904, -0.9803942172829208, -1.9289939369657276, 1.0631094085114647, -1.1454876113202392, -0.23626748136427522, 0.5212864608246115, -0.25061170385725506, 1.0066892066075555, -1.1101616923960942, -1.080163194170295, 0.865055192473888, -0.8047528325833425, 0.6043379227462559, 0.9548983740511908, -1.1702806967791979, 0.422413503558175, 0.4183041389758297, 0.5186540753959293, -2.867271371061807, -0.08969651003131472, -0.5052269367864947, 0.436297817434507, -0.1755724711697718, -1.3537167075558159, -0.436510875549962, 0.8456025036211342, 0.441410116123923, -1.960665941491179, 1.0853610087193877, 1.3283041176239065, -2.1246942293344526, -0.8512716540765282, -0.9745762044442431, 0.9813092116965764, -0.4496565082844683, -1.0583848068001327, 0.4526759043448911, -0.8971260599618793, 0.5244319944270401, 0.30059378214495247, -0.5665180618598759, 0.9544795544629642, 0.2981052990755576, -0.23529681613190154, 1.4976559212113785, -0.24247895832735336, -0.5543847884909958, 0.08942858524673891, -0.6333605293803068, -0.031875283447713273, -0.28639576541973366, -2.0251886267903174, -0.8065460119766683, 0.5305488644800687, 0.29472045758123855, 1.103798001550462, -1.1985333891169523, -1.5173034644326104, -1.237904704458783, -1.1951400009163167, 0.03648049761611131, 0.5919991137113904, -0.6245542007660367, -0.4336394520853108, -0.6751283857741679, -1.2410642362593318, 0.04995612787434247, 1.4702979574187198, 0.591875215185077, -0.14474345706414085, -0.8886463022337965, 0.7346176851908365, -1.182967902159201, 0.8191979021853468, -0.9732738330225402, 0.5006972301024787, 0.9556567426237095, 0.6203072358800152, 2.923461728155763, 0.2016824999649705, 0.7516904925241946, -1.7501656444530396, -0.7098805169830502, -0.7885312380723846, -2.5276030226223685, -1.146554262329685, 0.5110000276650126, -1.0092348341145418, -0.46550735355005224, 1.2265181632629123, 0.7296597067193167, 0.8374236583575141, -0.7807521922850569, 0.06519877566894995, 0.18018270062571054, 0.5666180773253432, 0.9240033462972952, 2.0316206940737453, 0.514314232265375, 0.2039300989111081, 2.190587645055672, -0.1849994513594591, 0.377815444323764, 0.2274261466049882, 1.4434970484048275, 0.560085745956301, -0.7255582469743794, -1.1037429382809971, 0.07343819050113289, -2.801326767694214, -0.4459203949970446, -0.6458529955543211, -0.10764489328469048, -0.1878873088623705, -3.0131051826436663, 0.7641372642944487, -0.32734033081045555, -0.6176213085126342, 1.8670088826005544, -1.015191751549978, 1.1238620215118955, 0.0007284376769902221, 1.289250633495725, 0.01305136654511732, 0.4757086603592466, -1.7285016675707394, 0.05928101502752269, 0.04669968666562282, 0.7808260516848877, 0.0471364467990876, -0.1409955477522031, 0.45086894731195526, 0.40365359372271864, -0.5862798519667134, -0.002922425659226889, -0.8526319375350447, 0.2471829734801859, 0.14975180229111362, 1.6392088113536187, 0.36677512684007546, 0.877376554057827, 0.5612998832716602, 1.0106935650992661, 2.1751365314644673, 0.9837678541797187, -1.4843209250682308, -0.6444902145169751, -0.6412805578934253, 1.044512773308663, -0.9319634060347227, 1.2768986838497476, -1.2930338410774658, 0.6777856831840313, -1.0488018133028938, 1.9338693323871887, -0.3312014440086321, 1.255064409636174, -1.809675801091916, -1.188321124516417, -0.2861820496546251, 0.8785236510603515, -0.45231370122703934, 0.44849275113197284, -0.051149834064813035, -1.7663002397833, 0.09697337237300568, 0.5463530455926616, 0.1422134372383828, -1.0053054412161826, -0.6354681623530202, 0.29265213395370404, 1.5247852474682768, -0.22545677940815864, -0.16809255182335883, -0.7309899868107423, -0.498734937104027, 0.6955557535908224, -2.380761512580622, -0.6800918506342617, 0.3989271789438373, -0.7807515904907623, 0.9505543016745538, -0.9338728129462411, 0.42980182785162185, -0.530730855312302, 0.20750266243677504, 0.2101294147478418, 1.0910179618212805, -1.7641807816907635, -0.5019601444628323, -1.2315529178281592, -0.5596445124605534, 0.8188407196887517, -0.18778070470365327, -0.8256728959837208, -0.18494332060132818, 1.1366946725818932, -1.4183761172998106, 0.04615814399126434, 2.128046432523805, 0.4338055050820282, -0.5544326397388445, -1.2234821998635454, -1.0926965899294252, -0.7870614801958447, -0.42404873748562616, -0.6227707542152321, 0.8905809897553769, 0.1436512240562506, 0.34969488304804913, -0.4276326950968007, -0.8536539804078125, -0.9707633655748695, 2.012802061600533, 0.8139332027521314, -0.992014216992488, -0.02018131143492331, -0.12937991689833728, 0.09778726548575353, -0.003087644215551726, 1.799363030350778, 2.0267309249787493, 0.5343783482024199, -0.34596391764427786, 0.382620985436352, -2.204004270176681, -0.0990298401634042, -1.9214539710775858, 0.8820024205959511, -0.30967198019146724, 1.251905619031743, 0.6988767745287625, 0.33897768038315096, 0.17465482687837458, -0.05177625820816843, -0.3340961191615438, 0.8383642716493924, 1.1288148868783685, 0.5138497453368792, 0.6539524209083326, -0.7553722871481382, -1.0894952204864012, -0.6830184319787294, 1.0471309785539986, 1.1818803492895191, -0.5391400509711785, 0.44436269617174634, 0.417010648720426, -0.2402111173206481, 0.3220693108633005, 0.7580286001904947, -0.3311453391488735, -0.8919310930138293, 0.33710856142166873, 1.0210672364292204, -1.6556232202152614, -0.8166208403551449, -0.3036446745915377, 0.03899999417126196, 0.9273828545856379, -0.8232946226350438, -1.7853788775507846, -0.614371344134814, 2.0199484685931757, 1.3367563728183698, 0.23536958937585642, -1.1830996857930884, 0.055794948226032426, -0.8730122856654415, 0.902715360404991, -0.26230871187541993, 0.1140662001487744, -0.03441084815105991, 0.3898277503047319, -2.0232691995174914, 1.1473074089917552, -0.1969309577430387, 0.7011837550037548, 1.8815914824224587, 0.39317405831968066, 1.553123183164995, -1.5053958258982114, 0.8809498530755709, -0.08484570729008231, 1.2482536062831944, 0.4053130973212931, -0.23853595383488913, -0.17754457651175568, -0.18809728946262116, -0.44389180255099236, 0.3711164696244325, 0.8046803215213356, -1.9433135629467655, 0.5057359223222496, -1.235172678350815, -0.36728091864477186, -2.1276134183463307, 1.040991965418074, -0.12372228317903435, -1.6786937082715205, -0.22042226549862245, 1.3518161963945166, 0.44144412766556984, 0.9819611346623851, -1.8228747993418226, -2.0987166331100453, -0.8283747305732058, 0.9421933576328317, 0.1783637208695636, 0.11596570679537409, -0.926014515698976, 1.022548766991959, 0.174017647719835, -0.7229876946252993, -2.1422678496732406, 0.5640560272669668, -0.9761662339149149, 0.2207868470339382, 2.6493205389062187, -1.237676224317466, 0.9454729878594285, -0.4288837010446005, -1.6352329095757736, -0.23676289233742767, -0.606855081965927, 0.9546417675183908, -0.8157458851217854, 0.58778775205062, -0.16350601572952914, -0.6446168143148074, -1.162512998277909, 0.06328958192621557, 0.29002163944483217, 0.5160339274330801, 1.0833155819815012, -1.117259690511558, 2.4492226058337394, -0.035255982719424775, 0.6193398625752857, -0.7488694175923254, 1.2310287753867808, 0.456868988564296, 0.2840696023011113, -0.9608517114055984, 0.8754779108388532, 1.5485393229570277, 0.10207438216552804, 0.7657649465245984, 0.11262251584802803, 0.7955193912612952, 2.0268526372197324, -0.8538098370146171, 0.16679160992163866, -0.3991316101058683, -1.2316230458062964, 0.9266888468638638, 0.3622614227615146, -0.4212854632910866, -1.303497045176349, 0.45971249350162335, -1.6084044981032786, 0.6518140565057452, -1.6655849176293092, 0.8400261091519033, -0.4328636115722483, 0.6331475153349482, -0.3772659220266323, -1.892610334313674, 0.03942162633719262, 1.2816640262061325, -0.6408544933158385, -1.6216223582615055, 0.8353384973602441, -1.8789622537587922, -0.05631793531761108, 0.9336417039033357, 0.8304329823089911, -0.7201926300532713, -1.3345679516075701, 1.9787418692810426, -2.383127328727727, -1.9497871540902068, 0.16830683693189705, -0.45341773416488934, -0.6953698639970332, 0.19535146274769852, 0.6202053169495869, 0.5939652193244892, -1.1121574651168389, -0.6418692781811647, -0.51674367135189, 1.2204110802755888, -0.2648629965571467, -0.3193854980687277, -0.3692047137607913, 0.3222420594125383, 0.09500915776687133, -0.9388788922014327, 1.1612016274902723, 1.0439932515310986, 0.6540912335303632, -0.31966030016794916, 0.6339035785573736, 1.2937114997601298, -1.8670271285250406, 0.7827606993155876, -0.65258466141386, 0.36730234929662786, 0.23705167665100046, 2.6731093309324288, 0.19857324323491332, 0.6400147644251315, 0.43683657805471077, -0.4565625993824443, -1.0898468397618897, 0.11182368846106773, -0.16380919703280525, -0.10267281846471904, 1.6560683696027063, 0.9007921778198356, -0.5283076481880014, 0.14636537799167684, 0.5198803019684891, -1.2412526210679793, 0.387868090325871, 1.537073014034126, -0.6680852255144981, 1.131251027184522, 1.204488687658544, -2.484320318802057, -0.24705686411224556, 0.288179417948469, 1.5583062184870706, -0.9402955868491776, -0.7021107368089229, 0.29274596749652754]","[-1.7023991363215298, -0.314510728766139, -0.9400883402281713, -0.7123402047626862, 1.4576746365341942, 0.6478001555860404, 1.4483565221311179, 0.6017275113458347, -0.9029645728924243, 1.0363916268162132, 0.7284782714988944, -0.46443070189735225, 0.568538297359844, -0.1191172561697686, 1.1332280153751382]"
500,"[-0.6408344009004326, 1.7558117308752201, 0.5079060333374489, -0.9509016281103386, 1.2352356257572343, -1.529626758983114, 0.09774339559837547, 0.22495088852744824, 0.8112730827305459, 1.771623408456028, -1.1748226343503125, -1.4500909992130833, 0.004541328332508272, -0.6041299037500912, -0.4762570478970456, -1.9289939369657276, 1.0631094085114647, -1.1454876113202392, -0.23626748136427522, 0.5212864608246115, -0.25061170385725506, 1.0066892066075555, -1.1101616923960942, -1.080163194170295, 0.865055192473888, -0.8047528325833425, 0.6043379227462559, 0.9548983740511908, -1.1702806967791979, 0.422413503558175, -0.6973166135969517, 1.1654409574371312, -2.051865863827015, -0.6604321453315398, -0.1449216979361255, 1.2442113707499205, -1.230198802252441, -1.4578527197169517, -0.4118079044789918, 0.40536864422803603, 1.121595566888355, -1.7853963878360561, 1.0582910060809032, 1.2379776138854914, -2.100768744915404, -0.8512716540765282, -0.9745762044442431, 0.9813092116965764, -0.4496565082844683, -1.0583848068001327, 0.4526759043448911, -0.8971260599618793, 0.5244319944270401, 0.30059378214495247, -0.5665180618598759, 0.9544795544629642, 0.2981052990755576, -0.23529681613190154, 1.4976559212113785, -0.24247895832735336, -0.9080419777312309, -0.5941970965141455, -0.051203055974632046, -1.0314993826099088, 0.5625614807898662, -2.312926109177782, -1.9898735222606205, 0.3503586170646148, 0.8005058012387464, 1.76368407950728, -0.6315367067374728, 0.08778315163644397, -1.4969027592227078, 0.051794667845191794, -0.24012209178370386, 0.5919991137113904, -0.6245542007660367, -0.4336394520853108, -0.6751283857741679, -1.2410642362593318, 0.04995612787434247, 1.4702979574187198, 0.591875215185077, -0.14474345706414085, -0.8886463022337965, 0.7346176851908365, -1.182967902159201, 0.8191979021853468, -0.9732738330225402, 0.5006972301024787, 1.21675476453819, 0.225542912554562, 2.0308687773869143, -1.3828782467978742, 0.6287949166477135, -0.5021427658044745, -0.6699948436544733, -0.7917854373495993, -3.0595842661108983, -0.9888553085800068, 0.7750885836432634, -0.4183570644564463, -2.111413136970454, 3.0144456109365616, 1.0740956227692608, 0.8374236583575141, -0.7807521922850569, 0.06519877566894995, 0.18018270062571054, 0.5666180773253432, 0.9240033462972952, 2.0316206940737453, 0.514314232265375, 0.2039300989111081, 2.190587645055672, -0.1849994513594591, 0.377815444323764, 0.2274261466049882, 1.4434970484048275, 0.560085745956301, -1.1789049840197818, -0.8169942451248393, 0.3825072757351709, -2.968620276167519, 0.8871940198000604, -1.5112182265375322, 0.2814705599714455, -0.5202115569399057, -2.661511835565067, 0.3595327874954604, 0.7825703362660068, 0.46486636874150056, 2.056383848932501, -1.2352492133772377, 0.9970123566550079, 0.0007284376769902221, 1.289250633495725, 0.01305136654511732, 0.4757086603592466, -1.7285016675707394, 0.05928101502752269, 0.04669968666562282, 0.7808260516848877, 0.0471364467990876, -0.1409955477522031, 0.45086894731195526, 0.40365359372271864, -0.5862798519667134, -0.002922425659226889, -0.8526319375350447, -0.5845778178705723, -1.28184259119104, 2.0394605593228303, -0.1482031362573946, -0.7604223363157974, -0.44226417055856626, 0.5091557235993355, 1.091164988345968, 0.7615509485345917, -0.028548314249699086, -0.46749072629521643, 0.49244278060320984, 1.9209611132468973, -0.8171503967126725, 2.224484920478296, -1.2930338410774658, 0.6777856831840313, -1.0488018133028938, 1.9338693323871887, -0.3312014440086321, 1.255064409636174, -1.809675801091916, -1.188321124516417, -0.2861820496546251, 0.8785236510603515, -0.45231370122703934, 0.44849275113197284, -0.051149834064813035, -1.7663002397833, 0.09697337237300568, 0.31373724141024095, 0.35066721989366145, -0.380827828720034, -0.5391417655117211, 0.731883617725267, 0.9804231487338617, -1.3183767692783754, 0.09712479558097156, -0.913139919238851, 0.732491883379495, 0.9951898223609884, -1.6847115908117094, 0.6650753626012657, 1.3621825566552292, -0.34135774188898704, 0.9505543016745538, -0.9338728129462411, 0.42980182785162185, -0.530730855312302, 0.20750266243677504, 0.2101294147478418, 1.0910179618212805, -1.7641807816907635, -0.5019601444628323, -1.2315529178281592, -0.5596445124605534, 0.8188407196887517, -0.18778070470365327, -0.8256728959837208, -0.18494332060132818, 0.14660859954990949, -1.6630116692819676, -0.011922886342896642, 1.9460954742792274, -0.0730754356944045, -0.11235830073755254, -0.30432910454735856, -1.2676630522736028, -0.8741728930616129, 0.8840276588898983, -0.4068910374844209, 1.1190700742404023, -0.04725610396725701, -0.902943057180178, -1.4680825535879165, -0.8536539804078125, -0.9707633655748695, 2.012802061600533, 0.8139332027521314, -0.992014216992488, -0.02018131143492331, -0.12937991689833728, 0.09778726548575353, -0.003087644215551726, 1.799363030350778, 2.0267309249787493, 0.5343783482024199, -0.34596391764427786, 0.382620985436352, -2.204004270176681, 0.5798713734254225, -1.36785883538374, 0.2991466611862197, -0.24158724217508998, 1.4040201966696977, 1.3308684597901075, -0.477945687297213, 0.8195977659165736, 0.4663630122717775, -0.783325382461281, -0.38478312237956125, 0.8411357757468725, 0.6189587665830245, 0.8195503947128668, -0.992478249728104, -1.0894952204864012, -0.6830184319787294, 1.0471309785539986, 1.1818803492895191, -0.5391400509711785, 0.44436269617174634, 0.417010648720426, -0.2402111173206481, 0.3220693108633005, 0.7580286001904947, -0.3311453391488735, -0.8919310930138293, 0.33710856142166873, 1.0210672364292204, -1.6556232202152614, -1.8178021481727489, 0.009806963850232095, -0.02561395680544245, -0.27885785332901797, -2.145504569853804, -1.208893988944363, -0.5406868400759953, 1.854818275365762, 0.3448181566325389, 0.6553575373916577, -1.2741661701439906, 0.630650156254407, 0.031512071991019075, -0.031642957505715205, -0.6713345511973114, 0.1140662001487744, -0.03441084815105991, 0.3898277503047319, -2.0232691995174914, 1.1473074089917552, -0.1969309577430387, 0.7011837550037548, 1.8815914824224587, 0.39317405831968066, 1.553123183164995, -1.5053958258982114, 0.8809498530755709, -0.08484570729008231, 1.2482536062831944, 0.4053130973212931, -0.7812535927609848, -0.36185373392438136, 0.41998175253435543, -0.8749359626916703, 0.5301904712723172, 0.15828971923632135, 0.18543081246429843, -1.204578614519015, -0.017811457061389153, 0.7696071851412339, -2.5445042022371966, 0.14009293431399536, 0.34257689653955575, -1.4805714986917065, -0.669923025539038, 1.3518161963945166, 0.44144412766556984, 0.9819611346623851, -1.8228747993418226, -2.0987166331100453, -0.8283747305732058, 0.9421933576328317, 0.1783637208695636, 0.11596570679537409, -0.926014515698976, 1.022548766991959, 0.174017647719835, -0.7229876946252993, -2.1422678496732406, 0.5640560272669668, -0.5981997515889966, -0.6911174155316844, 1.7765610394863995, -1.0075031360074727, 0.24373952288734899, 0.02382153938362819, -2.418281080091808, -0.5107183217876753, -1.1228127352446604, 1.0389384582496903, -1.3383830179516392, -0.46068983148794246, 0.5692315619491773, -1.213069257096233, -1.4586820623327381, 0.06328958192621557, 0.29002163944483217, 0.5160339274330801, 1.0833155819815012, -1.117259690511558, 2.4492226058337394, -0.035255982719424775, 0.6193398625752857, -0.7488694175923254, 1.2310287753867808, 0.456868988564296, 0.2840696023011113, -0.9608517114055984, 0.8754779108388532, 1.5485393229570277, -0.1835186819513029, 0.8613668861727792, 0.308646377621854, 0.09294974480071391, 0.8211315082178616, -0.5437610120106492, 0.35277907916823764, -0.7825906320215008, -1.150857437032929, 1.9202568262810313, -1.147821807392599, -0.804980200153337, -1.9740626905260599, -0.163880212093082, -1.7575731256049303, 0.6518140565057452, -1.6655849176293092, 0.8400261091519033, -0.4328636115722483, 0.6331475153349482, -0.3772659220266323, -1.892610334313674, 0.03942162633719262, 1.2816640262061325, -0.6408544933158385, -1.6216223582615055, 0.8353384973602441, -1.8789622537587922, -0.05631793531761108, 0.9336417039033357, 1.47985231602417, -1.2946229249039953, -1.6231995872500389, 1.5610808706799417, -1.4375333621008186, -0.6948368439776503, 1.0872277339645948, -0.3144573814932594, 0.9530519414621144, 0.37953721086608827, -1.8021172247238662, 0.8971135105955873, -0.04037304719075758, -0.47055527309324835, -0.29178892748660107, 1.2204110802755888, -0.2648629965571467, -0.3193854980687277, -0.3692047137607913, 0.3222420594125383, 0.09500915776687133, -0.9388788922014327, 1.1612016274902723, 1.0439932515310986, 0.6540912335303632, -0.31966030016794916, 0.6339035785573736, 1.2937114997601298, -1.8670271285250406, 0.7827606993155876, -1.0664633144979656, 0.528370702048885, 0.21547937902522712, 2.1502519247106164, -0.180127863470565, 0.8915940831373522, 0.8786109218528095, 1.2648041053687176, 0.9748418449536981, 1.1870094590497418, -0.21433631666050648, -0.4328883359782681, 2.3765704750585663, 0.17941278609189906, -1.5079787514683376, 0.14636537799167684, 0.5198803019684891, -1.2412526210679793, 0.387868090325871, 1.537073014034126, -0.6680852255144981, 1.131251027184522, 1.204488687658544, -2.484320318802057, -0.24705686411224556, 0.288179417948469, 1.5583062184870706, -0.9402955868491776, -0.7021107368089229, 0.29274596749652754]","[-1.8540949798793291, -0.2049383851000577, -1.140061114907586, 1.0645026855993678, 0.8786221091047355, 0.6742031967494956, 1.1872780467123534, 1.0623663140825532, -0.7967620313438196, 1.2251715961356169, 0.6865787916460541, 0.393358180417964, -0.31888136956412605, -0.7657409028515593, 0.870835882133317]"
500,"[-0.8600541703022966, 1.639430628905374, 1.656177149141201, -0.4569397267552028, 0.15332906882627131, -1.7574453465361375, -0.3476366077088071, 0.5467248972253878, 0.8487612011772045, 1.7257155327633633, -1.2864683432706139, -0.8827503354328483, -0.8740716527323688, -0.4311361112050783, 1.155296098226978, -1.9289939369657276, 1.0631094085114647, -1.1454876113202392, -0.23626748136427522, 0.5212864608246115, -0.25061170385725506, 1.0066892066075555, -1.1101616923960942, -1.080163194170295, 0.865055192473888, -0.8047528325833425, 0.6043379227462559, 0.9548983740511908, -1.1702806967791979, 0.422413503558175, 1.3525924060232988, -0.0038855863579890107, -1.7473819473437133, -0.6899826453102902, 0.29210585959234286, 1.1223806725101348, -0.7064022424914596, -1.355939873266085, 0.23585415722928055, 0.7712661101187674, 1.3843459096337607, -1.4590402839280363, 1.2511666595888589, 1.2871813768846327, -1.1585463112450889, -0.8512716540765282, -0.9745762044442431, 0.9813092116965764, -0.4496565082844683, -1.0583848068001327, 0.4526759043448911, -0.8971260599618793, 0.5244319944270401, 0.30059378214495247, -0.5665180618598759, 0.9544795544629642, 0.2981052990755576, -0.23529681613190154, 1.4976559212113785, -0.24247895832735336, -0.9777084520043949, -1.334457927266814, -0.08876494120661571, -1.4033473401639156, 0.45155352776577906, -2.4733510520475286, -1.153606130148774, -0.24668652228922025, -0.46389369019940213, 1.4726375596278658, -0.6538889753880831, 0.7253781816333585, -0.8678539087245369, -0.583732224337205, -0.23924441795959384, 0.5919991137113904, -0.6245542007660367, -0.4336394520853108, -0.6751283857741679, -1.2410642362593318, 0.04995612787434247, 1.4702979574187198, 0.591875215185077, -0.14474345706414085, -0.8886463022337965, 0.7346176851908365, -1.182967902159201, 0.8191979021853468, -0.9732738330225402, 0.5006972301024787, -0.0038008817871745164, 0.5344273610027396, 0.31588022897712265, -2.071610014552829, 1.2579688702340162, -1.1453177797819094, -1.6103975926360692, -2.427809784908947, -2.569851420053681, -1.1851611496447223, -0.37988260927780126, -0.583526489177264, -0.641387867188771, 0.6583482266128159, 0.6547791118776847, 0.8374236583575141, -0.7807521922850569, 0.06519877566894995, 0.18018270062571054, 0.5666180773253432, 0.9240033462972952, 2.0316206940737453, 0.514314232265375, 0.2039300989111081, 2.190587645055672, -0.1849994513594591, 0.377815444323764, 0.2274261466049882, 1.4434970484048275, 0.560085745956301, -0.23482473101465703, -0.5412894783604969, -0.5988547565215481, -2.4397867257761163, 1.5287393908683045, -1.312691399151498, 0.16500572824822657, -0.3178110984669423, -3.204264297079419, 1.7197858513716173, 0.061100964773714836, -0.05857927024900492, 1.4461782306639293, -1.3154612530819398, 0.23550025640715494, 0.0007284376769902221, 1.289250633495725, 0.01305136654511732, 0.4757086603592466, -1.7285016675707394, 0.05928101502752269, 0.04669968666562282, 0.7808260516848877, 0.0471364467990876, -0.1409955477522031, 0.45086894731195526, 0.40365359372271864, -0.5862798519667134, -0.002922425659226889, -0.8526319375350447, -0.4961707376512198, -0.7495025254739077, 1.3224818188163618, 0.1706807698578616, -0.061488775759243025, 1.3776828668389367, 0.9498330162595878, 0.7817311320769033, 1.763124207469458, -1.7913249830645122, -1.068304037004393, -1.2450320463015832, 1.2256734395735331, -1.3730458884738221, 0.9403562010516097, -1.2930338410774658, 0.6777856831840313, -1.0488018133028938, 1.9338693323871887, -0.3312014440086321, 1.255064409636174, -1.809675801091916, -1.188321124516417, -0.2861820496546251, 0.8785236510603515, -0.45231370122703934, 0.44849275113197284, -0.051149834064813035, -1.7663002397833, 0.09697337237300568, -0.11772883952235705, 0.22871413034504268, -1.3384143776753175, -1.2104050013800967, 0.3713609828067767, 0.23283438867686365, -0.2349074629441692, -0.539604437557918, -1.171582055610337, -0.9201951500566383, 0.933635848306068, -0.3717492256379153, -0.14686502278891006, 0.3021205337670999, -1.1502195801514705, 0.9505543016745538, -0.9338728129462411, 0.42980182785162185, -0.530730855312302, 0.20750266243677504, 0.2101294147478418, 1.0910179618212805, -1.7641807816907635, -0.5019601444628323, -1.2315529178281592, -0.5596445124605534, 0.8188407196887517, -0.18778070470365327, -0.8256728959837208, -0.18494332060132818, 0.10072273559973602, -0.5598578383037236, -0.4656985747535976, 0.7487805527936859, 0.339834807981305, 0.2728251451745766, -0.340533148548921, -1.1930823831959132, -0.5699772612931369, 0.22624560237437727, -0.007789027969853556, 1.475946687313033, 1.3087549820952251, -0.06957014444481648, -1.2193007842286254, -0.8536539804078125, -0.9707633655748695, 2.012802061600533, 0.8139332027521314, -0.992014216992488, -0.02018131143492331, -0.12937991689833728, 0.09778726548575353, -0.003087644215551726, 1.799363030350778, 2.0267309249787493, 0.5343783482024199, -0.34596391764427786, 0.382620985436352, -2.204004270176681, 0.21280132213387334, -1.3224628624663073, 0.7082852727288795, -0.7067548021598273, 2.6606644265085744, 0.33689144599871185, 0.7773181335016112, -0.18341834872538937, 0.7048457511269903, -0.12561757737345486, -0.3457366887028276, 1.5714520170141928, 1.3261926203607428, 1.012355890658732, -0.4704950636297992, -1.0894952204864012, -0.6830184319787294, 1.0471309785539986, 1.1818803492895191, -0.5391400509711785, 0.44436269617174634, 0.417010648720426, -0.2402111173206481, 0.3220693108633005, 0.7580286001904947, -0.3311453391488735, -0.8919310930138293, 0.33710856142166873, 1.0210672364292204, -1.6556232202152614, -0.4551941779940466, -0.5369166243812108, -0.23734910791989036, 1.154365903301356, -0.8854127859423572, -0.04396129356363732, -0.9178851992061725, 2.3734545267675617, -0.0935638918862563, 0.39286983693270366, -1.5356015205046285, 0.7713739619690773, -0.9717955189227886, 1.1520163240881727, -0.7593922100509065, 0.1140662001487744, -0.03441084815105991, 0.3898277503047319, -2.0232691995174914, 1.1473074089917552, -0.1969309577430387, 0.7011837550037548, 1.8815914824224587, 0.39317405831968066, 1.553123183164995, -1.5053958258982114, 0.8809498530755709, -0.08484570729008231, 1.2482536062831944, 0.4053130973212931, -0.3832394130965335, -0.05649508012270132, 0.23050976453134667, 0.9726001635197734, 1.0972510427645246, 0.18283164665777957, 0.13530984991231418, -0.07959896460759314, -0.6366807578183725, 0.6658456193566767, -2.0093821142278756, -0.6287440716883228, 0.6780086000628006, -1.856246707056891, -0.5185578308608437, 1.3518161963945166, 0.44144412766556984, 0.9819611346623851, -1.8228747993418226, -2.0987166331100453, -0.8283747305732058, 0.9421933576328317, 0.1783637208695636, 0.11596570679537409, -0.926014515698976, 1.022548766991959, 0.174017647719835, -0.7229876946252993, -2.1422678496732406, 0.5640560272669668, -0.20846136114828268, -0.48500932792600593, 2.930679184870366, -1.456071914152046, 0.6358336264357496, 0.33047437306650373, -1.6509745918040035, -0.8836556576180777, -1.6488508360935488, 1.6300813382251997, -1.3055604316003908, 0.10281669697229069, 0.09281702711595696, -1.4763248399000015, -1.2981789276964657, 0.06328958192621557, 0.29002163944483217, 0.5160339274330801, 1.0833155819815012, -1.117259690511558, 2.4492226058337394, -0.035255982719424775, 0.6193398625752857, -0.7488694175923254, 1.2310287753867808, 0.456868988564296, 0.2840696023011113, -0.9608517114055984, 0.8754779108388532, 1.5485393229570277, -0.36300982849075114, -0.4720918513870664, -0.08219555350907279, 0.7924204702882621, 1.501939365779921, -1.7359772319574738, 0.6682035351947613, -0.9854645782254986, -0.642055820394104, 0.36778414976167806, -0.19085662074848844, -1.1509106238771227, -1.1698715884057707, -0.6078397710312424, -1.6196413540594037, 0.6518140565057452, -1.6655849176293092, 0.8400261091519033, -0.4328636115722483, 0.6331475153349482, -0.3772659220266323, -1.892610334313674, 0.03942162633719262, 1.2816640262061325, -0.6408544933158385, -1.6216223582615055, 0.8353384973602441, -1.8789622537587922, -0.05631793531761108, 0.9336417039033357, 1.2906570910211037, -1.034362180165371, -1.0256395190398369, 1.0745750173545523, -2.198361271376621, -1.7216809929336656, 0.5616298962009831, -0.8136511390542799, -1.4309714341467539, 0.19462366732529235, 0.4877466955889284, 0.2977725260408643, -0.04388803322332806, -0.41525574079080735, -2.095469128912595, 1.2204110802755888, -0.2648629965571467, -0.3193854980687277, -0.3692047137607913, 0.3222420594125383, 0.09500915776687133, -0.9388788922014327, 1.1612016274902723, 1.0439932515310986, 0.6540912335303632, -0.31966030016794916, 0.6339035785573736, 1.2937114997601298, -1.8670271285250406, 0.7827606993155876, -0.42457015467188935, -0.16256782148523247, -0.05577017006720031, 1.2005771375360517, 1.9000507575362136, 0.4876443557436244, -0.004479348045577665, 0.3365120637759397, 0.4796424426565408, 0.8649337438952521, -0.6542817796753054, -0.6144046433951006, 2.282997208893533, -1.4187651607717517, -0.44076241258971705, 0.14636537799167684, 0.5198803019684891, -1.2412526210679793, 0.387868090325871, 1.537073014034126, -0.6680852255144981, 1.131251027184522, 1.204488687658544, -2.484320318802057, -0.24705686411224556, 0.288179417948469, 1.5583062184870706, -0.9402955868491776, -0.7021107368089229, 0.29274596749652754]","[-0.8178610315930824, -1.116780830689564, -0.7799097223321921, -0.35454438724836795, 1.7862269523308225, 0.2844878643746785, 0.8968792164368886, 2.098208097474367, -0.43601173567836093, 1.1824963658145924, 0.5494545179082647, -0.37907481415576816, -0.9732999838817199, -0.2819577952755473, 0.5010859784565395]"
500,"[-0.1727875466420431, 1.4585643561098827, 1.5776687898082187, -0.20534652942895112, 0.8922961636969403, -0.7748717669355735, 0.2561971626748996, -0.15610093995434254, 0.7414192444997979, 1.667785877541672, -1.7550878880433716, -1.4276420878204992, 0.1534662235870317, -0.8931744073077487, -0.42683930684449056, -1.9289939369657276, 1.0631094085114647, -1.1454876113202392, -0.23626748136427522, 0.5212864608246115, -0.25061170385725506, 1.0066892066075555, -1.1101616923960942, -1.080163194170295, 0.865055192473888, -0.8047528325833425, 0.6043379227462559, 0.9548983740511908, -1.1702806967791979, 0.422413503558175, 0.14042007329359593, 1.0048172124574741, -1.9795751542927624, 0.013087761219725783, -0.1748287270597063, 0.29011008170905955, -0.8970802356346702, -1.9320960699188, -0.05504594916898625, 0.894693725206884, 0.6508446910476444, -1.8573172881390796, 0.2708572596759363, 1.896415349361435, -1.6680506048951627, -0.8512716540765282, -0.9745762044442431, 0.9813092116965764, -0.4496565082844683, -1.0583848068001327, 0.4526759043448911, -0.8971260599618793, 0.5244319944270401, 0.30059378214495247, -0.5665180618598759, 0.9544795544629642, 0.2981052990755576, -0.23529681613190154, 1.4976559212113785, -0.24247895832735336, -0.8976074745954046, -0.6893171667413039, 0.9092007953582742, -0.8537132024484996, 0.4133912882745301, -2.8058560281731633, -0.8164648795558401, 0.4504450172555471, 0.5034375987587153, 0.6333734843823711, 0.24281935515724684, -0.9146832252490817, -1.3565201516501733, -0.6744553215142052, -1.5647524361083207, 0.5919991137113904, -0.6245542007660367, -0.4336394520853108, -0.6751283857741679, -1.2410642362593318, 0.04995612787434247, 1.4702979574187198, 0.591875215185077, -0.14474345706414085, -0.8886463022337965, 0.7346176851908365, -1.182967902159201, 0.8191979021853468, -0.9732738330225402, 0.5006972301024787, 1.0195776529606995, 0.16306367980482395, 0.14858858740397232, -0.45706498458944267, 1.0169228034574584, -0.43131141661453726, -0.7900954702193911, -0.9430969572464583, -3.7399813102368933, -0.74312010842875, -1.7910550206929263, -2.3295959469863776, -1.771809016513219, 0.4002839717815992, 0.37225404288443786, 0.8374236583575141, -0.7807521922850569, 0.06519877566894995, 0.18018270062571054, 0.5666180773253432, 0.9240033462972952, 2.0316206940737453, 0.514314232265375, 0.2039300989111081, 2.190587645055672, -0.1849994513594591, 0.377815444323764, 0.2274261466049882, 1.4434970484048275, 0.560085745956301, -0.4710513970472918, -0.9592163230777209, -1.1132047795190563, -2.441767950328405, 0.7582656725126856, -1.4187385141937239, 0.3277214121634171, -0.09735821680605475, -3.0359426394586917, 0.42025073722180845, -0.05178441349884177, 0.49770781923482665, 1.375895370807289, -1.6274007963627375, 0.6697202328715204, 0.0007284376769902221, 1.289250633495725, 0.01305136654511732, 0.4757086603592466, -1.7285016675707394, 0.05928101502752269, 0.04669968666562282, 0.7808260516848877, 0.0471364467990876, -0.1409955477522031, 0.45086894731195526, 0.40365359372271864, -0.5862798519667134, -0.002922425659226889, -0.8526319375350447, -0.024832466125612827, 0.11537217551690883, 0.9553879454176717, -0.27130038823734687, 0.2505491655485544, 2.335710560440575, 1.6342840358327164, 1.9916398081733437, 0.8182255842269368, -1.2583266451042132, -0.9949899361803005, -0.1693777447774613, 0.5776474640711362, -0.47153633294563563, 1.0066278308809977, -1.2930338410774658, 0.6777856831840313, -1.0488018133028938, 1.9338693323871887, -0.3312014440086321, 1.255064409636174, -1.809675801091916, -1.188321124516417, -0.2861820496546251, 0.8785236510603515, -0.45231370122703934, 0.44849275113197284, -0.051149834064813035, -1.7663002397833, 0.09697337237300568, 0.22416984294123987, 0.21371387330941966, -1.3203364859921811, -0.8938130517330579, 0.9764376449539565, 0.8197684393053868, -0.899050449029746, -0.8869869556734463, -1.3010776852230375, 0.2962453874218042, 0.3266710537321645, -0.824361403695389, 0.1945681647033936, 0.6213982033059812, -1.0555723230943452, 0.9505543016745538, -0.9338728129462411, 0.42980182785162185, -0.530730855312302, 0.20750266243677504, 0.2101294147478418, 1.0910179618212805, -1.7641807816907635, -0.5019601444628323, -1.2315529178281592, -0.5596445124605534, 0.8188407196887517, -0.18778070470365327, -0.8256728959837208, -0.18494332060132818, 0.6136632915393366, -0.6578485352813973, 0.034888842107540674, 1.6577062565221117, 1.1031935076717434, -0.9291421598739795, -1.219766767635955, -1.345004113731109, -0.6438981316357076, 0.0909028228936722, 0.08478017153423406, 0.5326336655702293, -0.11114408158263063, -1.1812023174858117, -0.7413734803589598, -0.8536539804078125, -0.9707633655748695, 2.012802061600533, 0.8139332027521314, -0.992014216992488, -0.02018131143492331, -0.12937991689833728, 0.09778726548575353, -0.003087644215551726, 1.799363030350778, 2.0267309249787493, 0.5343783482024199, -0.34596391764427786, 0.382620985436352, -2.204004270176681, -0.03308855499157924, -2.1068227135488806, -0.0216337237050939, -0.5419507307621064, 2.006407316054646, 0.49131194223871844, -0.5584291877621749, 0.06794974167900139, -0.8103450869061389, -1.0096002575492449, 0.057650898635659045, 0.43224698547710066, 0.4387607032379261, 0.1512651740192895, -1.0105123264139617, -1.0894952204864012, -0.6830184319787294, 1.0471309785539986, 1.1818803492895191, -0.5391400509711785, 0.44436269617174634, 0.417010648720426, -0.2402111173206481, 0.3220693108633005, 0.7580286001904947, -0.3311453391488735, -0.8919310930138293, 0.33710856142166873, 1.0210672364292204, -1.6556232202152614, -0.825624759920833, -0.7074653266853285, -0.5040625059602083, 0.343460373270733, -1.423811708080742, -0.918204374353377, -0.25039494976842425, 2.1375552937673197, 0.4261121175181659, 0.9563966476394576, -1.5866755787269498, 0.21154510722048747, -1.1315446699799399, -0.908635516449595, -1.0024572113937364, 0.1140662001487744, -0.03441084815105991, 0.3898277503047319, -2.0232691995174914, 1.1473074089917552, -0.1969309577430387, 0.7011837550037548, 1.8815914824224587, 0.39317405831968066, 1.553123183164995, -1.5053958258982114, 0.8809498530755709, -0.08484570729008231, 1.2482536062831944, 0.4053130973212931, 0.2393645080118705, -0.45315062614981183, 0.12467121400526145, -0.4020216771915928, 0.6746924562013489, 0.7543572219571674, -1.0294812375413895, -0.6854186394142657, -1.535272368941817, 0.4189311484601461, -1.784354447624935, 0.5043107134123974, 0.17556960950645897, -1.5515535247600905, -0.9296611320620684, 1.3518161963945166, 0.44144412766556984, 0.9819611346623851, -1.8228747993418226, -2.0987166331100453, -0.8283747305732058, 0.9421933576328317, 0.1783637208695636, 0.11596570679537409, -0.926014515698976, 1.022548766991959, 0.174017647719835, -0.7229876946252993, -2.1422678496732406, 0.5640560272669668, -0.19506999608697673, -0.3426112841876208, 1.776432965030661, -0.6663364115765599, -0.10834222768322475, 0.1933830769194441, -2.398575954678296, -0.9587392134720651, -1.7861569170848395, 1.2194052820946368, -1.0493197310862827, 0.2739752984694592, 0.7945465485355848, -0.8695048951055954, -0.7608773149040086, 0.06328958192621557, 0.29002163944483217, 0.5160339274330801, 1.0833155819815012, -1.117259690511558, 2.4492226058337394, -0.035255982719424775, 0.6193398625752857, -0.7488694175923254, 1.2310287753867808, 0.456868988564296, 0.2840696023011113, -0.9608517114055984, 0.8754779108388532, 1.5485393229570277, -0.7778380313743916, 0.316843628544455, 0.912673940417622, 0.1838633014342044, 1.9592704505056102, -1.2635713675004085, 0.15141606128758628, -1.001431971523443, -0.8197505406809961, 1.3192198549331255, -0.23819999516329732, -0.011290227659095013, -1.5688009242505114, 0.7978397711187198, -1.5538305732209323, 0.6518140565057452, -1.6655849176293092, 0.8400261091519033, -0.4328636115722483, 0.6331475153349482, -0.3772659220266323, -1.892610334313674, 0.03942162633719262, 1.2816640262061325, -0.6408544933158385, -1.6216223582615055, 0.8353384973602441, -1.8789622537587922, -0.05631793531761108, 0.9336417039033357, 1.2186346577858231, -1.2151153047320964, -0.5755877624249686, 1.4389197445230635, -2.526253661928665, -1.84028921331678, 0.39264893167482, 0.361871686889923, 0.22139121290240849, 0.14537765240895828, -0.7182833107973925, 1.3718592821142086, -0.07998031235735194, -0.9514969109897907, -0.48730517199376, 1.2204110802755888, -0.2648629965571467, -0.3193854980687277, -0.3692047137607913, 0.3222420594125383, 0.09500915776687133, -0.9388788922014327, 1.1612016274902723, 1.0439932515310986, 0.6540912335303632, -0.31966030016794916, 0.6339035785573736, 1.2937114997601298, -1.8670271285250406, 0.7827606993155876, -0.8681100164125722, 1.5989536109157731, -1.6789558413941676, 1.1611392534355702, 1.3391518010492431, 0.5354980313029903, -0.024433090473040132, 0.44493367685130225, -0.1750360503080984, 1.6341421691074578, 1.2212392522227415, -0.6163066377021371, 2.109395940423, -0.4920799144161909, -0.6723798317875773, 0.14636537799167684, 0.5198803019684891, -1.2412526210679793, 0.387868090325871, 1.537073014034126, -0.6680852255144981, 1.131251027184522, 1.204488687658544, -2.484320318802057, -0.24705686411224556, 0.288179417948469, 1.5583062184870706, -0.9402955868491776, -0.7021107368089229, 0.29274596749652754]","[-1.6564984399449663, -0.7456083119143239, -1.2578539552758712, -0.4508747341859213, 1.1078034345694248, 0.4318570370587652, 1.1790625918702444, 1.1599467528741405, -0.7823026585632807, 1.0233397570461515, 0.22701046388785093, -0.7863205385202529, -0.10471854300316631, -0.6776798435211122, 0.5331241216914031]"
500,"[0.12206516117910948, 2.0695745128073004, 1.084286780224903, -0.28671778715732654, 1.39692712503885, 0.06834731237161228, -0.189284646514474, -0.13656165623315664, 0.6079327836651756, 2.329760593984019, -0.9817895596101769, -1.204854137460428, 1.0831461724249882, -0.9963380612790417, -0.6259746557741769, -1.9289939369657276, 1.0631094085114647, -1.1454876113202392, -0.23626748136427522, 0.5212864608246115, -0.25061170385725506, 1.0066892066075555, -1.1101616923960942, -1.080163194170295, 0.865055192473888, -0.8047528325833425, 0.6043379227462559, 0.9548983740511908, -1.1702806967791979, 0.422413503558175, 0.2742020881569604, -0.2954675887043227, -2.6806817919205956, -1.5479633100552872, -1.0456470770548343, 0.5139199327628065, -1.0964164964929728, -0.8140570390894921, -0.10992192594566465, 0.29207496602610933, 0.5408128597517248, -2.224635678322948, 0.9414834236535966, 0.49498870238192816, -1.4617922196090236, -0.8512716540765282, -0.9745762044442431, 0.9813092116965764, -0.4496565082844683, -1.0583848068001327, 0.4526759043448911, -0.8971260599618793, 0.5244319944270401, 0.30059378214495247, -0.5665180618598759, 0.9544795544629642, 0.2981052990755576, -0.23529681613190154, 1.4976559212113785, -0.24247895832735336, 0.45008844044180546, 0.048309141684700456, -0.2448766582454144, 0.17623156314183233, 0.1665476576433116, -2.175885170847403, -1.2027367467814565, 0.5454217619463917, -1.0739957636960982, 2.2004413989679774, -0.24398859480619128, -0.4044044852359785, -1.8211483208431951, 0.9649749179636924, -0.3726098390021746, 0.5919991137113904, -0.6245542007660367, -0.4336394520853108, -0.6751283857741679, -1.2410642362593318, 0.04995612787434247, 1.4702979574187198, 0.591875215185077, -0.14474345706414085, -0.8886463022337965, 0.7346176851908365, -1.182967902159201, 0.8191979021853468, -0.9732738330225402, 0.5006972301024787, 0.02244689983146418, -0.292354491679382, 2.0367763603556956, 0.24056860276353723, 2.490250391431508, 0.3148930569326248, -0.27402957796549904, -1.9682819162759029, -3.299009171697903, -0.19687874188438634, -1.0965912153239519, -0.03325618635074926, 1.1432654103303466, 1.3756857299447471, 0.3829320629678483, 0.8374236583575141, -0.7807521922850569, 0.06519877566894995, 0.18018270062571054, 0.5666180773253432, 0.9240033462972952, 2.0316206940737453, 0.514314232265375, 0.2039300989111081, 2.190587645055672, -0.1849994513594591, 0.377815444323764, 0.2274261466049882, 1.4434970484048275, 0.560085745956301, -0.5054600493912145, -0.11879068529410437, -0.9601489562671239, -2.5809132415322047, 0.5647371131439373, -1.3278093910141613, 0.15476986880831953, -0.41315690446856396, -2.983077165917136, 1.5536288168107435, 1.9256399341551964, -0.9251730328050621, 1.1911289234196898, -1.554153016819916, 0.14038953957401556, 0.0007284376769902221, 1.289250633495725, 0.01305136654511732, 0.4757086603592466, -1.7285016675707394, 0.05928101502752269, 0.04669968666562282, 0.7808260516848877, 0.0471364467990876, -0.1409955477522031, 0.45086894731195526, 0.40365359372271864, -0.5862798519667134, -0.002922425659226889, -0.8526319375350447, -0.77514485035583, -0.26935633124173, 1.5795949960952336, -0.9286648395006978, -0.2091692728050587, 1.7599309576307678, 0.10537066339644138, 0.7450496578986392, 0.04360079273555237, -1.7267150294804245, -1.3425768781636485, 0.5447102119359448, 0.006717277501549109, -2.2612779287993603, 0.3580291970263223, -1.2930338410774658, 0.6777856831840313, -1.0488018133028938, 1.9338693323871887, -0.3312014440086321, 1.255064409636174, -1.809675801091916, -1.188321124516417, -0.2861820496546251, 0.8785236510603515, -0.45231370122703934, 0.44849275113197284, -0.051149834064813035, -1.7663002397833, 0.09697337237300568, -0.5160523514726082, -0.28922756656934867, -1.0805980559050483, -1.558092837263623, -0.5593937687101138, 0.918279034666767, 0.012822139467034135, -0.583050439115071, -1.5758813403506347, -0.9060543068602938, 0.5004779810652934, -1.612295745444563, -0.2569916042351105, 0.1265117111022543, -1.7006053427005403, 0.9505543016745538, -0.9338728129462411, 0.42980182785162185, -0.530730855312302, 0.20750266243677504, 0.2101294147478418, 1.0910179618212805, -1.7641807816907635, -0.5019601444628323, -1.2315529178281592, -0.5596445124605534, 0.8188407196887517, -0.18778070470365327, -0.8256728959837208, -0.18494332060132818, 0.5668100954359174, -0.5450205683789692, -0.5781824897888657, 0.7356632689874005, 1.2169949744308792, 0.11830062969567105, -1.1157800169720673, -0.6915810388773641, 0.22076046614630013, -0.15104548494929837, -0.7722776538669744, 1.1360328593450018, 0.3692707251471139, -1.0694714028216161, -1.2897488460669702, -0.8536539804078125, -0.9707633655748695, 2.012802061600533, 0.8139332027521314, -0.992014216992488, -0.02018131143492331, -0.12937991689833728, 0.09778726548575353, -0.003087644215551726, 1.799363030350778, 2.0267309249787493, 0.5343783482024199, -0.34596391764427786, 0.382620985436352, -2.204004270176681, 0.5318935441376439, -1.5061739677568409, 0.8273799567878178, -1.1424813565685628, 1.3249817405585802, 1.2741409505143855, -0.32843723063597347, 0.5605841510821005, -0.4569650724419985, -0.6589781394924855, 0.2970589492363283, 0.8693731552325679, 0.6647975135032863, 0.7572862311107345, -0.7978635639388606, -1.0894952204864012, -0.6830184319787294, 1.0471309785539986, 1.1818803492895191, -0.5391400509711785, 0.44436269617174634, 0.417010648720426, -0.2402111173206481, 0.3220693108633005, 0.7580286001904947, -0.3311453391488735, -0.8919310930138293, 0.33710856142166873, 1.0210672364292204, -1.6556232202152614, -1.1434530256870628, -1.1778612509597162, -0.19977882390831672, 0.04011680885456614, -1.1182064456304426, -0.21020005600086963, 0.029568497306697895, 1.8417209571724478, 0.342324501347861, 0.6321406162075764, -1.3313288358689213, 1.046480408623708, -1.6085489065561105, 0.013831168383158461, -0.6771780569474817, 0.1140662001487744, -0.03441084815105991, 0.3898277503047319, -2.0232691995174914, 1.1473074089917552, -0.1969309577430387, 0.7011837550037548, 1.8815914824224587, 0.39317405831968066, 1.553123183164995, -1.5053958258982114, 0.8809498530755709, -0.08484570729008231, 1.2482536062831944, 0.4053130973212931, 0.036278254260518415, -0.46472188318020635, 0.35115734121246955, -0.006571865242995648, 0.1676228813652703, 1.0124833323306237, -1.183068944533207, -0.6466317304278385, -1.1103168251425253, 0.4110838578444773, -1.7080437115209417, 0.18813970308747047, 0.07027886998800169, -1.7571460104298249, -0.9741833767689531, 1.3518161963945166, 0.44144412766556984, 0.9819611346623851, -1.8228747993418226, -2.0987166331100453, -0.8283747305732058, 0.9421933576328317, 0.1783637208695636, 0.11596570679537409, -0.926014515698976, 1.022548766991959, 0.174017647719835, -0.7229876946252993, -2.1422678496732406, 0.5640560272669668, -0.9642047038003879, 0.4319873990265603, 1.6843482290299792, -2.197494637680998, 0.018299879701095347, 0.2464551245096012, -1.699662843209704, -0.6238616699334081, -0.1507266512157211, 1.6879289639630022, -1.6009236519582668, -0.24795213930434107, -0.6053771358281099, -1.1939254814538243, -1.1895578667484976, 0.06328958192621557, 0.29002163944483217, 0.5160339274330801, 1.0833155819815012, -1.117259690511558, 2.4492226058337394, -0.035255982719424775, 0.6193398625752857, -0.7488694175923254, 1.2310287753867808, 0.456868988564296, 0.2840696023011113, -0.9608517114055984, 0.8754779108388532, 1.5485393229570277, 0.07427672497014406, -0.6628753390072403, -1.4812154353272267, 0.3061478641394675, 1.8138857890224052, -0.4690460835174939, 0.8520421113618154, 0.30323894612080743, -1.1297471137404553, 1.1812570854222342, 0.5024587039445095, -0.8460814814392543, -1.8113098459086814, -0.2807538989461853, -1.3018775488907848, 0.6518140565057452, -1.6655849176293092, 0.8400261091519033, -0.4328636115722483, 0.6331475153349482, -0.3772659220266323, -1.892610334313674, 0.03942162633719262, 1.2816640262061325, -0.6408544933158385, -1.6216223582615055, 0.8353384973602441, -1.8789622537587922, -0.05631793531761108, 0.9336417039033357, 1.0204284040808203, -0.15233933414289286, -0.34016067102612463, 1.6874583701278998, -1.432469200377292, -2.1226937859070945, 0.7218655155697999, -1.2414306289389718, 0.8563889138555586, 0.050707082633971244, -0.30094866931356684, 1.632274838670361, 0.31993286811177735, -0.39472208210994386, -0.2034286710150139, 1.2204110802755888, -0.2648629965571467, -0.3193854980687277, -0.3692047137607913, 0.3222420594125383, 0.09500915776687133, -0.9388788922014327, 1.1612016274902723, 1.0439932515310986, 0.6540912335303632, -0.31966030016794916, 0.6339035785573736, 1.2937114997601298, -1.8670271285250406, 0.7827606993155876, -0.29749250621992623, -0.2521815818197312, -0.6497594396017178, 1.8007953620082207, 0.7640695058875442, 0.9769236908538697, 0.5239958627397389, 0.5700746863617433, -0.6590495481613983, 1.118194922726698, -0.5785659260629377, -0.15755543711469894, 2.717283565058065, -0.06242452538038403, -1.2814407682638747, 0.14636537799167684, 0.5198803019684891, -1.2412526210679793, 0.387868090325871, 1.537073014034126, -0.6680852255144981, 1.131251027184522, 1.204488687658544, -2.484320318802057, -0.24705686411224556, 0.288179417948469, 1.5583062184870706, -0.9402955868491776, -0.7021107368089229, 0.29274596749652754]","[-1.1660470532323675, -0.7176496646405796, -0.7897408591915608, 0.6673845465722305, 1.6118029968872425, -0.16866986496315964, 1.264590911421449, 1.4368463923904273, -0.4211167717590406, 0.2372073458974904, -0.8238015681619988, 0.4315732057542326, -0.6131819476805613, -0.6760088748081349, 0.7675535047246271]"
