epoch,weights,biases
500,"[-1.4283878846573173, 0.19141672710129495, 0.754524870138478, -0.7358489895168194, -0.5608545499392209, -0.4996327641103786, 0.29355365111445386, 0.11187497537225667, 0.09942594278248681, -0.556688182722225, 0.5685135694890551, -0.6301844092613788, -0.1461005631799977, -0.06086418611792435, -0.7987920579929231, 0.06266802301418908, -0.13129670360843407, 0.10210763500985794, 0.21259977773128463, -0.08906092708237758, -0.10818123395499246, 0.40018171963546245, -0.1394391974792485, -0.013383283874132387, 0.051452465191763413, 0.07720898593131209, 0.9098239967718136, 1.0656469111911493, 0.5165014240468848, 0.9430598734924333, 0.23807097428561394, -0.4119000437881678, -0.3104151651614077, 0.6712915295921581, -0.41008856368146324, 0.5157040249415085, 0.7076248783759733, 0.3695818081535117, 0.5464461749136761, 0.30433662663604105, 1.1838008178752861, -0.7975892381529561, 0.5858024155661287, -0.1940122697028839, 0.5499902930246838, 0.800999870475474, 0.1461818017220606, 0.3999830803277196, 0.48782192686124903, 0.11176569485275692, 0.0776638061682949, -0.12649758022224547, 0.22164946678292968, 0.4327610304049668, -0.020582550169549404, 0.33755099924009974, -0.5567756776916182, 1.0404443825012497, -0.1002225622951043, -0.2126885718440741, 0.22709010309180405, -0.29702763091335127, 0.10420568875934934, -0.5504681735811281, 0.3185858605687686, 0.1931004523132531, 0.821453584932488, 0.9666271483883682, 0.2626700947712134, 0.43399960972773294, -0.13337663004876668, -0.046173667752231, 0.4528529895602249, 0.4374302194023399, 0.11273134869160883, 0.05595566075775904, 0.3452306266093608, 0.16676454296123308, 0.0533573592421913, 0.06500278560128106, 0.1368776343802512, 0.15080251971357, 0.008038466479718391, 0.0018137059828743833, 0.87894840490404, 0.11567693895683483, 0.42053691158346973, 0.02147365616986575, 0.04922388214232414, 0.041728010700184545, -0.964366113553896, 0.5542808602073072, 0.3706121358387084, -0.3539359697527359, 0.27547140441092294, 0.2372865179627571, 0.4025944104587873, -0.28259324859425317, 0.10272230036959298, 0.5668374215367745, 0.5205325781486445, -0.12106121404622504, 0.02986330601709961, -0.08031119102167802, -0.04970543497326028, 0.13517550561949776, 0.026519529289840096, 0.09843519064350688, 0.048121559957242536, 0.05539600716612828, 0.27284255445839417, 0.022396080905169105, 0.030665237617463124, 0.11937342542191938, 0.2565173072539992, 0.0003351136292500269, 0.13016830646897865, 0.26318056815811747, 0.3835928269500149, 0.13954736610285695]","[-0.7079676430964659, -1.2252639428399557]"
500,"[-0.2623959283771991, 0.10472607716031565, 0.7223937712805446, -0.021683801698277553, -0.2044923575429538, -0.8683487978738198, 0.30645298871842896, 0.17371748704422454, 0.3468037658079881, -0.20123751113131202, -0.46923271201792366, 0.3412039341985022, 0.3987776876239751, 0.6856576826546518, -0.12188738807115337, 0.060640123782836175, 0.07824532994087133, 0.24976244781213341, 0.5492696949522905, -0.06175934504435357, -0.0937465788490286, 0.06601709830387556, -0.6122406730072895, 0.31055229605495993, -0.10714197993357687, -0.058947310452457595, 0.5501797283508795, -0.22966364123877833, -0.25176192742619824, -0.1468182386312616, 0.9855348674864531, 0.5275718392679504, 1.0247706994514063, -0.4659210598546508, 0.3779575140078233, 0.2291255517068445, 0.14008065181484688, 0.671567518945287, 0.16249584708681228, 0.5746529169970731, 0.2762057705968381, 0.2468652330741313, -0.18624062166995486, -0.21310946322985289, 0.4172168565885007, 1.3344751393420855, 0.9854406775946541, 0.49083263960699614, 0.13782710856776484, 0.14115108321837488, 0.6950120328004442, 1.3999267700949765, 0.0915267180111097, 0.08851160346614352, 0.17728104555297394, 0.4351151517408013, -0.3855871075735119, -0.2514521926250819, 0.3799099123079298, 0.7070389085289224, 0.4801237696238647, 0.013826804014140576, 0.20519274072790775, -0.24409728212212733, -0.06517333992830805, 0.5642967843232557, 0.8552767273928373, 0.8733532522894963, 0.4377389208704685, 0.3260526578481039, 0.6030920470545208, 0.2703155961910954, 0.7774456837543533, 0.49023825410389543, -0.2815637878666094, 0.05595566031075316, 0.34523062692558726, 0.16676454215969524, 0.0533573595689386, 0.0650027857458334, 0.13687763439837286, 0.1508025200288277, 0.008038466111504963, 0.0018137060636515244, 0.8789484051212336, 0.11567693881090926, 0.4205369117096945, 0.021473656789398984, 0.049223882670525146, 0.04172801086582502, 0.37806196581779633, 0.7012712080845225, -0.41554686677495584, 0.15347617361044116, -0.5312750196359345, -0.2824015075282392, 1.2213010149772903, 0.36864079619705326, 1.058085031224596, 0.38044425176642377, 0.2397376424686126, 0.20622153691349862, -0.2545499844468667, 0.7707674246270165, -0.6767957594324936, 0.13517550548324928, 0.02651952939515228, 0.09843519086202329, 0.04812155953149844, 0.05539600680885525, 0.2728425530273138, 0.022396081104777994, 0.030665238348919547, 0.11937342580132732, 0.2565173079187102, 0.00033511349145289574, 0.1301683063568967, 0.26318056804391726, 0.3835928288448106, 0.13954736577084464]","[-0.6793440384293703, -1.010516396113264]"
500,"[0.4005683080204349, 0.20993527987549307, 1.263256877252315, 0.3152080058831827, 0.8598348948226672, -0.8359277512828124, -0.044865406975129654, 0.6329446701665643, 0.8503162500794799, 0.7133397838540873, -0.13796071902370188, 0.5536287309870999, 0.43515348769439877, -0.40377370952893615, -0.2644114536150048, -0.47967229394558875, 0.08789339884432634, -0.9367084596043798, 0.8573757598857719, 0.05625608650962028, 0.33693665059845307, 0.9773192991644887, 0.8298045366534704, 0.15704547096046229, -0.13656868815897882, 0.7634541975664959, 0.996146109865649, 0.4654139743039404, -0.315055215747966, 0.9088203834377805, 0.310446924842806, 0.657573318785015, -0.4827650367942591, -0.5596957609878851, -0.6543929384081217, 0.04521131942088635, 0.3776910922077709, -0.13262179452640996, 1.1306456651783787, 0.8951251833642948, -0.46621509086984764, 0.3205566608573561, 0.2208263119872671, 0.3483477388772793, 0.49131688281190705, -0.5683449187392441, 0.11210954769614599, 0.55740256581415, -0.46614230438516585, 0.5582039581701093, 0.49716006287586295, 0.20479243050562196, 0.5952174703752248, -0.10878902808470077, 0.27776272311523875, 0.3373793562724647, 1.1989598653854268, 0.9770501240252375, -0.11332839406606832, -0.31244998889225906, 0.16713940572026004, -0.22129306067700455, -0.3559922326212688, -0.4532680766236395, 0.2554937319025581, 0.16910832526283817, -0.3539696036520627, 0.5149574030145954, 0.1937002132687479, -0.3904991477332482, 0.518542150738608, -0.030786621948899678, 0.9634739610978063, 0.5735442001538511, 0.4791647173654775, 0.05595566056337799, 0.3452306273381064, 0.16676454263848378, 0.053357359534398505, 0.06500278576290362, 0.13687763416520077, 0.15080251952449025, 0.008038466097079837, 0.001813706231800717, 0.8789484041934378, 0.11567693870161389, 0.42053691159322903, 0.021473656209228597, 0.04922388206702625, 0.04172801075122987, -0.32442552470970926, -0.8021351620010531, 0.9751554517935722, -0.4702431190111616, 0.5518807549113662, 0.6865798452438704, 0.7276942507228309, 0.41575044869805583, 0.1291768638618456, -0.6221871956446601, 1.4562587532444873, -0.26963920895270266, 0.50950642362972, 0.9953073978459024, -0.04102578254487835, 0.1351755053920555, 0.026519530035166796, 0.09843519070671378, 0.048121560202003616, 0.05539600757410881, 0.27284255392461676, 0.022396080864751432, 0.030665238622746015, 0.11937342614760366, 0.25651730719069393, 0.00033511343435602104, 0.13016830632253434, 0.2631805674538459, 0.3835928274563381, 0.13954736632031234]","[-0.7870430326826041, 1.1268365115500103]"
500,"[0.6609041463808131, 0.2647225155607292, 0.22319072267095705, -0.16658902519513538, 0.7211393475985348, 0.12113522355232563, 0.2479971367939798, 0.28963679426056255, 0.18229965799391168, -0.014768585044150932, 0.09835327761645637, -0.06337576893978114, -0.01116756297895542, 0.14283783568290662, -0.24204847944264027, -0.0889932899366387, 1.6612771410692524, 1.4317855576799141, 0.6520558996607831, 0.4277754260364105, -0.5847617138199915, 0.6537072317031944, 0.4318257707482328, 0.17573106980238085, -0.3688961567061332, 0.35896346910489585, 0.5100246020758497, 1.0115167063972859, 0.2392701198400675, -0.2907624570745202, 0.8433978758596716, 0.2087429511628763, -0.7110381505699348, -0.8433732495466876, -0.09419724665862021, 0.7060306444988614, 0.8448836709407459, 1.3448390476509116, -0.8180092123957027, 0.056389282982876016, 0.29503250937432235, 0.04264058396143615, -0.496845207599866, -0.6850308756654439, 0.49618890116882075, 0.4337806451468034, 0.5117657108899643, -0.08027546251861202, -0.2980004825842175, 0.2298807479795812, -0.1520569263250208, 0.028438098882290992, -0.5307803814336176, 0.8162981876170747, 0.6405471816886206, 0.07032641341983553, 0.1971061364333946, 0.07221747613649133, -0.10079431900195697, 0.47422347432652967, 0.42752572146269363, 0.27668651115625087, 0.09176415153372217, 0.011676257142720444, -0.04649356622366648, 1.0832794532731855, 0.7359685576636018, 0.5776121318543955, 0.5435821406077407, 0.3571393418667448, -0.05604499920878599, 0.17739336833199518, 0.6631434284784106, -0.22909993616085597, 0.04925720173211975, 0.0559556603812123, 0.3452306269387668, 0.16676454257133352, 0.05335735937286466, 0.065002785541717, 0.13687763386000792, 0.15080251957234406, 0.008038466415103718, 0.0018137062490027197, 0.8789484037894532, 0.11567693866816851, 0.42053691171158886, 0.02147365672501189, 0.04922388238152321, 0.04172801068162308, -0.27260003319343, -0.3670410645404036, 0.5799075139064026, 0.24072391763437612, 0.6585476008415367, -0.02491788615713754, 0.634022120639143, 1.2522257109454362, -0.19422585182217628, 0.7328823120133502, 0.9965867531424254, 0.12946995363808286, 0.015771459871469752, 0.2954991650334968, -0.37200359466625854, 0.13517550518103652, 0.026519528873148207, 0.09843519079348938, 0.04812155926672857, 0.05539600712219606, 0.27284255396346485, 0.022396081047208867, 0.030665238729774943, 0.11937342617772446, 0.25651730725684163, 0.0003351145926766221, 0.13016830694835343, 0.2631805679831759, 0.3835928277943257, 0.13954736601047554]","[-0.6524456176467003, 1.1009108796068752]"
500,"[-0.940569664956065, -0.29447265566472497, 0.7403558364030959, -0.7468465827604116, -0.5399920255273211, -0.8320234967040523, 0.5573235775295257, 0.5769952214228694, -0.6851982920780846, -0.031053751829307134, 0.30799371752507826, 0.8988850672220743, 0.44502683767836204, -0.41320044711226234, -0.1372596043652953, 0.1999352883527212, 0.21613832900489685, 0.30320086025300513, 0.2958082035754952, -0.4228062201280834, -0.043668609728306974, 0.6710900655063082, -0.5144723908654918, 0.526241925956051, 0.34229769945873695, 1.1104072921103192, 0.433800107918515, 0.46143200329796574, 0.16255490278026208, 0.6741608560202479, -0.604329563153995, -0.07291541423518838, -0.28762455707775336, 0.3137486064218148, 0.5125139984534679, 0.35818509535467075, 0.3911967248403747, 0.1638565900977971, 0.4086096472794534, 0.9489849193517463, 1.0289324929628596, 0.3204007686914603, -0.4900227876688733, -0.28786510857992814, 0.4772359642519486, 1.1546350126438178, 0.2933223233907704, 0.43363362801313005, -0.01869032050718336, 0.6242141915058455, -0.2725822079297869, -0.17331137363170734, 0.5969310620608725, -0.4008504460957762, 0.4097799093452155, 0.33910987688131977, 0.5735226472636759, 0.3827440129101012, 0.033586016818652635, -0.23937652809417206, 0.4149007302696081, -0.23386373974080654, 0.17435148258646463, 0.6156551587880673, -0.14603489380725962, 0.532062528227995, 0.2178982687131835, 0.8238843929194141, 0.3423222575139778, -0.02388240046206814, 0.5036140015455461, -0.22229881534338725, 0.7256044632867343, 0.429470514824535, 0.30863285995979556, 0.05595566033626076, 0.3452306265813865, 0.16676454269430194, 0.05335735975315095, 0.06500278634486216, 0.1368776342752324, 0.15080251935241262, 0.008038466200050462, 0.0018137058432299005, 0.8789484041066272, 0.11567693855720737, 0.4205369116962478, 0.021473656828116496, 0.049223882342420304, 0.04172801020779251, 0.14300497779341045, 0.43557329849216664, 0.11623560302491355, 0.2552542942226684, 0.2507655002406048, -0.1116769066264803, 0.11092787572487758, 0.3499306960987788, -0.4624588598323893, 0.3158446142262525, 0.4621345753245371, -0.20052175737961286, -0.33762021428231526, 0.32716539168147013, -0.5242043249722167, 0.13517550570293582, 0.02651952920793087, 0.09843519110078194, 0.048121559477554664, 0.055396006805128434, 0.2728425529993704, 0.022396081144183965, 0.030665236320348756, 0.11937342459913756, 0.25651730678989454, 0.00033511283893894965, 0.13016830712912955, 0.26318056834360604, 0.3835928271847442, 0.13954736605198803]","[-0.8181478451586002, -1.125083714686113]"
500,"[0.625738199880027, 0.5791988474132622, 0.6789007303314476, -0.3928123679454079, -0.40302992183825304, -0.33362210001508824, -0.0034810557908269103, 0.3273656542792588, -0.29340169966755786, -0.376279268614629, 0.4310485658421162, 0.3099935675569266, 0.541606498124103, -0.38894750331281397, 0.19789194548060815, -0.10410693887220679, 0.13262029172789414, 0.374280491822435, 0.10301632288868193, 0.2640510238600914, 1.161942473343136, -0.056642461875345454, -0.00038589326506718874, 0.5535778757077147, -0.6157503921275711, -0.08169540207086125, 0.23645139167035517, -0.7496026468147508, -0.2943819071295104, 0.13059495722071754, 0.5177413358694104, 0.5542243277902719, -0.08594058948682334, -0.506783380165403, 0.6059994889300168, 0.3141465771447843, 0.15835435205009607, 0.23560855768544633, 0.7525901330013168, 0.4343845568440757, 0.2949597027221835, 0.420925139575104, -0.22035545500628925, -0.1260855606274518, 0.34329750592540653, 0.20913863026191298, 0.5553605476140384, 0.8181119508320068, -1.056527538450624, 1.00539910308588, 0.5125382799442061, 0.39445020237038647, -0.22762657252030521, 1.2017180682751498, 0.694988970845136, 1.0751077220451277, -0.07142674316560779, -0.15228109071908685, -0.4714718334021225, 0.2590238585057395, -0.0542451781322143, -0.4273788970546789, 0.2051326985457303, -0.44645474471307167, -0.2099691168555451, 0.6249794369152974, -0.008974275840827184, 0.7841439178447523, 0.7836056368789377, 0.07043326630274227, 0.6347896255521058, 0.03872507027311048, 0.5372080755880939, 0.06685915438895869, -0.4917119019157435, 0.055955660363915846, 0.3452306261903732, 0.16676454266869473, 0.05335735920568584, 0.06500278644479468, 0.13687763422226987, 0.15080251931731514, 0.008038465916627158, 0.0018137058106174834, 0.8789484037846869, 0.11567693840881697, 0.4205369116140793, 0.02147365710407481, 0.0492238820011477, 0.04172801039510107, -0.22271861082159014, -0.0878669376687895, 0.08134077443347364, 0.211141092019377, 0.6029647218269923, 0.5384232563704864, 0.8365463366849114, -0.5262037683809777, -0.21362142731951983, 0.42081124526606645, 0.75229720102146, 0.29729929787410636, -0.4542256858930289, 0.4468670203144393, -0.08439768210650005, 0.13517550565055605, 0.026519528957356833, 0.0984351904410789, 0.04812155980538606, 0.05539600669871915, 0.27284255277214253, 0.022396080994041292, 0.030665236950593144, 0.11937342466540696, 0.2565173077513964, 0.0003351127439886942, 0.13016830595442236, 0.263180568151456, 0.38359282715678933, 0.13954736612054613]","[-0.6384442893441532, -1.1385752682086367]"
500,"[0.2304001253737904, 0.23699983251840848, 0.8457562281205441, 0.3507032288698625, 0.4159898480500581, -0.4514712664664453, 0.46149675519016936, 0.32881566342416235, -0.17082983059183357, 0.12333540933064494, -0.008303767941120511, 0.7586601024497622, 0.192899902253726, -0.5075047572666793, -0.037099289335185574, 0.3414284933367814, 1.3242174894112713, 0.5632814737975955, 0.42261816365226157, -0.040284143986156096, -0.36581286425874915, 0.7919138959891766, 0.8918132953625334, 0.9478936163632045, -0.570393033362289, 0.6686591158520293, 0.04128765504846932, -0.14872337556632753, 0.016160446662023976, 0.0742848170073481, 0.6738704910525993, 0.018856880380818706, -0.19230862061946633, -0.5822054044732188, -0.06297573004082742, 0.5275936291566539, 0.21258484728918406, 1.146224708122734, 0.2843122869732051, -0.08496385651344952, 0.2846172976398593, 0.1292857913162593, -0.5870333706048044, 0.07010230099304048, -0.12102769333745095, 0.19495010490079834, 0.31935430100677326, -0.05915594172675168, -0.0012211590383857576, 0.803947258653893, 0.20137832625451038, -0.06972868813692751, -0.228370637476543, 0.28937776045901137, 0.5177498130853082, -0.03018632107786156, 0.5724194808671086, 0.239587083586282, 0.014498748965106714, 0.4093773672854637, 0.6787256245924769, -0.13572082529198906, 0.24841516355654567, 0.42609206528686927, 0.027741790840339686, 0.7846088930371833, 0.21437786406663212, 0.25750167376268246, 0.20161357789645343, 0.12428594251868381, 0.25166144148471137, 0.3044013203399682, 0.5434505714458167, -0.20085244634645102, -0.2148576387689171, 0.055955660388496184, 0.3452306269147992, 0.16676454270571964, 0.05335735932412357, 0.06500278582182309, 0.13687763434821373, 0.15080252034988811, 0.008038466235412156, 0.0018137060523823081, 0.8789484044200958, 0.11567693866652644, 0.42053691169284874, 0.021473657341669113, 0.04922388231512296, 0.04172801049405788, 0.17574741990124418, -0.056915968259706504, 0.7670031902607145, 0.26388653770926596, 0.5610945092345685, 0.03151739680518146, 0.567124747503819, 1.1594199328272605, -0.6797501773997789, 0.24216137290226805, 0.9250228484348216, 0.39970476316555376, 0.028164288111204163, -0.5544482564548137, 0.4112936788624627, 0.13517550539483908, 0.026519529691528633, 0.09843519040932244, 0.04812155963886861, 0.055396007076958145, 0.2728425543114274, 0.022396081126332932, 0.03066523812941659, 0.11937342664375479, 0.25651730709747816, 0.0003351132633368494, 0.1301683062025225, 0.2631805672176204, 0.3835928271812468, 0.13954736590248268]","[-0.5780426615937593, 1.0721144133704492]"
500,"[-1.133747580749843, -0.30427861925158317, 0.18850307774235303, -0.7557317535584311, -0.036791061310820286, -0.1598222901041021, -0.13468451131791176, 0.5811098082144189, -0.056663806321134394, -0.02759158661349489, 0.2721479117213931, 0.1081378327477856, 0.036501111396303236, 0.014103433921768417, 0.2911311137160703, 0.11957322328620265, -0.31066257681091414, 0.4038140307620136, 0.5543940495928646, -0.3680112381677458, 0.329711101230572, 0.8695569242776353, 0.5396123895635172, 0.6603964871202095, 0.5761620374449339, 0.539068140694934, 0.9042937369206773, -0.24849906723888768, 0.21617138105529335, 1.012756469154718, -0.007308011080435128, 0.03299294873360815, -0.36820823610388675, -0.7749530339266093, -0.014055143609493753, 0.6760219482373294, 0.75887209403856, -0.17509739927190957, -0.030350215650875135, 0.7665599795071233, 1.041181322330124, -0.09124051795739921, -0.7200195779909313, -0.4960973916989509, 0.9673177581264664, -0.3868435942568036, 0.18935867095465023, 0.25800307605430345, -0.021240268063678746, -0.09607043308823002, -0.0850865571943071, 0.08357429687601324, -0.08064648217223669, 0.4798632395209045, 0.14314205777583186, 0.340593197745242, 1.032581753146171, 0.009652437154666202, -0.22810106560694082, -0.07573751096486234, -0.25803541433210136, -0.197853574674712, 0.11045487883650865, -0.3866456799691454, 0.05516091675753688, 0.6916921329500085, 0.09202493263563592, 0.9585199216193604, 0.2454714460397128, 0.007310556180421117, 0.8614522773864529, 0.11945865119977254, 0.7677457319185615, 0.49803858762249276, 0.546525910014841, 0.055955659899083514, 0.34523062710494656, 0.1667645431598773, 0.05335735936874293, 0.0650027857829374, 0.13687763375848078, 0.15080251996134492, 0.00803846646407068, 0.001813705747209765, 0.8789484040776239, 0.11567693848068397, 0.4205369119487925, 0.021473656682955016, 0.04922388241198746, 0.04172801080203224, -0.15198230055874748, 0.40527646135866807, -0.20445471807210305, 0.5239393394557295, 0.39425864711311526, 0.014190512190309902, 0.5611805786278452, -0.3096210821346158, 0.19004292342128773, 0.2452305764434421, 0.8692690154612096, 0.19921895690736172, -0.2105618603310166, 0.3489623442829081, 0.36090857166866747, 0.13517550529537375, 0.026519529625726547, 0.098435190608063, 0.048121560082942993, 0.05539600745702693, 0.2728425542504502, 0.022396079934969945, 0.03066523826984012, 0.1193734260729207, 0.25651730750350543, 0.0003351126651821035, 0.13016830665091442, 0.2631805679500196, 0.38359282690955254, 0.1395473658833881]","[-0.6463921733971287, -1.0899696605117226]"
500,"[-0.7633812786891409, -0.3532586584073936, 0.400207344378561, -1.1738763368838405, -1.0815630490401806, -0.6945542966492955, -0.29247238701545536, 0.025297295324939347, 0.32230268810142026, -0.7485237419786575, -0.3835261616525692, 0.47417897449183344, 0.28421745621360395, -0.30922981745812295, -0.6819295750872301, 0.5034193924063808, 0.5500663561702258, 0.8758239745198261, 0.5078470492280204, 0.10520083672145841, -0.3742163287682091, 0.13164632806553286, 0.14523890486946614, -0.22595341768280705, -0.25513633197513824, 0.14676033323649704, 0.673607065622612, -0.09227100556808664, 0.21407374705450305, -0.029562125241109283, 0.9107808102526679, -0.25067070339161446, -0.34743011226440496, -0.589138448716107, 0.34617765492518426, 0.04897516760152363, 0.2999478563615861, 1.0044535796341851, 0.09581677706795266, 0.6530930591410109, 0.4308871374409902, -0.15716360985185115, -0.44915289364283867, -0.05044037377434843, -0.3327426625582758, 1.293351925413443, -0.19469157801614775, 0.8298538839851526, 0.02738168626019779, 0.2782571594706255, 0.48571434581373174, 0.16372193506387708, 0.25615733972045623, 0.6431261372015064, -0.4516631618019023, 0.6115721801348992, -0.21506008647960978, 0.2310013683407217, 0.40317650961698914, 1.4490876712231293, 0.3799315355243534, -0.23266959591554778, 0.10202736643702498, -0.2934894327481666, 0.12226541502760283, 0.4991041718939235, 0.1932176375811801, 0.5419514902870693, 0.5213317232493908, -0.05872780523575208, 0.29232573308082094, 0.22761107435688344, 0.7078879191469557, 0.2992688815667629, 0.4515694461443208, 0.05595566054678675, 0.34523062724889797, 0.16676454305589897, 0.05335735950869111, 0.06500278546096822, 0.13687763364490502, 0.15080251952372786, 0.008038465994064464, 0.0018137061439181532, 0.8789484041499209, 0.11567693822219598, 0.4205369117356256, 0.021473656806323082, 0.049223882183919, 0.04172801023495333, -0.3064463667569248, -0.3905325660131089, 0.3829900501743997, 0.4163615447423208, 0.054257296992737555, 0.33151178362114425, 0.15464098605049048, 0.11437731168674407, -0.03021144604327026, -0.24052610811214115, 0.5436846123890048, -0.17780378671024036, 0.4322763664807172, -0.5196412267568955, 0.043897755990536635, 0.1351755058493611, 0.026519528544985616, 0.0984351909601425, 0.048121559570569475, 0.055396006914325675, 0.2728425543805178, 0.022396080963216998, 0.030665238091989722, 0.11937342654136177, 0.2565173075918257, 0.0003351131056944106, 0.13016830639114207, 0.2631805677393225, 0.3835928269441662, 0.13954736642534116]","[-1.1367365266473097, -1.22469451145007]"
500,"[0.8000046100311711, 0.7835554788975316, 0.35010214195039274, 0.23117627330568613, 0.26666993458530347, 1.0052600586152913, 0.19152108521141065, 0.8657423514216738, -0.0964163403960201, 0.03623255790592407, 0.762528356526977, -0.046220191043894514, 0.16109569122322975, -0.006401970717067624, -0.26352109678362784, 0.0803375020154423, 1.4085953799336783, 1.0737182609398312, 0.9232783193224869, 0.21066382595869804, -0.7907288014579938, 0.8875016841477236, 0.553061291576726, 0.9007846395852361, -0.43674801130261165, 0.3939022984027703, 0.32973336516720125, -0.591176225699817, -0.5778954442135514, 0.29834092414511026, 0.37765079806611407, 0.24491495615849954, -0.3056870231522197, 0.1778608430251943, 0.5532553730495143, 0.6632816205262064, 0.27419712922516515, 0.682470024587602, 0.11736924385106051, 0.5039335545466398, 0.1302726832482676, 0.585701991654819, -0.11333936491483121, -0.11604837009709218, 0.24147453160513466, 1.8519081890966038, 0.5048100334772779, 0.3824795480113078, 0.5032962052352455, -0.8728648881745088, -0.029284724145927293, -0.3962584985233742, 0.07006964545337471, 0.2389423907468115, 0.6124468254463716, 0.23501105654476426, 0.18349795789155326, 0.2136499531379958, 0.6168403022750263, 0.6528870268163909, 0.6094369590577824, 0.19649598117584668, 0.09934030781785957, 0.10291906101450857, 0.1860195275809547, 0.730306023180885, -0.17069808515534085, 0.16121236198277572, 0.4798325834603319, 0.4325130090268405, -0.2794089567700472, 0.3501898372218052, 0.4554710345203191, -0.4019989811374053, 0.3967472055835033, 0.0559556605534989, 0.3452306267683201, 0.1667645427431552, 0.053357359431902784, 0.06500278618436259, 0.13687763401532585, 0.15080251941016676, 0.008038466078792317, 0.0018137059286658518, 0.87894840395069, 0.11567693809281931, 0.42053691153885353, 0.02147365707160868, 0.04922388241602661, 0.041728010560889296, -0.696312705493082, -0.6930762836853469, 1.415758182940321, -0.1737741497165528, -0.04800388813182221, 0.520132435587531, 0.6630472383802644, 0.5507640807010301, 0.051483317751970216, 0.1934424292394006, 1.1095200913122811, 0.15777735547391117, 0.12903638596924355, 0.1258474228624126, 0.003762788409852288, 0.13517550557042177, 0.026519529266121916, 0.0984351913480895, 0.04812155946903263, 0.055396007129948764, 0.2728425542561983, 0.022396080888102528, 0.030665237481070105, 0.11937342564277145, 0.25651730717345406, 0.00033511275309188257, 0.13016830664386872, 0.2631805678982431, 0.38359282647952253, 0.13954736634930268]","[-0.6257243693001808, 1.2656115016891558]"
500,"[-1.487827346373714, -0.5133111830240831, 0.5972029272063459, -0.30432591756692945, -0.18525426613477985, -0.2818618786346039, 0.14787557044524755, 0.37419674818651827, -0.3765575180085814, -0.13122211307801984, -0.29734335353724134, 0.13168454861028414, 0.12600761275341768, 0.4003729459801408, 0.3596315606760545, 0.42787799118779196, -0.16512041457181043, -0.4102411205779145, 0.29646839914769607, -1.1810725965828814, -0.08918431627305616, 1.1251570712212744, 0.31871073827928476, 0.9041393607220906, 0.9572359359508603, 0.6644513029563626, 0.5468699245831407, 0.20829483959500733, -0.20324551951802133, 0.15587260825084567, -0.47279198419044277, 0.08679408514205686, -0.5116098529379264, -0.4278904616498625, 0.384143086210596, 0.49144152786307377, -0.23484810388415098, -0.05387038345921585, 0.8788674450901355, 1.047011842338896, 0.9077478590039971, -0.2076965316538847, -0.13137486453183875, -0.2678257648186418, 1.2449862562368927, 2.1702971874781305, 0.382208885396588, -0.10552200958489207, 0.04441760133720769, -0.37294631667121897, 0.0383846423040819, 0.13732087592669115, -0.08316265390127538, 0.6351705067257635, 0.5206077224630581, -0.1547084113811813, 0.5781848421741516, -0.04041137261579216, 0.08961237340716358, 0.08554163290270225, 0.24904531442368408, -0.06447095409270398, 0.4890288332586323, 0.4868672139891767, -0.2735865466912654, 0.34898652719168927, 0.25744360768665386, 0.505726324094881, 0.4567887064902614, 0.0633928900937867, 0.6649759164506562, -0.17821910503521476, 0.9812847576369317, 0.5958575284238476, 0.17741923859257736, 0.055955659886460916, 0.3452306263930447, 0.16676454259696072, 0.05335735940904702, 0.06500278658773082, 0.1368776342219471, 0.15080251990248522, 0.00803846589699732, 0.0018137059560627436, 0.8789484048766106, 0.11567693894805174, 0.42053691175942065, 0.021473657585043063, 0.04922388201993642, 0.041728010433827796, -0.5311182303722041, 0.13498572059741257, 0.1785413936073229, 0.19407141280056736, 0.5396106998372878, -0.24407217101280698, 0.5228675988312171, 0.5839694214803188, 0.0040481273332521545, -0.27755621395384145, 0.09047476045665544, -0.7178029303405569, -0.23209072063951697, 0.5150975618672209, -0.4900655267416219, 0.13517550538589176, 0.02651952988811745, 0.09843519093310137, 0.04812155970074163, 0.05539600705499922, 0.2728425530260957, 0.022396081011838223, 0.030665237834148137, 0.11937342542066284, 0.256517307357936, 0.00033511310478425544, 0.13016830630226126, 0.2631805677591102, 0.383592827200617, 0.1395473663418871]","[-0.6337594577337867, -1.0515245601998726]"
500,"[-0.45584680627648044, 0.2332131747168443, 0.8688090639615945, -0.4041131306674587, 0.3279360508837451, -0.3241875030278913, 0.08066703910389462, 0.41203561923693544, 0.25375474159981054, -0.09302115014233871, -0.38602991991382646, 0.6131737500208676, -0.7881003515511362, 0.548123525340951, -0.14683283545797318, 0.3539990727779253, -0.1023413991098802, 1.0728794925127405, 0.4168754876013742, 0.48665952095541815, 0.6364161556226895, 0.43493413062653885, 0.16243020616522996, 0.597414211218262, -0.07587780686913567, -0.1729792673094394, 1.6819208695601855, -0.26003967849757403, -0.3444520918947029, -0.05709235583940298, 0.3740806270619794, 0.8211791201001314, -0.37706454214291824, -0.31179177694753957, -0.0017487994552357914, -0.11041005723812455, 1.1316793651394068, 0.31139869857446006, 0.7399875054854577, 0.6959043408825598, 0.4380823225209541, -0.37491561066074813, 0.13489344374700277, 0.19048436749424857, 0.3627730824073806, 0.6219671405820122, -0.44161073407236245, 0.43759555314530363, -0.3240002512168999, 0.07431951987485619, 1.3477457113406248, 0.48599720601145413, -0.5438132323101922, -0.0412964627623216, -0.41841595606873583, 1.602339768830303, 0.140750664179695, -0.3984609373154924, 0.0410487393907492, 0.970492823997366, 0.0014186252273146295, 0.0246520883311254, -0.018565046563474043, -0.9574637239750339, 0.4973387263240461, 0.08913564454925492, 0.05300462350913076, 0.7509444985315764, 0.2527101019807376, 0.09647820064999663, 0.508162687785138, 0.3040869609695661, 0.6397937461296946, 0.7969499686662618, 0.6011186075118111, 0.05595565961953605, 0.34523062713944, 0.16676454259610823, 0.053357359034329574, 0.06500278566738982, 0.13687763407592252, 0.1508025198943945, 0.008038466021945719, 0.0018137061005872228, 0.8789484043245139, 0.11567693870876677, 0.42053691155323747, 0.021473656695198483, 0.04922388223310267, 0.041728010453189475, -0.6595474870584527, 0.716470505775171, 0.736642447431791, -0.18482798090551592, 0.3880607188414669, -0.366487933536666, -0.06328997524302488, 0.7984694652057625, 0.48315306521042534, 0.6280159566957348, 0.5621010061135073, -0.23831099655264612, 0.4288234144503994, 0.3433594189139943, -0.6664034304679656, 0.13517550541237128, 0.026519528603480245, 0.0984351906955515, 0.0481215594038009, 0.05539600683759314, 0.2728425536773504, 0.022396081104486973, 0.03066523768556248, 0.11937342528285791, 0.25651730758906516, 0.00033511336749259576, 0.13016830631081944, 0.2631805680632816, 0.3835928272832766, 0.13954736581795643]","[-0.6964389873049989, -1.324743766132809]"
500,"[0.42296090602727027, 0.2563211015528529, 0.2063092042912944, -0.7251021209953424, 0.42904780766394446, -0.6360420282372212, 0.6772416568465565, 0.6829999544637819, -0.04000229570716929, -0.535393677560555, -0.13712107264123052, 0.3543417944397511, 0.09929310106201153, -0.4231381690403543, -0.31870410320150094, 0.7479894842390548, 0.982768426868907, 0.27804479233791685, 0.2994325892487776, -0.013975421134983752, -0.018660199930547176, 0.5473131963562818, 0.48093718281843045, 1.388165757907195, -0.34766337804306674, -0.14507757699877794, 0.7462733263333446, 0.7944988255305159, -0.6185737547677017, 0.6046483371151269, 0.2713037708242231, -0.049103062231061055, -0.4840256288987635, -0.0472753434475209, -0.36351624174647285, 0.19050657236430973, -0.13824556174342018, 1.249069997450417, -0.05992314918199408, 0.1387067370083217, 0.04992890724728875, 0.6113280802612728, -0.5465998037265076, 0.03235535391279875, 0.25088452907378916, 1.6617724960694817, 0.46456507638503436, 0.07094784746859584, 0.3769584027245924, 0.49345182156794204, 0.5740783995820944, 0.15838118922115982, 0.053859408285860756, -0.21006380065182456, 0.2801427588784942, -0.0015697277886168835, -0.29379668468073994, 0.6230709901420406, 0.20982161850293873, 0.6802743571213272, 0.4126641405331987, 0.15856168480724506, 0.07703460135597674, 0.2467364487631762, 0.3355202989116087, 0.517049773058596, 0.25539273204743385, 0.2542707725010179, 0.420585425796176, 0.05341761980377671, 0.017831049499546156, 0.22488979802325865, 0.3138010173273508, 0.23409047629967006, -0.1301640655706274, 0.055955660434754514, 0.34523062630051865, 0.16676454240097222, 0.05335735925511573, 0.0650027853810773, 0.1368776341673972, 0.15080251969717914, 0.008038466264514382, 0.0018137061276379527, 0.8789484045896234, 0.11567693834946052, 0.42053691176743985, 0.021473657000170388, 0.04922388203978222, 0.04172801075795365, -0.1213334623342166, 0.3079279348274121, 0.28814420208967, 0.6187580322157968, 0.09198797044087124, 0.6619049552871714, 1.0595075595072128, -0.010897819155220896, 0.3618770029408988, 0.45830805965700955, 0.641610213017086, 0.8156942712043654, -0.06693329320819873, 0.4166902211644641, 0.5152438685942105, 0.13517550578142387, 0.026519529219962673, 0.09843519161848188, 0.048121559809598854, 0.055396007394184286, 0.272842553636836, 0.022396081810248075, 0.030665236956345602, 0.11937342483711375, 0.2565173074972378, 0.0003351127622505215, 0.13016830603610438, 0.2631805675883838, 0.383592826976526, 0.1395473662923459]","[-0.7271180087638657, 0.8105792220380709]"
500,"[-0.5462025664507852, 0.5981384164166426, 0.9626440638184288, 0.013685018076477238, 0.3285927581951179, -0.3142932969234762, 0.5946026433958489, 0.2663475711938378, -0.48140509504741036, -0.12020939272139085, -0.14150835500336095, 0.03798322997138393, -0.4485283039525108, -0.21565132555118288, 0.20029271894325473, 0.25324118245318206, 1.1465167463465171, 0.5437998191103045, 0.507438569292241, -0.0011054717920292246, -0.06628326271167348, 0.2990696603801076, 0.45050809548404047, 1.5223413067429346, -0.6540957967501771, 0.6580679806844066, 0.15717098324798795, 0.286468129268979, 0.18155329112252233, -0.549771367588385, 0.524953901852189, -0.18117907438655842, -0.7181562798609779, -0.36884200000969086, 0.5042887320121127, -0.0040987512904292695, 0.04879896773389916, 0.6431705288413153, 0.8805382980199024, 0.09369376964681755, 0.11460868114878459, 0.08946679293769033, 0.05680409006464278, 0.4225484915490732, -0.06346283399820501, 0.5325868633683473, -0.5749020697875508, 1.188978327565867, -0.26400103618698517, 1.1479803624887104, 0.4088641396356595, 0.20716387608231357, -0.58652008160861, 0.007958232246783886, 0.039214275620337816, 0.8811737210303782, 0.03752835197655038, 0.21886109158495531, -0.27824549227881573, 0.564994671118606, 0.3029319880493296, 0.008156911131354186, 0.08424372548235368, -0.5411793541084616, -0.2736580189740437, 0.6362763369811565, -0.2248666983651409, 0.5975735226522776, 0.3637005172140274, -0.16621946365662882, -0.05254921319425118, 0.6237154011437974, 1.207317615449356, 0.2339279875374826, 0.909308399900744, 0.05595566009473315, 0.3452306264957638, 0.16676454261031087, 0.05335735898788684, 0.06500278588150403, 0.13687763402488426, 0.15080251981308643, 0.008038466392716504, 0.0018137059086350278, 0.8789484041031317, 0.11567693827260013, 0.4205369116706892, 0.021473656831157897, 0.049223882393449284, 0.04172801058799556, -0.26857702673520084, -0.5657589520571159, -0.04172624843573964, 0.030996002899595025, 0.6423432548899725, 0.1426724571829835, 0.3623474763538559, 0.05107303167920275, -0.4647408197492051, 0.3824935362420447, 0.4294792745686642, 0.23856160517870142, 0.6019033369131677, 0.23369153142042873, -0.0335003492272599, 0.1351755055284475, 0.026519529546851578, 0.09843519110646777, 0.048121559175692205, 0.05539600693039608, 0.27284255342787433, 0.022396080782323163, 0.03066523667560943, 0.11937342516424145, 0.256517307316327, 0.0003351128385966312, 0.13016830674466598, 0.2631805682453333, 0.38359282751962287, 0.139547366515393]","[-0.6752030712421796, 1.070880354360973]"
500,"[0.01997705221122931, -0.651814424097249, 0.12329280401858601, -0.3444133618438654, 0.10083854274635642, -0.01811125837375108, 0.6683541232773903, 1.683819820407973, 0.020091328249771563, 0.06427590426743063, -1.285228758419969, 0.26215974787524754, 0.505684322272891, -0.5443404654003533, 0.39020707188342385, -0.5537612226759611, 1.1142151453512308, 0.8996917815961121, -0.043315960320404405, -0.1794991735762797, -0.16134214597721616, 0.33505058753097045, 0.3341196498926825, 0.5216242326198003, 0.0093177621258749, 0.8333901823612503, 0.040807954108896725, 0.19818269506454667, 0.07867454132842312, -0.4969694059457989, 0.46037494601923457, 0.2902844192354365, -0.05677206990707071, -0.3641985867358702, 0.8287304992947114, 0.39265528452033543, 0.37251717832178527, 1.3049545122173083, 0.7348786738544889, 0.3981494112599935, 0.521479658075104, -0.3803355156139058, 0.07329255169465686, 0.3043791065904955, 0.17288637570342258, -0.5570242952096202, -0.11133226737753857, -0.2398651230216377, 0.12572078277707496, 0.79075003318329, -0.2532210117527622, 0.27304918012134427, -0.5288200945201491, -0.6479377282839267, -0.08549703067055545, 0.03777210771803705, 0.4982950489216338, -0.3503543151269846, -0.22170859211741267, -0.31713804123324724, -0.00772647016356404, 0.34414806675264037, -0.06887257217369223, 0.13697179051826572, 0.1179450911187997, 0.5504105647724638, 0.13195130994305795, 0.36016491518902516, 0.1719079902448492, -0.24019128408236282, -0.3165221586786568, -0.1918747703895893, 0.4378680124163812, -0.18547352942453948, 0.3992288082710551, 0.05595566053831981, 0.3452306274825031, 0.16676454309796054, 0.053357359741644975, 0.06500278492143698, 0.13687763374874867, 0.15080252011203701, 0.008038466010636692, 0.001813706423479105, 0.8789484036072657, 0.11567693879680183, 0.42053691153824485, 0.021473656728410256, 0.04922388188284445, 0.0417280105850791, 0.07231756551386678, -0.09420600047374011, 0.4528645717114987, 0.3792650580767573, 0.7165800561276986, -0.48447435560154245, 0.685912871598362, 0.4503249934660883, -0.3664237672478061, 0.45670958404856277, 1.0260940155627856, -0.28796642320444304, -0.18938107583752367, 0.23230377448206876, 0.3786480428078559, 0.13517550562765912, 0.026519529336469044, 0.09843519074350966, 0.04812155986271713, 0.05539600748063618, 0.2728425540264714, 0.022396080525484023, 0.030665237803240424, 0.11937342583428351, 0.25651730766842484, 0.00033511248809574653, 0.13016830647474648, 0.2631805675336244, 0.3835928266802386, 0.13954736616076963]","[-0.6710994621782408, 0.9366424013470167]"
500,"[0.5607799420023611, 0.46168079130372003, 1.0832302061069237, 0.24076905687839673, 0.29010625349594493, -0.49962993760648383, 0.3859324626951439, 0.33821598099322375, 0.23963292170280323, -0.08833339106723881, 0.1101822443037917, -0.16983721836100985, 0.015039285902353781, -0.3503016820930378, -0.1324201758777241, -0.43661649040872713, 0.35212713136653206, 0.19604075569131846, 0.4943965422342981, 0.5582341227942249, 0.028061851739664963, 1.3221131922330989, 0.06165895395906631, -0.08809287725660409, 0.1434047719505491, 0.20712461833016202, 0.26571400353278046, 0.05566029198256415, -0.027935145764424622, 0.34982869147862944, 1.157024086755596, -0.032112603857409903, -0.33329117761327526, -0.4997111877620934, -0.003929723306407635, 0.15583388556983085, -0.3664585852138687, 0.48398792041957817, 0.9070401783414368, 0.5472848792502558, 0.09855344224187819, 0.3057681164264841, -0.6423925138531265, -0.024643645100346848, -0.059627557038353554, 0.5485137590108842, 0.08853443305218754, 0.1731601942256671, 0.09096326962707438, 0.04311799975906121, 0.5193790630526217, 0.3253664947210808, 0.09847975405300045, -0.09114804984387018, 0.32948354363788457, 0.05070055520949581, 1.7893352515254168, -0.33544981456659545, -0.18546187683735543, 0.23222462082103973, 0.08976554989824116, 0.3651446015850671, -0.20976784576042387, -0.20855569756069128, 0.21080446092071262, 0.43224471056715674, 0.13204636534057224, 0.2864835157148613, 0.2798380663123653, -0.35389909698831273, -0.5804104790923825, -0.013783980346745193, 0.6417608093882122, -0.2082980552602465, 0.2970809659718742, 0.055955660285306644, 0.34523062713461206, 0.16676454275944777, 0.053357359656552375, 0.06500278603593283, 0.13687763387980753, 0.15080252003488337, 0.00803846594879537, 0.0018137057592307073, 0.8789484040493244, 0.11567693858789281, 0.420536911642526, 0.021473656605915842, 0.04922388244398625, 0.04172801070512376, 0.1304386990496645, 0.021663038052298866, 0.3827159711057651, 0.06522785737346229, 0.8752903731641418, -0.9013728858548835, 0.4298127487006202, 0.34402271709039994, 0.07460431555477144, -0.14187672516637947, 0.9247405121511035, 0.26869862027259434, -0.2352307534472912, 0.7988347859720494, 0.8485308641119156, 0.13517550556399058, 0.02651952975269207, 0.0984351910709799, 0.04812155942015249, 0.0553960067084803, 0.2728425546270181, 0.022396080952469987, 0.03066523653414408, 0.11937342496345622, 0.256517307716389, 0.0003351134645123567, 0.13016830708543464, 0.26318056872517726, 0.38359282731160277, 0.13954736626189804]","[-0.7587228577656753, 1.0149479727012616]"
500,"[0.6351650959094095, 0.2322189414627964, 1.0060932467707182, -0.221986910057739, 0.5301342240944422, -0.8086109504549891, 0.11018238657972414, 0.3760489970316425, 0.5091188024080678, 0.02765714605729387, -0.4829989316578671, 0.42916643208490074, 0.5508975035141234, -0.589186300602399, -0.39622717861261036, -0.5682886950376796, 0.8340687358109476, 0.6637210754241343, 0.4880819879748703, 0.9411879280820633, -0.02768218773896265, 0.7547231904225185, 0.021312286094010882, 0.19136435639285534, -0.5323301025828041, 0.5161662576353243, -0.09752754617753999, -0.5877607660406219, -0.7480147155354393, 0.41705467704573124, 0.24400239595008216, 0.011688415541186456, 0.5558531073352028, -0.524060123474859, 0.09100319749532511, 0.6424482472081374, 0.05737061260918808, 1.0743993805461403, 0.023055436461442255, 0.5115241738610387, 0.17018740312766983, -0.037904450753544094, -0.08904510178226646, -0.27051443736644926, 0.5006242093355251, 0.1876194641894885, -0.16168271411182675, -0.022634219489042137, 0.25020395267356843, 0.09097977163353993, 0.1553693427824005, 0.2776576307650936, 0.18000765564597856, -0.35204320758955737, -0.07025526912800709, -0.0063139305012217765, 1.4668529043990017, -0.4328023942367568, -0.14206064585172823, -0.0035025469282289976, -0.17814837698529634, -0.1134553758111169, -0.18643611345291286, -0.46078278951449714, 0.2954119887778771, 1.090792273832745, -0.13362111451611552, 0.6679162967964819, 0.45238216021384475, -0.26337874519257326, -0.4276281611171761, 0.07950893561442514, 0.5838715294466851, -0.2777253533347907, 0.5187604987656875, 0.05595565980610236, 0.3452306267497756, 0.1667645427152465, 0.05335735971408542, 0.06500278521867878, 0.1368776342052201, 0.15080252024905974, 0.00803846632095938, 0.0018137058173134568, 0.8789484040827058, 0.11567693873823319, 0.4205369112857621, 0.02147365613755191, 0.04922388241982706, 0.04172801031762761, 0.11313990075747139, 0.01024020702261139, 0.42872296379404057, 0.33908170835735035, 0.44321316668041044, -0.4928999352472222, 0.7196142757099334, 0.4899903785610443, -0.05152105993855146, 0.6513791609315588, 1.1485119790005216, 0.49859712102993337, 0.004791486868662597, -0.4889824621756727, 0.025840642830746583, 0.13517550520949995, 0.0265195291555545, 0.0984351907807631, 0.04812155982117993, 0.055396007234043476, 0.27284255355702053, 0.0223960812832536, 0.03066523769005822, 0.11937342534251694, 0.25651730761202635, 0.00033511473406835045, 0.13016830677256064, 0.26318056794658257, 0.3835928280454605, 0.13954736610639926]","[-0.7022765149854866, 1.024664766629562]"
500,"[1.0154188721952193, 0.6733124388260557, 0.6426086661536657, -0.5515846298494838, 0.10067484929936799, 0.12322661491521791, 0.7051603905583043, 0.34481067225654805, 0.5094523397504165, -0.18970845814682732, -0.547335058696912, 0.17221667878708774, 0.11274390103953638, -0.7920290007468377, -0.05333134068642464, -0.21128275684662393, 0.5058479785853625, 0.6420656665452953, 0.35621239075893474, -0.10636538579812575, 0.46592044560868356, 1.024760236128068, 0.2651065744358347, 0.07886934609800846, 0.7489440177668488, 0.03664653493691006, -0.6260381734419509, 0.29013912103393036, 0.12246932651420164, -0.9443511058179287, 0.7782740173482582, 0.12460847086216029, -0.08332631000708693, -0.5894774148018456, -0.2911717336306686, 0.10234447868082651, -0.05714228570342359, -0.005026215442360867, 1.134697832495812, -0.3561409980584036, 0.02138983107740994, 0.5237776336589626, -0.7173297788446044, 0.043677494836489084, -0.04236281460590781, -0.1955095832875909, -0.13555570707839953, -0.05331589712516134, 0.7480304203543188, 0.14038147799950002, -0.08082267345048517, 0.11817619892610973, -0.041572771625489696, -0.3031075903507076, -0.3386474375330839, -0.051550103829976664, 0.7730720469504849, -0.19118226139907318, -0.010590925430604125, -0.31264386158214075, 0.21782011969434623, 0.3208742087284278, 0.06146607084719053, 0.023500200553970913, 0.23815374908373804, 0.5714255558954963, -0.1506525408348033, 0.34320209173697114, 0.43993430425606866, 0.15210149652107222, -0.26015596874799524, 0.34215111312793123, 0.5020689066462175, -0.34114200238338155, 0.6736476163093532, 0.055955660269869166, 0.34523062733507365, 0.1667645429633424, 0.053357359669891954, 0.06500278542146744, 0.13687763408699435, 0.15080252027480592, 0.008038466040336215, 0.0018137063694985058, 0.8789484046298176, 0.11567693854019637, 0.4205369115819229, 0.02147365673046206, 0.04922388247818216, 0.041728010494690916, -0.5479177591732626, -0.04375125202297197, 0.9360623224250216, 0.4805804952052897, 1.049839325649686, -0.6640652209271225, 0.7237546058899306, -0.16065822553948408, 0.28937323596931896, 0.4106598197092665, 0.691822743943599, 0.26799834579523446, 0.9186714237386296, -0.04189060420938129, 0.7777019254267012, 0.13517550552004334, 0.02651952850508852, 0.09843519066575737, 0.04812155974445359, 0.05539600689362326, 0.2728425533025222, 0.022396080929317098, 0.030665238637896445, 0.11937342675349001, 0.25651730725972877, 0.0003351133488751616, 0.1301683066055827, 0.26318056779442056, 0.383592827013228, 0.13954736631452966]","[-0.7023039976014233, 0.9852521847090617]"
500,"[-0.14703019913072865, -0.11375106843812374, -0.3439654963363776, -0.24126030329478812, 0.6206435830379463, -0.5255869042276299, -0.5825977664916026, -0.8750815794329336, -0.32972455521321253, -0.14912111126051636, 0.6847256124284913, 0.7119438173510986, -0.0156558636704971, -0.4854953297976542, -0.23276303286241581, 0.4280929683112606, -0.14843453908207677, 0.6382447122685113, 0.1302709261247213, -0.29809338278397673, 0.20363735448661127, 0.16033755796607993, -0.19050325232155826, 0.16701165118368083, 0.6890821759880912, 0.03462415699407429, 0.8909290263514282, 0.4072904771572341, 0.617967338680801, 0.2439548143873756, 0.8586991879385342, 0.4000352425776337, -0.02304599620636459, -0.7453047036304665, 0.10448428340435773, 0.7008733830488483, 0.8676131761701386, 0.9015839182087091, -0.025118828831533498, 1.0184816217755275, 0.6933045425146085, 0.15576008769049407, -0.2672191404623949, 0.6724114594960583, 0.7356022704815025, 2.4283767925756514, -0.03666398831576575, 0.17083428809045234, 0.061725184098076404, 0.4091018018090652, 0.2293052866239673, 0.10502822231688132, 0.21142992109433678, 0.8703611664217829, 0.277200908734944, 0.0937923736014565, 0.9872778746369355, -0.855775368749505, 0.20842061902856393, -0.08586388119331341, 0.40253059599903035, -0.5303804167266841, 0.18445468598169382, -0.7528800864993234, -0.2170974914190174, 0.6450030877167893, 0.692000834222641, 0.5806565593884162, 0.2780559134655905, -0.09332546701888747, 0.4604119634083905, 0.19346336428512045, 0.8797255863635778, 0.22586190631429584, 0.2290135186941152, 0.05595566086825708, 0.3452306267287721, 0.16676454268289867, 0.05335735946476834, 0.06500278533053278, 0.1368776341325752, 0.15080251957590057, 0.008038466167034497, 0.0018137060989978496, 0.8789484044460468, 0.11567693885008477, 0.4205369116591249, 0.021473656977053203, 0.04922388239635909, 0.0417280104637319, -0.8486938217453983, 0.49622962839968676, 0.3985377493806015, -0.092429801772775, 0.32139948235440036, 0.10583699809268932, 0.32175580189908665, -0.07506099917602974, 0.5488682464653747, 0.2721976100640209, 0.23230283644453642, 0.2833223640908003, 0.02642382483171452, -0.018944710939082336, -0.6327995989541704, 0.13517550579642815, 0.026519529895247116, 0.0984351907563302, 0.048121559976703185, 0.05539600702518798, 0.2728425536861937, 0.02239608055656118, 0.03066523738679944, 0.11937342598869566, 0.2565173074083717, 0.00033511304166775253, 0.13016830661000042, 0.2631805681911307, 0.38359282723762717, 0.13954736613458987]","[-0.6209970754190233, -1.3592994936478346]"
500,"[-0.35613820448149497, -0.28681422418665586, -0.2800103383756912, 0.3847983004343285, 0.5493525600691819, -0.28500110139921886, -0.06386812530710205, 0.8434734892316516, -0.5706285997745643, -0.011370556658665678, 0.1154743663919295, 0.09437966150513209, 0.1850248391765063, 0.27512546664881604, 0.18029668094474524, 0.0237993619333802, 0.07955140841254682, 0.1089001111669299, -0.21590599443963354, 0.278059386748211, 0.10497273948227853, 1.365581837531839, -0.1280151384631902, 0.4031572321522682, -0.024619218078978235, 0.3512279142301433, 0.14561647571876574, 0.6483023668454817, -0.02917070209862587, 0.07334685543417656, 1.0932054369029494, -0.19730030577801744, -0.2714763919751928, -0.26932035763585455, -0.2794106352641, 0.42642220782235996, 0.8574413345078744, 0.6169726716360657, 0.009558340685225002, 0.4036122936995058, 0.46871367145421505, 0.4349900057998361, -0.49152836840643793, -0.38062011654050865, 0.4649141902875531, 1.010603307167272, -0.27762178507572693, -0.5077050750469124, 0.22667797168931525, 0.09138634026575324, 0.7226122238654473, 0.17573711256962865, 0.28175274443089515, -0.06928970098763772, -0.21932755818599206, -0.6979286885645103, 0.6597523690587135, 0.14928070610813707, -0.19661145102202834, 0.4667217536672484, 0.03198083444746058, -0.20944323740251305, 0.1379782587119665, -0.2677070560269162, 0.1401893519064469, 0.6196328907412051, -0.19665959972121955, 0.7409330931214237, 0.6966040577178803, 0.06895700785182259, 0.19783107725505128, -0.014786970022287673, 0.5273945694439809, 0.23236675113707292, 0.6176560537751871, 0.05595566016178413, 0.3452306266210048, 0.16676454282973552, 0.05335735951397159, 0.06500278572996705, 0.13687763424372956, 0.15080251973829192, 0.00803846627837473, 0.0018137058700665616, 0.8789484042286214, 0.11567693826766794, 0.42053691139926996, 0.02147365634449985, 0.049223882201795174, 0.04172801039145258, 0.2400524486661292, 0.040756503252919164, 0.3766858332295173, 0.6005901016095853, 0.3746940343163481, 1.2275456675101368, 0.6564863711002393, -0.5642644880853498, -0.04963417317984811, 0.28218325652152737, 0.8044045290899696, -0.35267732979879957, -0.28571611121830814, 1.112102992023901, -0.5680435719758895, 0.13517550554989702, 0.026519529543927875, 0.09843519077312539, 0.04812156006208839, 0.05539600724871331, 0.27284255400014573, 0.022396080471649264, 0.03066523842395557, 0.11937342650776281, 0.2565173071347315, 0.00033511403340085594, 0.13016830639681126, 0.2631805680423284, 0.3835928272043134, 0.13954736630294987]","[-0.8246356299231234, -1.0866708788210404]"
